<?xml version="1.0"?>
<opencv_storage>
<cascade>
  <stageType>BOOST</stageType>
  <featureType>HAAR</featureType>
  <height>24</height>
  <width>24</width>
  <stageParams>
    <boostType>GAB</boostType>
    <minHitRate>9.9500000476837158e-01</minHitRate>
    <maxFalseAlarm>5.0000000000000000e-01</maxFalseAlarm>
    <weightTrimRate>9.4999998807907104e-01</weightTrimRate>
    <maxDepth>1</maxDepth>
    <maxWeakCount>100</maxWeakCount></stageParams>
  <featureParams>
    <maxCatCount>0</maxCatCount>
    <featSize>1</featSize>
    <mode>BASIC</mode></featureParams>
  <stageNum>20</stageNum>
  <stages>
    <!-- stage 0 -->
    <_>
      <maxWeakCount>60</maxWeakCount>
      <stageThreshold>-1.5386853218078613e+00</stageThreshold>
      <weakClassifiers>
        <_>
          <internalNodes>
            0 -1 814 3.6752685904502869e-02</internalNodes>
          <leafValues>
            -5.0337541103363037e-01 1.1133603006601334e-01</leafValues></_>
        <_>
          <internalNodes>
            0 -1 536 -1.1305199936032295e-02</internalNodes>
          <leafValues>
            2.9831326007843018e-01 -1.8820415437221527e-01</leafValues></_>
        <_>
          <internalNodes>
            0 -1 1565 5.5219354107975960e-03</internalNodes>
          <leafValues>
            -8.5758723318576813e-02 5.6446176767349243e-01</leafValues></_>
        <_>
          <internalNodes>
            0 -1 1568 -4.3800184503197670e-03</internalNodes>
          <leafValues>
            4.7732803225517273e-01 -1.2672853469848633e-01</leafValues></_>
        <_>
          <internalNodes>
            0 -1 98 4.5421611517667770e-02</internalNodes>
          <leafValues>
            -7.5307004153728485e-02 5.2014195919036865e-01</leafValues></_>
        <_>
          <internalNodes>
            0 -1 767 4.8094242811203003e-03</internalNodes>
          <leafValues>
            1.1738456040620804e-01 -2.9631963372230530e-01</leafValues></_>
        <_>
          <internalNodes>
            0 -1 908 -9.3759587034583092e-03</internalNodes>
          <leafValues>
            4.7192588448524475e-01 -3.6618314683437347e-02</leafValues></_>
        <_>
          <internalNodes>
            0 -1 232 -1.1394613422453403e-02</internalNodes>
          <leafValues>
            3.3226764202117920e-01 -1.0049896687269211e-01</leafValues></_>
        <_>
          <internalNodes>
            0 -1 1015 2.7487799525260925e-03</internalNodes>
          <leafValues>
            -6.4080789685249329e-02 4.6874004602432251e-01</leafValues></_>
        <_>
          <internalNodes>
            0 -1 19 -3.7918668240308762e-02</internalNodes>
          <leafValues>
            -5.3731721639633179e-01 4.8351999372243881e-02</leafValues></_>
        <_>
          <internalNodes>
            0 -1 37 5.9244129806756973e-02</internalNodes>
          <leafValues>
            1.0728744417428970e-01 -3.5477307438850403e-01</leafValues></_>
        <_>
          <internalNodes>
            0 -1 566 -2.2467882372438908e-03</internalNodes>
          <leafValues>
            4.8470818996429443e-01 -5.9952907264232635e-02</leafValues></_>
        <_>
          <internalNodes>
            0 -1 1563 -3.5697617568075657e-04</internalNodes>
          <leafValues>
            -2.3809538781642914e-01 1.1353150010108948e-01</leafValues></_>
        <_>
          <internalNodes>
            0 -1 1529 -2.5485972873866558e-03</internalNodes>
          <leafValues>
            4.9467182159423828e-01 -4.9049571156501770e-02</leafValues></_>
        <_>
          <internalNodes>
            0 -1 612 -4.0695280767977238e-03</internalNodes>
          <leafValues>
            4.6162161231040955e-01 -4.9969077110290527e-02</leafValues></_>
        <_>
          <internalNodes>
            0 -1 189 -2.3674075491726398e-03</internalNodes>
          <leafValues>
            -2.5527355074882507e-01 9.1206543147563934e-02</leafValues></_>
        <_>
          <internalNodes>
            0 -1 1295 3.1012976542115211e-03</internalNodes>
          <leafValues>
            8.7360024452209473e-02 -2.6278710365295410e-01</leafValues></_>
        <_>
          <internalNodes>
            0 -1 680 1.7515087127685547e-01</internalNodes>
          <leafValues>
            -6.2887780368328094e-02 4.2824387550354004e-01</leafValues></_>
        <_>
          <internalNodes>
            0 -1 482 -2.3389467969536781e-03</internalNodes>
          <leafValues>
            4.2580384016036987e-01 -4.8688791692256927e-02</leafValues></_>
        <_>
          <internalNodes>
            0 -1 916 5.8782428503036499e-02</internalNodes>
          <leafValues>
            -7.1400463581085205e-02 2.9967683553695679e-01</leafValues></_>
        <_>
          <internalNodes>
            0 -1 1526 1.4705373905599117e-02</internalNodes>
          <leafValues>
            -3.1790729612112045e-02 6.7997616529464722e-01</leafValues></_>
        <_>
          <internalNodes>
            0 -1 1646 -1.7509167082607746e-04</internalNodes>
          <leafValues>
            -2.1023744344711304e-01 9.8467811942100525e-02</leafValues></_>
        <_>
          <internalNodes>
            0 -1 1620 6.0649047372862697e-04</internalNodes>
          <leafValues>
            1.2038019299507141e-01 -1.7718039453029633e-01</leafValues></_>
        <_>
          <internalNodes>
            0 -1 1592 4.0341052226722240e-03</internalNodes>
          <leafValues>
            -6.8193383514881134e-02 3.2026097178459167e-01</leafValues></_>
        <_>
          <internalNodes>
            0 -1 1252 -6.9848721614107490e-04</internalNodes>
          <leafValues>
            -2.3674044013023376e-01 8.9586943387985229e-02</leafValues></_>
        <_>
          <internalNodes>
            0 -1 865 -1.8175803124904633e-02</internalNodes>
          <leafValues>
            2.1439398825168610e-01 -1.0019864886999130e-01</leafValues></_>
        <_>
          <internalNodes>
            0 -1 105 -4.4513456523418427e-02</internalNodes>
          <leafValues>
            -6.0594916343688965e-01 3.7819907069206238e-02</leafValues></_>
        <_>
          <internalNodes>
            0 -1 1033 -4.4123418629169464e-03</internalNodes>
          <leafValues>
            5.3852301836013794e-01 -4.7325327992439270e-02</leafValues></_>
        <_>
          <internalNodes>
            0 -1 103 1.2271786108613014e-02</internalNodes>
          <leafValues>
            -6.1012431979179382e-02 3.1705787777900696e-01</leafValues></_>
        <_>
          <internalNodes>
            0 -1 673 -3.3865980803966522e-03</internalNodes>
          <leafValues>
            -2.9972958564758301e-01 7.1241326630115509e-02</leafValues></_>
        <_>
          <internalNodes>
            0 -1 95 -3.5228005144745111e-03</internalNodes>
          <leafValues>
            -2.1130535006523132e-01 9.9876262247562408e-02</leafValues></_>
        <_>
          <internalNodes>
            0 -1 628 -3.0156630091369152e-03</internalNodes>
          <leafValues>
            2.5714984536170959e-01 -7.6783850789070129e-02</leafValues></_>
        <_>
          <internalNodes>
            0 -1 769 -2.9231809079647064e-02</internalNodes>
          <leafValues>
            2.5453010201454163e-01 -8.0176450312137604e-02</leafValues></_>
        <_>
          <internalNodes>
            0 -1 462 1.2769130989909172e-02</internalNodes>
          <leafValues>
            -9.9673196673393250e-02 2.0197331905364990e-01</leafValues></_>
        <_>
          <internalNodes>
            0 -1 268 5.0521164666861296e-04</internalNodes>
          <leafValues>
            1.0134103149175644e-01 -2.0525853335857391e-01</leafValues></_>
        <_>
          <internalNodes>
            0 -1 784 -2.7331032470101491e-05</internalNodes>
          <leafValues>
            1.6730600595474243e-01 -1.1617777496576309e-01</leafValues></_>
        <_>
          <internalNodes>
            0 -1 642 8.0944178625941277e-04</internalNodes>
          <leafValues>
            9.4878785312175751e-02 -2.0655208826065063e-01</leafValues></_>
        <_>
          <internalNodes>
            0 -1 91 -2.5658519007265568e-03</internalNodes>
          <leafValues>
            5.2693289518356323e-01 -4.1205301880836487e-02</leafValues></_>
        <_>
          <internalNodes>
            0 -1 309 -2.7771079912781715e-02</internalNodes>
          <leafValues>
            -5.0480574369430542e-01 3.9160020649433136e-02</leafValues></_>
        <_>
          <internalNodes>
            0 -1 17 3.6604382097721100e-02</internalNodes>
          <leafValues>
            3.1917218118906021e-02 -5.2296853065490723e-01</leafValues></_>
        <_>
          <internalNodes>
            0 -1 1097 -2.3302353918552399e-01</internalNodes>
          <leafValues>
            -7.6269280910491943e-01 2.2742608562111855e-02</leafValues></_>
        <_>
          <internalNodes>
            0 -1 1605 1.3935269089415669e-03</internalNodes>
          <leafValues>
            -3.1399853527545929e-02 7.5697618722915649e-01</leafValues></_>
        <_>
          <internalNodes>
            0 -1 833 4.0920674800872803e-03</internalNodes>
          <leafValues>
            -2.8671870008111000e-02 5.7768642902374268e-01</leafValues></_>
        <_>
          <internalNodes>
            0 -1 816 -2.0613037049770355e-03</internalNodes>
          <leafValues>
            3.0929443240165710e-01 -5.9833802282810211e-02</leafValues></_>
        <_>
          <internalNodes>
            0 -1 654 -7.5508968438953161e-04</internalNodes>
          <leafValues>
            -1.9490554928779602e-01 9.6907265484333038e-02</leafValues></_>
        <_>
          <internalNodes>
            0 -1 1145 -2.8777457773685455e-03</internalNodes>
          <leafValues>
            -2.4269153177738190e-01 7.3066577315330505e-02</leafValues></_>
        <_>
          <internalNodes>
            0 -1 1463 -6.4804367721080780e-03</internalNodes>
          <leafValues>
            2.0432160794734955e-01 -9.6560612320899963e-02</leafValues></_>
        <_>
          <internalNodes>
            0 -1 1499 -6.8086187820881605e-04</internalNodes>
          <leafValues>
            -2.1508944034576416e-01 9.3398287892341614e-02</leafValues></_>
        <_>
          <internalNodes>
            0 -1 396 2.4092633277177811e-02</internalNodes>
          <leafValues>
            -5.9747226536273956e-02 3.1113472580909729e-01</leafValues></_>
        <_>
          <internalNodes>
            0 -1 537 2.0785015658475459e-04</internalNodes>
          <leafValues>
            8.5049003362655640e-02 -2.2229120135307312e-01</leafValues></_>
        <_>
          <internalNodes>
            0 -1 449 3.5096674691885710e-03</internalNodes>
          <leafValues>
            -3.8457524031400681e-02 5.8049911260604858e-01</leafValues></_>
        <_>
          <internalNodes>
            0 -1 500 6.3561081886291504e-02</internalNodes>
          <leafValues>
            6.5877586603164673e-02 -2.8194811940193176e-01</leafValues></_>
        <_>
          <internalNodes>
            0 -1 750 -4.8126079142093658e-02</internalNodes>
          <leafValues>
            -3.6368939280509949e-01 5.2921950817108154e-02</leafValues></_>
        <_>
          <internalNodes>
            0 -1 871 -2.6925197744276375e-05</internalNodes>
          <leafValues>
            1.6207210719585419e-01 -1.1126552522182465e-01</leafValues></_>
        <_>
          <internalNodes>
            0 -1 1603 3.0924950260668993e-04</internalNodes>
          <leafValues>
            8.4319517016410828e-02 -2.1387076377868652e-01</leafValues></_>
        <_>
          <internalNodes>
            0 -1 1300 -8.9260786771774292e-03</internalNodes>
          <leafValues>
            2.8098765015602112e-01 -6.4861401915550232e-02</leafValues></_>
        <_>
          <internalNodes>
            0 -1 1131 1.0788068175315857e-02</internalNodes>
          <leafValues>
            -4.2133033275604248e-02 4.1084679961204529e-01</leafValues></_>
        <_>
          <internalNodes>
            0 -1 1285 1.7891025636345148e-03</internalNodes>
          <leafValues>
            8.7264105677604675e-02 -2.2963446378707886e-01</leafValues></_>
        <_>
          <internalNodes>
            0 -1 504 2.7196113951504230e-03</internalNodes>
          <leafValues>
            -3.0054206028580666e-02 6.3183957338333130e-01</leafValues></_>
        <_>
          <internalNodes>
            0 -1 1222 2.7851852792082354e-05</internalNodes>
          <leafValues>
            -1.0772296786308289e-01 1.6893115639686584e-01</leafValues></_></weakClassifiers></_>
    <!-- stage 1 -->
    <_>
      <maxWeakCount>65</maxWeakCount>
      <stageThreshold>-1.4235994815826416e+00</stageThreshold>
      <weakClassifiers>
        <_>
          <internalNodes>
            0 -1 555 3.9125971496105194e-02</internalNodes>
          <leafValues>
            -5.0849986076354980e-01 9.5969289541244507e-02</leafValues></_>
        <_>
          <internalNodes>
            0 -1 885 -3.0208374373614788e-03</internalNodes>
          <leafValues>
            4.4457015395164490e-01 -1.2870448827743530e-01</leafValues></_>
        <_>
          <internalNodes>
            0 -1 1579 -3.1578568741679192e-03</internalNodes>
          <leafValues>
            4.9664828181266785e-01 -7.4088096618652344e-02</leafValues></_>
        <_>
          <internalNodes>
            0 -1 1573 3.0358247458934784e-03</internalNodes>
          <leafValues>
            -8.0861680209636688e-02 4.8058566451072693e-01</leafValues></_>
        <_>
          <internalNodes>
            0 -1 869 -1.0874729603528976e-02</internalNodes>
          <leafValues>
            3.4054598212242126e-01 -1.0714504867792130e-01</leafValues></_>
        <_>
          <internalNodes>
            0 -1 216 9.3328105285763741e-03</internalNodes>
          <leafValues>
            -8.2691475749015808e-02 3.7865445017814636e-01</leafValues></_>
        <_>
          <internalNodes>
            0 -1 465 1.5462377667427063e-01</internalNodes>
          <leafValues>
            -1.4465257525444031e-01 2.1606567502021790e-01</leafValues></_>
        <_>
          <internalNodes>
            0 -1 806 1.4225591439753771e-03</internalNodes>
          <leafValues>
            -9.9747650325298309e-02 2.9837128520011902e-01</leafValues></_>
        <_>
          <internalNodes>
            0 -1 5 -1.6637597233057022e-02</internalNodes>
          <leafValues>
            3.2275810837745667e-01 -8.9592799544334412e-02</leafValues></_>
        <_>
          <internalNodes>
            0 -1 208 3.4638796932995319e-03</internalNodes>
          <leafValues>
            -7.6171524822711945e-02 3.2784700393676758e-01</leafValues></_>
        <_>
          <internalNodes>
            0 -1 425 1.4081625640392303e-01</internalNodes>
          <leafValues>
            -6.9309018552303314e-02 3.6059620976448059e-01</leafValues></_>
        <_>
          <internalNodes>
            0 -1 1283 -3.8097865879535675e-02</internalNodes>
          <leafValues>
            2.8314542770385742e-01 -7.2917841374874115e-02</leafValues></_>
        <_>
          <internalNodes>
            0 -1 212 -1.3640076853334904e-02</internalNodes>
          <leafValues>
            3.0121174454689026e-01 -1.0095717012882233e-01</leafValues></_>
        <_>
          <internalNodes>
            0 -1 197 -9.3749128282070160e-03</internalNodes>
          <leafValues>
            -2.9972973465919495e-01 1.0654328763484955e-01</leafValues></_>
        <_>
          <internalNodes>
            0 -1 651 2.3068174414220266e-05</internalNodes>
          <leafValues>
            -1.3929113745689392e-01 1.6903807222843170e-01</leafValues></_>
        <_>
          <internalNodes>
            0 -1 1324 -2.5498783215880394e-03</internalNodes>
          <leafValues>
            6.8302780389785767e-01 -2.4322355166077614e-02</leafValues></_>
        <_>
          <internalNodes>
            0 -1 651 -1.3040367775829509e-05</internalNodes>
          <leafValues>
            1.7856957018375397e-01 -1.1082775145769119e-01</leafValues></_>
        <_>
          <internalNodes>
            0 -1 1479 1.4521604171022773e-03</internalNodes>
          <leafValues>
            -2.7920257300138474e-02 5.7454943656921387e-01</leafValues></_>
        <_>
          <internalNodes>
            0 -1 568 1.3223796486272477e-05</internalNodes>
          <leafValues>
            -1.1423237621784210e-01 1.7419415712356567e-01</leafValues></_>
        <_>
          <internalNodes>
            0 -1 1544 5.0495704635977745e-03</internalNodes>
          <leafValues>
            -5.0107598304748535e-02 4.2121177911758423e-01</leafValues></_>
        <_>
          <internalNodes>
            0 -1 325 1.1975412235187832e-05</internalNodes>
          <leafValues>
            -1.1670619249343872e-01 1.6452318429946899e-01</leafValues></_>
        <_>
          <internalNodes>
            0 -1 579 1.1079001706093550e-03</internalNodes>
          <leafValues>
            1.0143689811229706e-01 -2.0278742909431458e-01</leafValues></_>
        <_>
          <internalNodes>
            0 -1 322 -9.4968803226947784e-02</internalNodes>
          <leafValues>
            -6.7254376411437988e-01 2.3573085665702820e-02</leafValues></_>
        <_>
          <internalNodes>
            0 -1 1643 -3.1753629446029663e-04</internalNodes>
          <leafValues>
            -1.8531547486782074e-01 1.0480348765850067e-01</leafValues></_>
        <_>
          <internalNodes>
            0 -1 1460 -3.3011417835950851e-03</internalNodes>
          <leafValues>
            4.3682429194450378e-01 -4.3725036084651947e-02</leafValues></_>
        <_>
          <internalNodes>
            0 -1 568 -2.6950350729748607e-05</internalNodes>
          <leafValues>
            1.7852887511253357e-01 -1.0256208479404449e-01</leafValues></_>
        <_>
          <internalNodes>
            0 -1 390 6.2691383063793182e-02</internalNodes>
          <leafValues>
            2.2530756890773773e-02 -7.8040456771850586e-01</leafValues></_>
        <_>
          <internalNodes>
            0 -1 1068 -1.3435741493594833e-05</internalNodes>
          <leafValues>
            1.5155144035816193e-01 -1.1715360730886459e-01</leafValues></_>
        <_>
          <internalNodes>
            0 -1 1183 -4.8481617704965174e-04</internalNodes>
          <leafValues>
            4.2538285255432129e-01 -4.0582075715065002e-02</leafValues></_>
        <_>
          <internalNodes>
            0 -1 725 2.6872402429580688e-01</internalNodes>
          <leafValues>
            2.0428705960512161e-02 -8.5912805795669556e-01</leafValues></_>
        <_>
          <internalNodes>
            0 -1 1307 2.6115942091564648e-05</internalNodes>
          <leafValues>
            -1.1214248836040497e-01 1.6142946481704712e-01</leafValues></_>
        <_>
          <internalNodes>
            0 -1 1421 7.6223647920414805e-04</internalNodes>
          <leafValues>
            9.7392097115516663e-02 -2.0100186765193939e-01</leafValues></_>
        <_>
          <internalNodes>
            0 -1 1473 1.9096462056040764e-03</internalNodes>
          <leafValues>
            -6.7110985517501831e-02 3.0617076158523560e-01</leafValues></_>
        <_>
          <internalNodes>
            0 -1 717 -2.7162728365510702e-03</internalNodes>
          <leafValues>
            4.5837709307670593e-01 -3.3744800835847855e-02</leafValues></_>
        <_>
          <internalNodes>
            0 -1 422 -3.9432933554053307e-03</internalNodes>
          <leafValues>
            4.0557995438575745e-01 -4.2241424322128296e-02</leafValues></_>
        <_>
          <internalNodes>
            0 -1 545 -4.3160974746569991e-04</internalNodes>
          <leafValues>
            -1.9418367743492126e-01 9.7171284258365631e-02</leafValues></_>
        <_>
          <internalNodes>
            0 -1 230 1.0754351317882538e-01</internalNodes>
          <leafValues>
            -8.1100389361381531e-02 2.3077568411827087e-01</leafValues></_>
        <_>
          <internalNodes>
            0 -1 1468 -5.0794482231140137e-03</internalNodes>
          <leafValues>
            3.2556325197219849e-01 -4.9316693097352982e-02</leafValues></_>
        <_>
          <internalNodes>
            0 -1 303 -4.1580472141504288e-02</internalNodes>
          <leafValues>
            -8.0680596828460693e-01 2.2230962291359901e-02</leafValues></_>
        <_>
          <internalNodes>
            0 -1 1523 -1.0925054084509611e-03</internalNodes>
          <leafValues>
            -2.0691448450088501e-01 8.3963923156261444e-02</leafValues></_>
        <_>
          <internalNodes>
            0 -1 765 -1.9192588515579700e-03</internalNodes>
          <leafValues>
            -2.9593998193740845e-01 5.4403301328420639e-02</leafValues></_>
        <_>
          <internalNodes>
            0 -1 792 -3.0495848041027784e-03</internalNodes>
          <leafValues>
            3.5847175121307373e-01 -5.5852085351943970e-02</leafValues></_>
        <_>
          <internalNodes>
            0 -1 687 -1.3707535799767356e-05</internalNodes>
          <leafValues>
            1.6454489529132843e-01 -9.9672779440879822e-02</leafValues></_>
        <_>
          <internalNodes>
            0 -1 1152 -2.3792204447090626e-03</internalNodes>
          <leafValues>
            3.1676125526428223e-01 -5.4170344024896622e-02</leafValues></_>
        <_>
          <internalNodes>
            0 -1 576 -7.8904978930950165e-02</internalNodes>
          <leafValues>
            -4.4493153691291809e-01 4.0533464401960373e-02</leafValues></_>
        <_>
          <internalNodes>
            0 -1 470 -6.2339566648006439e-02</internalNodes>
          <leafValues>
            3.1527620553970337e-01 -5.6049384176731110e-02</leafValues></_>
        <_>
          <internalNodes>
            0 -1 921 3.9036711677908897e-03</internalNodes>
          <leafValues>
            6.5946243703365326e-02 -2.9557827115058899e-01</leafValues></_>
        <_>
          <internalNodes>
            0 -1 183 -7.0074468385428190e-04</internalNodes>
          <leafValues>
            -2.1984238922595978e-01 7.6027497649192810e-02</leafValues></_>
        <_>
          <internalNodes>
            0 -1 1431 1.1825637557194568e-05</internalNodes>
          <leafValues>
            -1.0088408738374710e-01 1.5122030675411224e-01</leafValues></_>
        <_>
          <internalNodes>
            0 -1 1431 -2.5672154151834548e-05</internalNodes>
          <leafValues>
            1.6825301945209503e-01 -1.0323974490165710e-01</leafValues></_>
        <_>
          <internalNodes>
            0 -1 1489 -2.7485861210152507e-04</internalNodes>
          <leafValues>
            -1.8165230751037598e-01 8.4453597664833069e-02</leafValues></_>
        <_>
          <internalNodes>
            0 -1 100 -1.8957246840000153e-01</internalNodes>
          <leafValues>
            -5.7232731580734253e-01 2.7403462678194046e-02</leafValues></_>
        <_>
          <internalNodes>
            0 -1 373 8.6494442075490952e-03</internalNodes>
          <leafValues>
            -7.5482621788978577e-02 2.4599711596965790e-01</leafValues></_>
        <_>
          <internalNodes>
            0 -1 169 -5.0712390802800655e-03</internalNodes>
          <leafValues>
            2.2413007915019989e-01 -7.5526103377342224e-02</leafValues></_>
        <_>
          <internalNodes>
            0 -1 1485 -3.6060800775885582e-03</internalNodes>
          <leafValues>
            3.7378230690956116e-01 -4.1910886764526367e-02</leafValues></_>
        <_>
          <internalNodes>
            0 -1 879 7.3315761983394623e-04</internalNodes>
          <leafValues>
            6.9164298474788666e-02 -2.4181778728961945e-01</leafValues></_>
        <_>
          <internalNodes>
            0 -1 1029 -1.4375227037817240e-03</internalNodes>
          <leafValues>
            4.9984669685363770e-01 -3.4653116017580032e-02</leafValues></_>
        <_>
          <internalNodes>
            0 -1 1598 2.7654532459564507e-04</internalNodes>
          <leafValues>
            9.4227917492389679e-02 -1.7314770817756653e-01</leafValues></_>
        <_>
          <internalNodes>
            0 -1 1542 -1.4777242904528975e-03</internalNodes>
          <leafValues>
            5.3875511884689331e-01 -3.2074190676212311e-02</leafValues></_>
        <_>
          <internalNodes>
            0 -1 1195 7.7910134568810463e-03</internalNodes>
          <leafValues>
            2.8140097856521606e-02 -6.4233142137527466e-01</leafValues></_>
        <_>
          <internalNodes>
            0 -1 1586 2.6272453396813944e-05</internalNodes>
          <leafValues>
            -1.0310843586921692e-01 1.5294715762138367e-01</leafValues></_>
        <_>
          <internalNodes>
            0 -1 9 1.1915639042854309e-01</internalNodes>
          <leafValues>
            1.7465563490986824e-02 -9.5114558935165405e-01</leafValues></_>
        <_>
          <internalNodes>
            0 -1 408 1.7358410358428955e-01</internalNodes>
          <leafValues>
            1.1004650034010410e-02 -9.1056656837463379e-01</leafValues></_>
        <_>
          <internalNodes>
            0 -1 514 1.2152662873268127e-01</internalNodes>
          <leafValues>
            1.2176292948424816e-02 -8.6160558462142944e-01</leafValues></_>
        <_>
          <internalNodes>
            0 -1 1310 2.3039996449369937e-05</internalNodes>
          <leafValues>
            -1.0678292810916901e-01 1.4327371120452881e-01</leafValues></_></weakClassifiers></_>
    <!-- stage 2 -->
    <_>
      <maxWeakCount>76</maxWeakCount>
      <stageThreshold>-1.1980112791061401e+00</stageThreshold>
      <weakClassifiers>
        <_>
          <internalNodes>
            0 -1 466 5.9197805821895599e-02</internalNodes>
          <leafValues>
            -4.7514125704765320e-01 9.0058483183383942e-02</leafValues></_>
        <_>
          <internalNodes>
            0 -1 691 -8.2815185189247131e-02</internalNodes>
          <leafValues>
            2.0318983495235443e-01 -2.0201310515403748e-01</leafValues></_>
        <_>
          <internalNodes>
            0 -1 45 9.9127337336540222e-02</internalNodes>
          <leafValues>
            -7.7380187809467316e-02 3.0642724037170410e-01</leafValues></_>
        <_>
          <internalNodes>
            0 -1 1562 1.1918301694095135e-02</internalNodes>
          <leafValues>
            -5.5768929421901703e-02 4.4375178217887878e-01</leafValues></_>
        <_>
          <internalNodes>
            0 -1 1562 -6.4445976167917252e-03</internalNodes>
          <leafValues>
            2.9818245768547058e-01 -8.0503448843955994e-02</leafValues></_>
        <_>
          <internalNodes>
            0 -1 397 -2.2985196113586426e-01</internalNodes>
          <leafValues>
            3.1927862763404846e-01 -6.2810413539409637e-02</leafValues></_>
        <_>
          <internalNodes>
            0 -1 13 -3.3563938923180103e-03</internalNodes>
          <leafValues>
            -1.6618257761001587e-01 1.2140289694070816e-01</leafValues></_>
        <_>
          <internalNodes>
            0 -1 662 -1.1434941552579403e-03</internalNodes>
          <leafValues>
            -1.8442234396934509e-01 1.1102707684040070e-01</leafValues></_>
        <_>
          <internalNodes>
            0 -1 406 -1.9200475886464119e-02</internalNodes>
          <leafValues>
            2.7195367217063904e-01 -6.4180910587310791e-02</leafValues></_>
        <_>
          <internalNodes>
            0 -1 1648 -2.2385703050531447e-04</internalNodes>
          <leafValues>
            -1.8566212058067322e-01 1.0820721834897995e-01</leafValues></_>
        <_>
          <internalNodes>
            0 -1 78 6.2436468899250031e-02</internalNodes>
          <leafValues>
            5.3649839013814926e-02 -2.7460005879402161e-01</leafValues></_>
        <_>
          <internalNodes>
            0 -1 20 -1.5532112121582031e-01</internalNodes>
          <leafValues>
            -3.4439316391944885e-01 5.7074628770351410e-02</leafValues></_>
        <_>
          <internalNodes>
            0 -1 1325 9.1519691050052643e-03</internalNodes>
          <leafValues>
            -3.3233676105737686e-02 4.3347746133804321e-01</leafValues></_>
        <_>
          <internalNodes>
            0 -1 1293 -3.3873022766783834e-04</internalNodes>
          <leafValues>
            -2.5359952449798584e-01 6.2354326248168945e-02</leafValues></_>
        <_>
          <internalNodes>
            0 -1 788 2.9797556635458022e-05</internalNodes>
          <leafValues>
            -1.0200330615043640e-01 1.6224184632301331e-01</leafValues></_>
        <_>
          <internalNodes>
            0 -1 587 -8.9398682117462158e-02</internalNodes>
          <leafValues>
            -5.2776306867599487e-01 2.4640081450343132e-02</leafValues></_>
        <_>
          <internalNodes>
            0 -1 683 5.2076450083404779e-04</internalNodes>
          <leafValues>
            8.9956603944301605e-02 -1.8815599381923676e-01</leafValues></_>
        <_>
          <internalNodes>
            0 -1 1645 -8.7440968491137028e-04</internalNodes>
          <leafValues>
            -2.0473334193229675e-01 7.8983753919601440e-02</leafValues></_>
        <_>
          <internalNodes>
            0 -1 242 -1.8777505028992891e-03</internalNodes>
          <leafValues>
            4.9211227893829346e-01 -3.4874062985181808e-02</leafValues></_>
        <_>
          <internalNodes>
            0 -1 824 3.9289342239499092e-03</internalNodes>
          <leafValues>
            -6.3397176563739777e-02 2.3663683235645294e-01</leafValues></_>
        <_>
          <internalNodes>
            0 -1 1278 -1.8450323492288589e-02</internalNodes>
          <leafValues>
            2.9141888022422791e-01 -5.4081570357084274e-02</leafValues></_>
        <_>
          <internalNodes>
            0 -1 1364 -4.3489664793014526e-02</internalNodes>
          <leafValues>
            2.1805983781814575e-01 -6.5155245363712311e-02</leafValues></_>
        <_>
          <internalNodes>
            0 -1 1593 3.0422153940889984e-05</internalNodes>
          <leafValues>
            -1.1040417104959488e-01 1.5497440099716187e-01</leafValues></_>
        <_>
          <internalNodes>
            0 -1 438 -1.6270168125629425e-02</internalNodes>
          <leafValues>
            1.5793530642986298e-01 -1.0585903376340866e-01</leafValues></_>
        <_>
          <internalNodes>
            0 -1 1185 -2.2703961003571749e-03</internalNodes>
          <leafValues>
            5.0294011831283569e-01 -2.8212364763021469e-02</leafValues></_>
        <_>
          <internalNodes>
            0 -1 841 1.3038147985935211e-01</internalNodes>
          <leafValues>
            2.6400806382298470e-02 -6.1365228891372681e-01</leafValues></_>
        <_>
          <internalNodes>
            0 -1 552 -9.4943851232528687e-02</internalNodes>
          <leafValues>
            -6.4946633577346802e-01 1.8952121958136559e-02</leafValues></_>
        <_>
          <internalNodes>
            0 -1 1006 -2.5840567104751244e-05</internalNodes>
          <leafValues>
            1.4136837422847748e-01 -9.8331980407238007e-02</leafValues></_>
        <_>
          <internalNodes>
            0 -1 1331 3.9771012961864471e-04</internalNodes>
          <leafValues>
            7.2654366493225098e-02 -1.9416826963424683e-01</leafValues></_>
        <_>
          <internalNodes>
            0 -1 41 1.1641779914498329e-02</internalNodes>
          <leafValues>
            -6.6659227013587952e-02 2.1533036231994629e-01</leafValues></_>
        <_>
          <internalNodes>
            0 -1 488 -5.5719958618283272e-04</internalNodes>
          <leafValues>
            -2.9260534048080444e-01 4.9001846462488174e-02</leafValues></_>
        <_>
          <internalNodes>
            0 -1 328 6.0476683080196381e-02</internalNodes>
          <leafValues>
            -2.3084582760930061e-02 7.2699356079101563e-01</leafValues></_>
        <_>
          <internalNodes>
            0 -1 177 -2.5479402393102646e-03</internalNodes>
          <leafValues>
            1.9539302587509155e-01 -7.1527071297168732e-02</leafValues></_>
        <_>
          <internalNodes>
            0 -1 867 8.3972490392625332e-04</internalNodes>
          <leafValues>
            6.9020152091979980e-02 -2.2620551288127899e-01</leafValues></_>
        <_>
          <internalNodes>
            0 -1 55 -2.2375499829649925e-03</internalNodes>
          <leafValues>
            -2.0797872543334961e-01 6.4416833221912384e-02</leafValues></_>
        <_>
          <internalNodes>
            0 -1 154 -4.8350589349865913e-03</internalNodes>
          <leafValues>
            2.6159688830375671e-01 -6.1882324516773224e-02</leafValues></_>
        <_>
          <internalNodes>
            0 -1 984 7.5442600063979626e-04</internalNodes>
          <leafValues>
            7.7857360243797302e-02 -1.9704005122184753e-01</leafValues></_>
        <_>
          <internalNodes>
            0 -1 728 3.0649758409708738e-03</internalNodes>
          <leafValues>
            -4.2356818914413452e-02 3.5724967718124390e-01</leafValues></_>
        <_>
          <internalNodes>
            0 -1 604 -2.7032041543861851e-05</internalNodes>
          <leafValues>
            1.4178946614265442e-01 -9.9247775971889496e-02</leafValues></_>
        <_>
          <internalNodes>
            0 -1 1182 6.4895413815975189e-03</internalNodes>
          <leafValues>
            -2.6912301778793335e-02 5.1523643732070923e-01</leafValues></_>
        <_>
          <internalNodes>
            0 -1 134 -5.6557485368102789e-04</internalNodes>
          <leafValues>
            -1.8486198782920837e-01 8.0359220504760742e-02</leafValues></_>
        <_>
          <internalNodes>
            0 -1 539 7.2097815573215485e-03</internalNodes>
          <leafValues>
            -2.0178319886326790e-02 6.5478885173797607e-01</leafValues></_>
        <_>
          <internalNodes>
            0 -1 261 -2.5761637516552582e-05</internalNodes>
          <leafValues>
            1.2728109955787659e-01 -1.0560465604066849e-01</leafValues></_>
        <_>
          <internalNodes>
            0 -1 176 1.3221000134944916e-01</internalNodes>
          <leafValues>
            1.9844749942421913e-02 -6.3280922174453735e-01</leafValues></_>
        <_>
          <internalNodes>
            0 -1 57 6.8116948008537292e-02</internalNodes>
          <leafValues>
            -1.1417788267135620e-01 1.1432726681232452e-01</leafValues></_>
        <_>
          <internalNodes>
            0 -1 690 -3.0820292234420776e-01</internalNodes>
          <leafValues>
            -7.2880905866622925e-01 2.2001240402460098e-02</leafValues></_>
        <_>
          <internalNodes>
            0 -1 1392 -6.2458775937557220e-04</internalNodes>
          <leafValues>
            -1.8842062354087830e-01 7.6267868280410767e-02</leafValues></_>
        <_>
          <internalNodes>
            0 -1 1521 4.1639190167188644e-03</internalNodes>
          <leafValues>
            -3.7443995475769043e-02 4.4292122125625610e-01</leafValues></_>
        <_>
          <internalNodes>
            0 -1 114 5.6738797575235367e-02</internalNodes>
          <leafValues>
            2.3878557607531548e-02 -6.2531441450119019e-01</leafValues></_>
        <_>
          <internalNodes>
            0 -1 548 -1.3995357221574523e-05</internalNodes>
          <leafValues>
            1.2502050399780273e-01 -1.0647478699684143e-01</leafValues></_>
        <_>
          <internalNodes>
            0 -1 1488 4.2097005061805248e-03</internalNodes>
          <leafValues>
            3.3510904759168625e-02 -4.3910869956016541e-01</leafValues></_>
        <_>
          <internalNodes>
            0 -1 1461 -3.0281942599685863e-05</internalNodes>
          <leafValues>
            1.3142633438110352e-01 -1.0203954577445984e-01</leafValues></_>
        <_>
          <internalNodes>
            0 -1 761 -2.6664591132430360e-05</internalNodes>
          <leafValues>
            1.1807285249233246e-01 -1.0685763508081436e-01</leafValues></_>
        <_>
          <internalNodes>
            0 -1 920 5.7931535411626101e-04</internalNodes>
          <leafValues>
            6.7593261599540710e-02 -2.0563822984695435e-01</leafValues></_>
        <_>
          <internalNodes>
            0 -1 1335 -1.7455009510740638e-03</internalNodes>
          <leafValues>
            3.5381534695625305e-01 -3.6726865917444229e-02</leafValues></_>
        <_>
          <internalNodes>
            0 -1 1449 -7.8160199336707592e-04</internalNodes>
          <leafValues>
            -2.1295829117298126e-01 5.9253081679344177e-02</leafValues></_>
        <_>
          <internalNodes>
            0 -1 1088 -3.7566958926618099e-03</internalNodes>
          <leafValues>
            4.3502503633499146e-01 -3.3591184765100479e-02</leafValues></_>
        <_>
          <internalNodes>
            0 -1 219 3.7418976426124573e-01</internalNodes>
          <leafValues>
            -2.2085051983594894e-02 5.3802943229675293e-01</leafValues></_>
        <_>
          <internalNodes>
            0 -1 755 7.0094602415338159e-04</internalNodes>
          <leafValues>
            6.4429424703121185e-02 -2.0648171007633209e-01</leafValues></_>
        <_>
          <internalNodes>
            0 -1 413 -9.0965279377996922e-04</internalNodes>
          <leafValues>
            3.6117190122604370e-01 -3.8789398968219757e-02</leafValues></_>
        <_>
          <internalNodes>
            0 -1 1461 1.1825637557194568e-05</internalNodes>
          <leafValues>
            -9.1968007385730743e-02 1.4024759829044342e-01</leafValues></_>
        <_>
          <internalNodes>
            0 -1 1515 -8.5335411131381989e-03</internalNodes>
          <leafValues>
            3.5242983698844910e-01 -3.6133166402578354e-02</leafValues></_>
        <_>
          <internalNodes>
            0 -1 936 9.1046541929244995e-02</internalNodes>
          <leafValues>
            -2.6342257857322693e-02 4.9641281366348267e-01</leafValues></_>
        <_>
          <internalNodes>
            0 -1 434 1.3664441648870707e-03</internalNodes>
          <leafValues>
            -3.7162739783525467e-02 3.2437524199485779e-01</leafValues></_>
        <_>
          <internalNodes>
            0 -1 350 4.9137473106384277e-03</internalNodes>
          <leafValues>
            5.7008042931556702e-02 -2.4736972153186798e-01</leafValues></_>
        <_>
          <internalNodes>
            0 -1 1204 -1.6868063807487488e-01</internalNodes>
          <leafValues>
            -7.3193615674972534e-01 1.6645766794681549e-02</leafValues></_>
        <_>
          <internalNodes>
            0 -1 911 -4.3561682105064392e-03</internalNodes>
          <leafValues>
            3.2720839977264404e-01 -4.6996448189020157e-02</leafValues></_>
        <_>
          <internalNodes>
            0 -1 1556 4.1006021201610565e-03</internalNodes>
          <leafValues>
            -3.5001095384359360e-02 3.5918810963630676e-01</leafValues></_>
        <_>
          <internalNodes>
            0 -1 862 -8.5571664385497570e-04</internalNodes>
          <leafValues>
            -1.9150657951831818e-01 6.9541461765766144e-02</leafValues></_>
        <_>
          <internalNodes>
            0 -1 997 -1.2113375123590231e-03</internalNodes>
          <leafValues>
            -2.9824241995811462e-01 4.5488499104976654e-02</leafValues></_>
        <_>
          <internalNodes>
            0 -1 1098 1.1975412235187832e-05</internalNodes>
          <leafValues>
            -9.5463730394840240e-02 1.4051471650600433e-01</leafValues></_>
        <_>
          <internalNodes>
            0 -1 142 7.0574707351624966e-03</internalNodes>
          <leafValues>
            -1.7593663185834885e-02 7.2807860374450684e-01</leafValues></_>
        <_>
          <internalNodes>
            0 -1 1604 -1.9370559311937541e-04</internalNodes>
          <leafValues>
            -1.6504770517349243e-01 7.4670732021331787e-02</leafValues></_>
        <_>
          <internalNodes>
            0 -1 502 -1.7647552490234375e-01</internalNodes>
          <leafValues>
            1.4551238715648651e-01 -8.7224200367927551e-02</leafValues></_>
        <_>
          <internalNodes>
            0 -1 24 -1.1931253969669342e-01</internalNodes>
          <leafValues>
            2.1959576010704041e-01 -7.6491922140121460e-02</leafValues></_>
        <_>
          <internalNodes>
            0 -1 556 -1.0501362383365631e-02</internalNodes>
          <leafValues>
            -1.1074506491422653e-01 1.3091617822647095e-01</leafValues></_></weakClassifiers></_>
    <!-- stage 3 -->
    <_>
      <maxWeakCount>100</maxWeakCount>
      <stageThreshold>-1.3326319456100464e+00</stageThreshold>
      <weakClassifiers>
        <_>
          <internalNodes>
            0 -1 67 5.6741692125797272e-02</internalNodes>
          <leafValues>
            -4.5002761483192444e-01 3.2341524958610535e-02</leafValues></_>
        <_>
          <internalNodes>
            0 -1 28 3.3676087856292725e-01</internalNodes>
          <leafValues>
            5.9178754687309265e-02 -3.8574197888374329e-01</leafValues></_>
        <_>
          <internalNodes>
            0 -1 1465 -3.8533836603164673e-02</internalNodes>
          <leafValues>
            2.9480248689651489e-01 -8.5193857550621033e-02</leafValues></_>
        <_>
          <internalNodes>
            0 -1 1399 -7.9769664444029331e-04</internalNodes>
          <leafValues>
            3.7786686420440674e-01 -5.7647574692964554e-02</leafValues></_>
        <_>
          <internalNodes>
            0 -1 1399 6.8635103525593877e-04</internalNodes>
          <leafValues>
            -6.1910584568977356e-02 3.1741425395011902e-01</leafValues></_>
        <_>
          <internalNodes>
            0 -1 314 2.1210467815399170e-01</internalNodes>
          <leafValues>
            -1.9208056852221489e-02 4.0193006396293640e-01</leafValues></_>
        <_>
          <internalNodes>
            0 -1 436 -6.6186055541038513e-02</internalNodes>
          <leafValues>
            1.2372446060180664e-01 -1.8405942618846893e-01</leafValues></_>
        <_>
          <internalNodes>
            0 -1 1533 6.1811553314328194e-03</internalNodes>
          <leafValues>
            -5.2492633461952209e-02 3.8382875919342041e-01</leafValues></_>
        <_>
          <internalNodes>
            0 -1 1255 -9.6149009186774492e-04</internalNodes>
          <leafValues>
            5.8375674486160278e-01 -3.2002683728933334e-02</leafValues></_>
        <_>
          <internalNodes>
            0 -1 611 -1.2349677272140980e-03</internalNodes>
          <leafValues>
            3.3851471543312073e-01 -4.9499820917844772e-02</leafValues></_>
        <_>
          <internalNodes>
            0 -1 1625 -2.0464605768211186e-04</internalNodes>
          <leafValues>
            -1.4150540530681610e-01 1.3016226887702942e-01</leafValues></_>
        <_>
          <internalNodes>
            0 -1 844 1.1224178597331047e-02</internalNodes>
          <leafValues>
            4.8826377838850021e-02 -2.6886633038520813e-01</leafValues></_>
        <_>
          <internalNodes>
            0 -1 848 1.3242627028375864e-03</internalNodes>
          <leafValues>
            -2.2502042353153229e-02 5.5659329891204834e-01</leafValues></_>
        <_>
          <internalNodes>
            0 -1 1532 -1.9651318434625864e-03</internalNodes>
          <leafValues>
            5.2083081007003784e-01 -3.1113909557461739e-02</leafValues></_>
        <_>
          <internalNodes>
            0 -1 929 2.3334483557846397e-05</internalNodes>
          <leafValues>
            -9.1151095926761627e-02 1.6795696318149567e-01</leafValues></_>
        <_>
          <internalNodes>
            0 -1 1595 2.0612913649529219e-03</internalNodes>
          <leafValues>
            -6.5474219620227814e-02 2.5530251860618591e-01</leafValues></_>
        <_>
          <internalNodes>
            0 -1 633 -5.9049045667052269e-03</internalNodes>
          <leafValues>
            3.2289683818817139e-01 -4.9043741077184677e-02</leafValues></_>
        <_>
          <internalNodes>
            0 -1 533 2.2207472473382950e-02</internalNodes>
          <leafValues>
            -1.0107690840959549e-01 1.5604650974273682e-01</leafValues></_>
        <_>
          <internalNodes>
            0 -1 141 -4.7198246465995908e-04</internalNodes>
          <leafValues>
            -1.8670311570167542e-01 7.0537365972995758e-02</leafValues></_>
        <_>
          <internalNodes>
            0 -1 563 1.5963422134518623e-02</internalNodes>
          <leafValues>
            -5.7739090174436569e-02 2.4396722018718719e-01</leafValues></_>
        <_>
          <internalNodes>
            0 -1 111 1.6820464283227921e-02</internalNodes>
          <leafValues>
            -6.4186960458755493e-02 2.3472239077091217e-01</leafValues></_>
        <_>
          <internalNodes>
            0 -1 1064 6.2917720060795546e-04</internalNodes>
          <leafValues>
            8.3901084959506989e-02 -2.0190301537513733e-01</leafValues></_>
        <_>
          <internalNodes>
            0 -1 751 1.2810827791690826e-01</internalNodes>
          <leafValues>
            -6.0766443610191345e-02 2.6791843771934509e-01</leafValues></_>
        <_>
          <internalNodes>
            0 -1 597 -6.7749045789241791e-02</internalNodes>
          <leafValues>
            -5.3155028820037842e-01 3.3022232353687286e-02</leafValues></_>
        <_>
          <internalNodes>
            0 -1 1607 -2.1120050223544240e-04</internalNodes>
          <leafValues>
            -1.9579274952411652e-01 6.7446149885654449e-02</leafValues></_>
        <_>
          <internalNodes>
            0 -1 464 1.1001986265182495e-01</internalNodes>
          <leafValues>
            -1.1178844422101974e-01 1.2753912806510925e-01</leafValues></_>
        <_>
          <internalNodes>
            0 -1 26 2.8877365589141846e-01</internalNodes>
          <leafValues>
            2.3588921874761581e-02 -5.9487366676330566e-01</leafValues></_>
        <_>
          <internalNodes>
            0 -1 1240 -2.8206980787217617e-03</internalNodes>
          <leafValues>
            6.4181250333786011e-01 -2.6070170104503632e-02</leafValues></_>
        <_>
          <internalNodes>
            0 -1 1522 1.7744692740961909e-04</internalNodes>
          <leafValues>
            1.0226871818304062e-01 -1.4016301929950714e-01</leafValues></_>
        <_>
          <internalNodes>
            0 -1 1458 -1.3006457593291998e-03</internalNodes>
          <leafValues>
            2.9030674695968628e-01 -4.5760426670312881e-02</leafValues></_>
        <_>
          <internalNodes>
            0 -1 567 -8.5831079632043839e-03</internalNodes>
          <leafValues>
            2.4480028450489044e-01 -5.0888311117887497e-02</leafValues></_>
        <_>
          <internalNodes>
            0 -1 1103 3.6222501657903194e-03</internalNodes>
          <leafValues>
            7.0075206458568573e-02 -1.8720135092735291e-01</leafValues></_>
        <_>
          <internalNodes>
            0 -1 1046 1.1825637557194568e-05</internalNodes>
          <leafValues>
            -9.1846860945224762e-02 1.4510485529899597e-01</leafValues></_>
        <_>
          <internalNodes>
            0 -1 284 4.9732681363821030e-02</internalNodes>
          <leafValues>
            -3.1942121684551239e-02 4.2699044942855835e-01</leafValues></_>
        <_>
          <internalNodes>
            0 -1 629 -3.7057267036288977e-04</internalNodes>
          <leafValues>
            -1.5327724814414978e-01 8.3622671663761139e-02</leafValues></_>
        <_>
          <internalNodes>
            0 -1 646 -5.9460561722517014e-02</internalNodes>
          <leafValues>
            -4.5080938935279846e-01 2.7931315824389458e-02</leafValues></_>
        <_>
          <internalNodes>
            0 -1 400 -4.5070881024003029e-03</internalNodes>
          <leafValues>
            2.6055327057838440e-01 -5.0369184464216232e-02</leafValues></_>
        <_>
          <internalNodes>
            0 -1 1312 -1.3842728549207095e-05</internalNodes>
          <leafValues>
            1.2816806137561798e-01 -9.0169243514537811e-02</leafValues></_>
        <_>
          <internalNodes>
            0 -1 1491 -1.5010966453701258e-03</internalNodes>
          <leafValues>
            4.1765964031219482e-01 -2.9432211071252823e-02</leafValues></_>
        <_>
          <internalNodes>
            0 -1 1640 -1.2756960932165384e-03</internalNodes>
          <leafValues>
            -2.1923267841339111e-01 5.5029064416885376e-02</leafValues></_>
        <_>
          <internalNodes>
            0 -1 1569 7.9013168811798096e-02</internalNodes>
          <leafValues>
            3.5036858171224594e-02 -3.4745371341705322e-01</leafValues></_>
        <_>
          <internalNodes>
            0 -1 564 8.8830947875976563e-02</internalNodes>
          <leafValues>
            -7.8536242246627808e-02 1.6085761785507202e-01</leafValues></_>
        <_>
          <internalNodes>
            0 -1 883 -2.6876706629991531e-02</internalNodes>
          <leafValues>
            2.0967769622802734e-01 -6.6834941506385803e-02</leafValues></_>
        <_>
          <internalNodes>
            0 -1 1574 1.5554325655102730e-03</internalNodes>
          <leafValues>
            8.8394254446029663e-02 -1.4877022802829742e-01</leafValues></_>
        <_>
          <internalNodes>
            0 -1 1147 1.5150422230362892e-02</internalNodes>
          <leafValues>
            -8.1401877105236053e-02 1.6674949228763580e-01</leafValues></_>
        <_>
          <internalNodes>
            0 -1 14 -4.6045172959566116e-02</internalNodes>
          <leafValues>
            -2.9720997810363770e-01 4.0834564715623856e-02</leafValues></_>
        <_>
          <internalNodes>
            0 -1 523 2.7542721480131149e-02</internalNodes>
          <leafValues>
            2.6750279590487480e-02 -4.1655081510543823e-01</leafValues></_>
        <_>
          <internalNodes>
            0 -1 1239 -3.1241523101925850e-03</internalNodes>
          <leafValues>
            4.7083219885826111e-01 -2.9029371216893196e-02</leafValues></_>
        <_>
          <internalNodes>
            0 -1 1622 -9.4690498372074217e-05</internalNodes>
          <leafValues>
            -1.1125514656305313e-01 1.0286623239517212e-01</leafValues></_>
        <_>
          <internalNodes>
            0 -1 1462 6.4287176355719566e-03</internalNodes>
          <leafValues>
            -6.8284779787063599e-02 1.9366028904914856e-01</leafValues></_>
        <_>
          <internalNodes>
            0 -1 758 2.3484259145334363e-05</internalNodes>
          <leafValues>
            -1.0996349155902863e-01 1.2162353098392487e-01</leafValues></_>
        <_>
          <internalNodes>
            0 -1 1561 -6.1325822025537491e-03</internalNodes>
          <leafValues>
            2.4052909016609192e-01 -5.8430872857570648e-02</leafValues></_>
        <_>
          <internalNodes>
            0 -1 634 4.5392159372568130e-03</internalNodes>
          <leafValues>
            -2.3291606456041336e-02 4.9521327018737793e-01</leafValues></_>
        <_>
          <internalNodes>
            0 -1 1189 -6.4490397926419973e-04</internalNodes>
          <leafValues>
            -1.8823783099651337e-01 6.5139554440975189e-02</leafValues></_>
        <_>
          <internalNodes>
            0 -1 902 1.0353934485465288e-03</internalNodes>
          <leafValues>
            6.7349784076213837e-02 -1.8400654196739197e-01</leafValues></_>
        <_>
          <internalNodes>
            0 -1 315 -1.0912926867604256e-02</internalNodes>
          <leafValues>
            4.3589252233505249e-01 -3.0710224062204361e-02</leafValues></_>
        <_>
          <internalNodes>
            0 -1 795 3.1712502241134644e-03</internalNodes>
          <leafValues>
            -1.6871081665158272e-02 6.6270446777343750e-01</leafValues></_>
        <_>
          <internalNodes>
            0 -1 812 -8.9625380933284760e-03</internalNodes>
          <leafValues>
            -3.0257758498191833e-01 4.4755920767784119e-02</leafValues></_>
        <_>
          <internalNodes>
            0 -1 754 6.4540165476500988e-03</internalNodes>
          <leafValues>
            -3.5834703594446182e-02 3.3724820613861084e-01</leafValues></_>
        <_>
          <internalNodes>
            0 -1 905 1.7184036970138550e-01</internalNodes>
          <leafValues>
            1.6275977715849876e-02 -8.2065230607986450e-01</leafValues></_>
        <_>
          <internalNodes>
            0 -1 487 -4.6979345381259918e-02</internalNodes>
          <leafValues>
            -5.9841817617416382e-01 1.5902334824204445e-02</leafValues></_>
        <_>
          <internalNodes>
            0 -1 791 -1.0792259126901627e-03</internalNodes>
          <leafValues>
            -2.0797525346279144e-01 5.1788304001092911e-02</leafValues></_>
        <_>
          <internalNodes>
            0 -1 1319 4.2664940701797605e-04</internalNodes>
          <leafValues>
            -4.6029049903154373e-02 2.6273342967033386e-01</leafValues></_>
        <_>
          <internalNodes>
            0 -1 1518 3.2460916554555297e-04</internalNodes>
          <leafValues>
            5.7816322892904282e-02 -2.3408065736293793e-01</leafValues></_>
        <_>
          <internalNodes>
            0 -1 1518 1.3058194890618324e-03</internalNodes>
          <leafValues>
            -2.9682029038667679e-02 4.4291871786117554e-01</leafValues></_>
        <_>
          <internalNodes>
            0 -1 1038 -6.0327034589136019e-05</internalNodes>
          <leafValues>
            1.2022621184587479e-01 -8.9325651526451111e-02</leafValues></_>
        <_>
          <internalNodes>
            0 -1 329 1.1706775426864624e-01</internalNodes>
          <leafValues>
            1.6710538417100906e-02 -7.1864295005798340e-01</leafValues></_>
        <_>
          <internalNodes>
            0 -1 255 2.7123546600341797e-01</internalNodes>
          <leafValues>
            -1.8105341121554375e-02 9.0402048826217651e-01</leafValues></_>
        <_>
          <internalNodes>
            0 -1 1628 1.3812643010169268e-04</internalNodes>
          <leafValues>
            6.8114042282104492e-02 -1.8154089152812958e-01</leafValues></_>
        <_>
          <internalNodes>
            0 -1 838 2.8072554414393380e-05</internalNodes>
          <leafValues>
            -8.7197892367839813e-02 1.3323193788528442e-01</leafValues></_>
        <_>
          <internalNodes>
            0 -1 1173 5.5962649639695883e-04</internalNodes>
          <leafValues>
            6.1390247195959091e-02 -1.7802715301513672e-01</leafValues></_>
        <_>
          <internalNodes>
            0 -1 762 7.0845102891325951e-03</internalNodes>
          <leafValues>
            -9.5107935369014740e-02 1.3647894561290741e-01</leafValues></_>
        <_>
          <internalNodes>
            0 -1 1135 -3.0829226598143578e-03</internalNodes>
          <leafValues>
            3.6032900214195251e-01 -3.2841891050338745e-02</leafValues></_>
        <_>
          <internalNodes>
            0 -1 1631 -1.9116050680167973e-04</internalNodes>
          <leafValues>
            -1.5656583011150360e-01 6.8537764251232147e-02</leafValues></_>
        <_>
          <internalNodes>
            0 -1 1547 -4.8219235613942146e-03</internalNodes>
          <leafValues>
            7.1380239725112915e-01 -1.7758276313543320e-02</leafValues></_>
        <_>
          <internalNodes>
            0 -1 253 -1.4753240975551307e-05</internalNodes>
          <leafValues>
            8.9769065380096436e-02 -1.2715455889701843e-01</leafValues></_>
        <_>
          <internalNodes>
            0 -1 287 -2.4545978521928191e-04</internalNodes>
          <leafValues>
            -1.9188776612281799e-01 5.5038753896951675e-02</leafValues></_>
        <_>
          <internalNodes>
            0 -1 155 3.8429205305874348e-03</internalNodes>
          <leafValues>
            -2.4824600666761398e-02 4.9404439330101013e-01</leafValues></_>
        <_>
          <internalNodes>
            0 -1 1340 -2.7584173949435353e-05</internalNodes>
          <leafValues>
            1.2469428777694702e-01 -8.6804002523422241e-02</leafValues></_>
        <_>
          <internalNodes>
            0 -1 975 5.6608416140079498e-02</internalNodes>
          <leafValues>
            1.1840494349598885e-02 -8.8298046588897705e-01</leafValues></_>
        <_>
          <internalNodes>
            0 -1 826 -4.3810280039906502e-03</internalNodes>
          <leafValues>
            1.7361676692962646e-01 -6.3949711620807648e-02</leafValues></_>
        <_>
          <internalNodes>
            0 -1 743 -1.1556546203792095e-02</internalNodes>
          <leafValues>
            2.5976178050041199e-01 -4.4958692044019699e-02</leafValues></_>
        <_>
          <internalNodes>
            0 -1 258 -4.9203261733055115e-03</internalNodes>
          <leafValues>
            2.1554951369762421e-01 -4.7405254095792770e-02</leafValues></_>
        <_>
          <internalNodes>
            0 -1 1374 6.5256608650088310e-04</internalNodes>
          <leafValues>
            6.4366631209850311e-02 -1.7022216320037842e-01</leafValues></_>
        <_>
          <internalNodes>
            0 -1 1114 3.5751588642597198e-02</internalNodes>
          <leafValues>
            -5.8751087635755539e-02 1.9311617314815521e-01</leafValues></_>
        <_>
          <internalNodes>
            0 -1 1184 4.8692844575271010e-04</internalNodes>
          <leafValues>
            7.6395131647586823e-02 -1.4397555589675903e-01</leafValues></_>
        <_>
          <internalNodes>
            0 -1 1276 -1.5344087965786457e-02</internalNodes>
          <leafValues>
            1.4542382955551147e-01 -7.7312335371971130e-02</leafValues></_>
        <_>
          <internalNodes>
            0 -1 1454 2.3832987993955612e-02</internalNodes>
          <leafValues>
            1.7009828239679337e-02 -7.0421397686004639e-01</leafValues></_>
        <_>
          <internalNodes>
            0 -1 452 -8.4360837936401367e-03</internalNodes>
          <leafValues>
            3.2499283552169800e-01 -3.6485008895397186e-02</leafValues></_>
        <_>
          <internalNodes>
            0 -1 178 1.4879914000630379e-02</internalNodes>
          <leafValues>
            -2.1692676469683647e-02 4.9397629499435425e-01</leafValues></_>
        <_>
          <internalNodes>
            0 -1 421 -1.8259516358375549e-01</internalNodes>
          <leafValues>
            -5.5017226934432983e-01 2.4919692426919937e-02</leafValues></_>
        <_>
          <internalNodes>
            0 -1 526 -3.5394192673265934e-03</internalNodes>
          <leafValues>
            1.1501967161893845e-01 -1.1075223982334137e-01</leafValues></_>
        <_>
          <internalNodes>
            0 -1 836 -6.0114590451121330e-04</internalNodes>
          <leafValues>
            -2.1869546175003052e-01 5.4032027721405029e-02</leafValues></_>
        <_>
          <internalNodes>
            0 -1 395 -2.9324966669082642e-01</internalNodes>
          <leafValues>
            3.6759844422340393e-01 -3.6219142377376556e-02</leafValues></_>
        <_>
          <internalNodes>
            0 -1 1261 5.7755857706069946e-02</internalNodes>
          <leafValues>
            -1.0254329442977905e-01 1.3541950285434723e-01</leafValues></_>
        <_>
          <internalNodes>
            0 -1 323 3.5938985645771027e-02</internalNodes>
          <leafValues>
            9.4689384102821350e-02 -1.3904574513435364e-01</leafValues></_>
        <_>
          <internalNodes>
            0 -1 244 2.4449624121189117e-02</internalNodes>
          <leafValues>
            -3.8070913404226303e-02 2.9862654209136963e-01</leafValues></_>
        <_>
          <internalNodes>
            0 -1 918 1.0152336955070496e-01</internalNodes>
          <leafValues>
            2.5705650448799133e-02 -4.5265457034111023e-01</leafValues></_>
        <_>
          <internalNodes>
            0 -1 783 7.1904703974723816e-02</internalNodes>
          <leafValues>
            1.3024791143834591e-02 -7.1079534292221069e-01</leafValues></_>
        <_>
          <internalNodes>
            0 -1 1042 4.1976109147071838e-02</internalNodes>
          <leafValues>
            -1.5364252962172031e-02 9.2878764867782593e-01</leafValues></_></weakClassifiers></_>
    <!-- stage 4 -->
    <_>
      <maxWeakCount>99</maxWeakCount>
      <stageThreshold>-1.3803163766860962e+00</stageThreshold>
      <weakClassifiers>
        <_>
          <internalNodes>
            0 -1 44 4.4096149504184723e-02</internalNodes>
          <leafValues>
            -4.8425531387329102e-01 1.1724138259887695e-01</leafValues></_>
        <_>
          <internalNodes>
            0 -1 265 -3.1783662736415863e-02</internalNodes>
          <leafValues>
            1.8856959044933319e-01 -2.3967239260673523e-01</leafValues></_>
        <_>
          <internalNodes>
            0 -1 1455 -4.2000427842140198e-02</internalNodes>
          <leafValues>
            4.0300080180168152e-01 -7.0598468184471130e-02</leafValues></_>
        <_>
          <internalNodes>
            0 -1 1557 1.2019631685689092e-03</internalNodes>
          <leafValues>
            -9.1754592955112457e-02 2.4861495196819305e-01</leafValues></_>
        <_>
          <internalNodes>
            0 -1 1559 -4.5280838385224342e-03</internalNodes>
          <leafValues>
            3.5654211044311523e-01 -6.0083761811256409e-02</leafValues></_>
        <_>
          <internalNodes>
            0 -1 1024 1.6130089759826660e-02</internalNodes>
          <leafValues>
            -1.0140065103769302e-01 1.7722435295581818e-01</leafValues></_>
        <_>
          <internalNodes>
            0 -1 32 -7.2453945875167847e-02</internalNodes>
          <leafValues>
            2.8105884790420532e-01 -6.9864809513092041e-02</leafValues></_>
        <_>
          <internalNodes>
            0 -1 156 1.1936826631426811e-02</internalNodes>
          <leafValues>
            -8.1803493201732635e-02 1.7187516391277313e-01</leafValues></_>
        <_>
          <internalNodes>
            0 -1 522 1.4033707976341248e-01</internalNodes>
          <leafValues>
            -1.4265117235481739e-02 4.0322250127792358e-01</leafValues></_>
        <_>
          <internalNodes>
            0 -1 1232 7.4601047672331333e-03</internalNodes>
          <leafValues>
            5.9786327183246613e-02 -3.1858116388320923e-01</leafValues></_>
        <_>
          <internalNodes>
            0 -1 700 2.0347371697425842e-02</internalNodes>
          <leafValues>
            -9.7218140959739685e-02 1.6575260460376740e-01</leafValues></_>
        <_>
          <internalNodes>
            0 -1 636 -6.3571058213710785e-02</internalNodes>
          <leafValues>
            2.2775506973266602e-01 -1.0355123132467270e-01</leafValues></_>
        <_>
          <internalNodes>
            0 -1 938 -2.3516919463872910e-03</internalNodes>
          <leafValues>
            -3.5767549276351929e-01 4.8794377595186234e-02</leafValues></_>
        <_>
          <internalNodes>
            0 -1 399 2.3971391783561558e-05</internalNodes>
          <leafValues>
            -1.0754889249801636e-01 1.2578289210796356e-01</leafValues></_>
        <_>
          <internalNodes>
            0 -1 1322 1.0491570457816124e-02</internalNodes>
          <leafValues>
            -5.7255629450082779e-02 2.1634481847286224e-01</leafValues></_>
        <_>
          <internalNodes>
            0 -1 1119 -1.0293422965332866e-03</internalNodes>
          <leafValues>
            -2.5815770030021667e-01 5.7332344353199005e-02</leafValues></_>
        <_>
          <internalNodes>
            0 -1 1266 -1.5006475150585175e-02</internalNodes>
          <leafValues>
            1.5951688587665558e-01 -9.7772255539894104e-02</leafValues></_>
        <_>
          <internalNodes>
            0 -1 741 2.5406596064567566e-01</internalNodes>
          <leafValues>
            -2.7327822521328926e-02 5.1799929141998291e-01</leafValues></_>
        <_>
          <internalNodes>
            0 -1 198 7.4596586637198925e-03</internalNodes>
          <leafValues>
            -8.2385331392288208e-02 1.8827854096889496e-01</leafValues></_>
        <_>
          <internalNodes>
            0 -1 39 -7.2881663218140602e-03</internalNodes>
          <leafValues>
            1.6678747534751892e-01 -8.4700204432010651e-02</leafValues></_>
        <_>
          <internalNodes>
            0 -1 1378 -2.9986971640028059e-05</internalNodes>
          <leafValues>
            1.1596497148275375e-01 -1.1106821149587631e-01</leafValues></_>
        <_>
          <internalNodes>
            0 -1 1237 2.1981599275022745e-05</internalNodes>
          <leafValues>
            -8.9864186942577362e-02 1.6408424079418182e-01</leafValues></_>
        <_>
          <internalNodes>
            0 -1 1292 1.2652324512600899e-03</internalNodes>
          <leafValues>
            7.3631867766380310e-02 -1.8092106282711029e-01</leafValues></_>
        <_>
          <internalNodes>
            0 -1 736 6.5386913716793060e-02</internalNodes>
          <leafValues>
            -2.3817230015993118e-02 5.9484499692916870e-01</leafValues></_>
        <_>
          <internalNodes>
            0 -1 592 6.2840562313795090e-03</internalNodes>
          <leafValues>
            5.2818864583969116e-02 -3.0831789970397949e-01</leafValues></_>
        <_>
          <internalNodes>
            0 -1 256 -2.1489731967449188e-01</internalNodes>
          <leafValues>
            4.8892015218734741e-01 -2.9986344277858734e-02</leafValues></_>
        <_>
          <internalNodes>
            0 -1 426 4.4896304607391357e-02</internalNodes>
          <leafValues>
            2.0085567608475685e-02 -7.3848038911819458e-01</leafValues></_>
        <_>
          <internalNodes>
            0 -1 1111 8.7956301867961884e-03</internalNodes>
          <leafValues>
            -1.1072726547718048e-01 1.4217025041580200e-01</leafValues></_>
        <_>
          <internalNodes>
            0 -1 1245 -5.4898299276828766e-03</internalNodes>
          <leafValues>
            -6.1184799671173096e-01 2.0151954144239426e-02</leafValues></_>
        <_>
          <internalNodes>
            0 -1 191 -2.7870596386492252e-03</internalNodes>
          <leafValues>
            1.9299598038196564e-01 -6.9714337587356567e-02</leafValues></_>
        <_>
          <internalNodes>
            0 -1 1313 2.7272828447166830e-05</internalNodes>
          <leafValues>
            -9.3836821615695953e-02 1.3437534868717194e-01</leafValues></_>
        <_>
          <internalNodes>
            0 -1 1313 -3.5796285374090075e-05</internalNodes>
          <leafValues>
            1.4034599065780640e-01 -8.9443705976009369e-02</leafValues></_>
        <_>
          <internalNodes>
            0 -1 896 1.2594671919941902e-02</internalNodes>
          <leafValues>
            -8.6631849408149719e-02 1.4412839710712433e-01</leafValues></_>
        <_>
          <internalNodes>
            0 -1 901 -8.2347709685564041e-03</internalNodes>
          <leafValues>
            1.6349662840366364e-01 -8.6213588714599609e-02</leafValues></_>
        <_>
          <internalNodes>
            0 -1 760 -2.5473034474998713e-03</internalNodes>
          <leafValues>
            -2.8921386599540710e-01 4.7466211020946503e-02</leafValues></_>
        <_>
          <internalNodes>
            0 -1 299 -5.0742104649543762e-03</internalNodes>
          <leafValues>
            1.8067002296447754e-01 -7.3608860373497009e-02</leafValues></_>
        <_>
          <internalNodes>
            0 -1 630 -3.3784029074013233e-04</internalNodes>
          <leafValues>
            -2.2903378307819366e-01 5.6505650281906128e-02</leafValues></_>
        <_>
          <internalNodes>
            0 -1 190 9.5725338906049728e-03</internalNodes>
          <leafValues>
            -2.8156057000160217e-02 4.9516579508781433e-01</leafValues></_>
        <_>
          <internalNodes>
            0 -1 1194 -1.1052323505282402e-02</internalNodes>
          <leafValues>
            -7.0424723625183105e-01 1.8688296899199486e-02</leafValues></_>
        <_>
          <internalNodes>
            0 -1 370 -1.6370348748750985e-04</internalNodes>
          <leafValues>
            -1.6599701344966888e-01 7.5323849916458130e-02</leafValues></_>
        <_>
          <internalNodes>
            0 -1 1437 -1.5704778488725424e-03</internalNodes>
          <leafValues>
            -2.5324484705924988e-01 4.4213011860847473e-02</leafValues></_>
        <_>
          <internalNodes>
            0 -1 1459 1.4261732576414943e-04</internalNodes>
          <leafValues>
            -1.0631382465362549e-01 1.1186690628528595e-01</leafValues></_>
        <_>
          <internalNodes>
            0 -1 832 4.1867696563713253e-04</internalNodes>
          <leafValues>
            6.2117952853441238e-02 -1.8611165881156921e-01</leafValues></_>
        <_>
          <internalNodes>
            0 -1 1540 1.6111242584884167e-03</internalNodes>
          <leafValues>
            -6.7233964800834656e-02 1.6987352073192596e-01</leafValues></_>
        <_>
          <internalNodes>
            0 -1 1162 3.0695714056491852e-02</internalNodes>
          <leafValues>
            1.7336320132017136e-02 -5.4435914754867554e-01</leafValues></_>
        <_>
          <internalNodes>
            0 -1 36 -8.3252534270286560e-02</internalNodes>
          <leafValues>
            -5.1925683021545410e-01 1.9024236127734184e-02</leafValues></_>
        <_>
          <internalNodes>
            0 -1 46 9.5438577234745026e-02</internalNodes>
          <leafValues>
            1.1682865209877491e-02 -8.7081569433212280e-01</leafValues></_>
        <_>
          <internalNodes>
            0 -1 1082 1.1957627721130848e-03</internalNodes>
          <leafValues>
            3.1273003667593002e-02 -3.2298135757446289e-01</leafValues></_>
        <_>
          <internalNodes>
            0 -1 800 2.1808398887515068e-02</internalNodes>
          <leafValues>
            -1.8692908808588982e-02 6.2145382165908813e-01</leafValues></_>
        <_>
          <internalNodes>
            0 -1 1647 2.8896799776703119e-03</internalNodes>
          <leafValues>
            5.5407643318176270e-02 -1.9466362893581390e-01</leafValues></_>
        <_>
          <internalNodes>
            0 -1 953 -3.1814869493246078e-02</internalNodes>
          <leafValues>
            2.0034183561801910e-01 -5.6764837354421616e-02</leafValues></_>
        <_>
          <internalNodes>
            0 -1 889 2.1763434633612633e-03</internalNodes>
          <leafValues>
            -9.5124691724777222e-02 1.3540700078010559e-01</leafValues></_>
        <_>
          <internalNodes>
            0 -1 83 2.9468357563018799e-02</internalNodes>
          <leafValues>
            1.4525466598570347e-02 -8.1944215297698975e-01</leafValues></_>
        <_>
          <internalNodes>
            0 -1 455 5.9968151152133942e-02</internalNodes>
          <leafValues>
            8.9980233460664749e-03 -8.8719958066940308e-01</leafValues></_>
        <_>
          <internalNodes>
            0 -1 688 -5.1491742487996817e-04</internalNodes>
          <leafValues>
            1.9540944695472717e-01 -5.8672420680522919e-02</leafValues></_>
        <_>
          <internalNodes>
            0 -1 1444 3.3441031700931489e-04</internalNodes>
          <leafValues>
            6.3783831894397736e-02 -1.7555625736713409e-01</leafValues></_>
        <_>
          <internalNodes>
            0 -1 1075 7.7628586441278458e-03</internalNodes>
          <leafValues>
            -4.4294040650129318e-02 2.3921300470829010e-01</leafValues></_>
        <_>
          <internalNodes>
            0 -1 586 6.3708990812301636e-02</internalNodes>
          <leafValues>
            2.0893432199954987e-02 -5.0215595960617065e-01</leafValues></_>
        <_>
          <internalNodes>
            0 -1 1591 4.0229493752121925e-03</internalNodes>
          <leafValues>
            -4.7110155224800110e-02 2.4896311759948730e-01</leafValues></_>
        <_>
          <internalNodes>
            0 -1 1169 -5.5732834152877331e-04</internalNodes>
          <leafValues>
            -2.9568660259246826e-01 4.1546490043401718e-02</leafValues></_>
        <_>
          <internalNodes>
            0 -1 1596 -3.5364176146686077e-03</internalNodes>
          <leafValues>
            2.5406545400619507e-01 -5.0609845668077469e-02</leafValues></_>
        <_>
          <internalNodes>
            0 -1 54 -4.8313029110431671e-03</internalNodes>
          <leafValues>
            3.8186430931091309e-01 -3.0122449621558189e-02</leafValues></_>
        <_>
          <internalNodes>
            0 -1 343 -1.0734625160694122e-01</internalNodes>
          <leafValues>
            1.4947551488876343e-01 -8.1290103495121002e-02</leafValues></_>
        <_>
          <internalNodes>
            0 -1 1600 -5.9581850655376911e-04</internalNodes>
          <leafValues>
            -1.9307444989681244e-01 6.5621666610240936e-02</leafValues></_>
        <_>
          <internalNodes>
            0 -1 1477 3.2530874013900757e-03</internalNodes>
          <leafValues>
            -1.9642099738121033e-02 6.2286365032196045e-01</leafValues></_>
        <_>
          <internalNodes>
            0 -1 849 3.5030207072850317e-05</internalNodes>
          <leafValues>
            -8.5304088890552521e-02 1.3041540980339050e-01</leafValues></_>
        <_>
          <internalNodes>
            0 -1 1059 -2.7936178958043456e-04</internalNodes>
          <leafValues>
            -2.0312309265136719e-01 5.4648794233798981e-02</leafValues></_>
        <_>
          <internalNodes>
            0 -1 782 -2.7450561523437500e-02</internalNodes>
          <leafValues>
            -6.2345522642135620e-01 1.5878135338425636e-02</leafValues></_>
        <_>
          <internalNodes>
            0 -1 1216 1.1886070751643274e-05</internalNodes>
          <leafValues>
            -8.9084677398204803e-02 1.1372554302215576e-01</leafValues></_>
        <_>
          <internalNodes>
            0 -1 1087 -3.2851280411705375e-04</internalNodes>
          <leafValues>
            1.0566099733114243e-01 -1.0052526742219925e-01</leafValues></_>
        <_>
          <internalNodes>
            0 -1 822 -3.7062903866171837e-03</internalNodes>
          <leafValues>
            1.2941080331802368e-01 -9.4306796789169312e-02</leafValues></_>
        <_>
          <internalNodes>
            0 -1 660 2.2014617570675910e-04</internalNodes>
          <leafValues>
            8.2948870956897736e-02 -1.3659849762916565e-01</leafValues></_>
        <_>
          <internalNodes>
            0 -1 62 7.4220588430762291e-03</internalNodes>
          <leafValues>
            -2.7497852221131325e-02 4.1013380885124207e-01</leafValues></_>
        <_>
          <internalNodes>
            0 -1 1017 1.5239296481013298e-03</internalNodes>
          <leafValues>
            3.6550257354974747e-02 -3.3868181705474854e-01</leafValues></_>
        <_>
          <internalNodes>
            0 -1 300 -4.0586683899164200e-03</internalNodes>
          <leafValues>
            -5.0526165962219238e-01 2.0824240520596504e-02</leafValues></_>
        <_>
          <internalNodes>
            0 -1 886 6.9127632305026054e-03</internalNodes>
          <leafValues>
            -3.6511935293674469e-02 3.3235546946525574e-01</leafValues></_>
        <_>
          <internalNodes>
            0 -1 627 -2.3341409396380186e-03</internalNodes>
          <leafValues>
            2.1066221594810486e-01 -7.6079085469245911e-02</leafValues></_>
        <_>
          <internalNodes>
            0 -1 856 -9.4293937087059021e-02</internalNodes>
          <leafValues>
            2.4499513208866119e-01 -4.9496166408061981e-02</leafValues></_>
        <_>
          <internalNodes>
            0 -1 92 -1.2258483329787850e-03</internalNodes>
          <leafValues>
            -3.2141935825347900e-01 3.9036177098751068e-02</leafValues></_>
        <_>
          <internalNodes>
            0 -1 958 3.2892392482608557e-05</internalNodes>
          <leafValues>
            -9.1882057487964630e-02 1.3239215314388275e-01</leafValues></_>
        <_>
          <internalNodes>
            0 -1 419 -8.9854598045349121e-03</internalNodes>
          <leafValues>
            -3.0789557099342346e-01 4.1765242815017700e-02</leafValues></_>
        <_>
          <internalNodes>
            0 -1 273 -3.7666717544198036e-03</internalNodes>
          <leafValues>
            1.2800711393356323e-01 -9.4461567699909210e-02</leafValues></_>
        <_>
          <internalNodes>
            0 -1 1581 2.7412134222686291e-03</internalNodes>
          <leafValues>
            -1.9877815619111061e-02 5.6178623437881470e-01</leafValues></_>
        <_>
          <internalNodes>
            0 -1 325 3.0958995921537280e-05</internalNodes>
          <leafValues>
            -9.4290763139724731e-02 1.2280742824077606e-01</leafValues></_>
        <_>
          <internalNodes>
            0 -1 1506 -4.5763765228912234e-04</internalNodes>
          <leafValues>
            -1.3620598614215851e-01 9.1040290892124176e-02</leafValues></_>
        <_>
          <internalNodes>
            0 -1 454 -1.3292612857185304e-04</internalNodes>
          <leafValues>
            -1.8355400860309601e-01 6.4608715474605560e-02</leafValues></_>
        <_>
          <internalNodes>
            0 -1 271 2.4134339764714241e-03</internalNodes>
          <leafValues>
            -7.7057480812072754e-02 1.6480009257793427e-01</leafValues></_>
        <_>
          <internalNodes>
            0 -1 1634 4.5194098493084311e-04</internalNodes>
          <leafValues>
            6.2169548124074936e-02 -1.8481740355491638e-01</leafValues></_>
        <_>
          <internalNodes>
            0 -1 1028 2.2835589334135875e-05</internalNodes>
          <leafValues>
            -9.5946602523326874e-02 1.2976241111755371e-01</leafValues></_>
        <_>
          <internalNodes>
            0 -1 1497 1.3040367775829509e-05</internalNodes>
          <leafValues>
            -9.9602520465850830e-02 1.1611389368772507e-01</leafValues></_>
        <_>
          <internalNodes>
            0 -1 982 -8.7536365026608109e-04</internalNodes>
          <leafValues>
            4.2289155721664429e-01 -2.5616856291890144e-02</leafValues></_>
        <_>
          <internalNodes>
            0 -1 966 -5.4594818502664566e-03</internalNodes>
          <leafValues>
            -3.1136408448219299e-01 3.6120545119047165e-02</leafValues></_>
        <_>
          <internalNodes>
            0 -1 962 1.5746562276035547e-03</internalNodes>
          <leafValues>
            6.7403055727481842e-02 -1.7588189244270325e-01</leafValues></_>
        <_>
          <internalNodes>
            0 -1 483 1.4803681522607803e-02</internalNodes>
          <leafValues>
            -5.0184112042188644e-02 2.5415435433387756e-01</leafValues></_>
        <_>
          <internalNodes>
            0 -1 1502 -1.2962194159626961e-02</internalNodes>
          <leafValues>
            4.4190570712089539e-01 -2.2132877260446548e-02</leafValues></_>
        <_>
          <internalNodes>
            0 -1 79 -1.3775627594441175e-03</internalNodes>
          <leafValues>
            -2.8561487793922424e-01 3.6870494484901428e-02</leafValues></_>
        <_>
          <internalNodes>
            0 -1 574 -1.2906254269182682e-03</internalNodes>
          <leafValues>
            1.1435253173112869e-01 -9.3178480863571167e-02</leafValues></_>
        <_>
          <internalNodes>
            0 -1 228 8.8305965065956116e-02</internalNodes>
          <leafValues>
            -6.5033651888370514e-02 1.9917061924934387e-01</leafValues></_>
        <_>
          <internalNodes>
            0 -1 518 3.0260556377470493e-04</internalNodes>
          <leafValues>
            5.7184647768735886e-02 -2.1087743341922760e-01</leafValues></_></weakClassifiers></_>
    <!-- stage 5 -->
    <_>
      <maxWeakCount>94</maxWeakCount>
      <stageThreshold>-1.1946426630020142e+00</stageThreshold>
      <weakClassifiers>
        <_>
          <internalNodes>
            0 -1 1349 -8.2988202571868896e-02</internalNodes>
          <leafValues>
            5.0322581082582474e-02 -4.5414364337921143e-01</leafValues></_>
        <_>
          <internalNodes>
            0 -1 599 -7.7719256281852722e-02</internalNodes>
          <leafValues>
            1.5992867946624756e-01 -2.1132291853427887e-01</leafValues></_>
        <_>
          <internalNodes>
            0 -1 56 6.9616571068763733e-02</internalNodes>
          <leafValues>
            -8.6549706757068634e-02 3.4916499257087708e-01</leafValues></_>
        <_>
          <internalNodes>
            0 -1 1446 1.0508168488740921e-02</internalNodes>
          <leafValues>
            -6.8071193993091583e-02 2.9813343286514282e-01</leafValues></_>
        <_>
          <internalNodes>
            0 -1 7 2.5291189551353455e-02</internalNodes>
          <leafValues>
            -6.4124107360839844e-02 2.7780193090438843e-01</leafValues></_>
        <_>
          <internalNodes>
            0 -1 6 -1.5687536448240280e-02</internalNodes>
          <leafValues>
            2.3762756586074829e-01 -7.4365325272083282e-02</leafValues></_>
        <_>
          <internalNodes>
            0 -1 1448 -2.2267375141382217e-02</internalNodes>
          <leafValues>
            3.2121407985687256e-01 -4.5916769653558731e-02</leafValues></_>
        <_>
          <internalNodes>
            0 -1 346 1.6269776225090027e-01</internalNodes>
          <leafValues>
            2.9311474412679672e-02 -5.3416687250137329e-01</leafValues></_>
        <_>
          <internalNodes>
            0 -1 1263 2.3467131541110575e-05</internalNodes>
          <leafValues>
            -1.1424160748720169e-01 1.2156951427459717e-01</leafValues></_>
        <_>
          <internalNodes>
            0 -1 1263 -3.8668942579533905e-05</internalNodes>
          <leafValues>
            2.1059425175189972e-01 -5.5367328226566315e-02</leafValues></_>
        <_>
          <internalNodes>
            0 -1 1612 -1.1554703116416931e-02</internalNodes>
          <leafValues>
            -2.6365649700164795e-01 2.3396739736199379e-02</leafValues></_>
        <_>
          <internalNodes>
            0 -1 1027 -2.1790626645088196e-01</internalNodes>
          <leafValues>
            3.1608116626739502e-01 -3.1425371766090393e-02</leafValues></_>
        <_>
          <internalNodes>
            0 -1 939 -1.5158423921093345e-03</internalNodes>
          <leafValues>
            1.1879502236843109e-01 -1.2808464467525482e-01</leafValues></_>
        <_>
          <internalNodes>
            0 -1 260 1.4753013849258423e-02</internalNodes>
          <leafValues>
            -4.6973638236522675e-02 2.4405662715435028e-01</leafValues></_>
        <_>
          <internalNodes>
            0 -1 1453 5.8517185971140862e-04</internalNodes>
          <leafValues>
            -9.0143904089927673e-02 1.4662399888038635e-01</leafValues></_>
        <_>
          <internalNodes>
            0 -1 854 1.7638318240642548e-03</internalNodes>
          <leafValues>
            5.3474213927984238e-02 -2.5896820425987244e-01</leafValues></_>
        <_>
          <internalNodes>
            0 -1 589 6.8001277744770050e-02</internalNodes>
          <leafValues>
            -2.3754032328724861e-02 5.9659916162490845e-01</leafValues></_>
        <_>
          <internalNodes>
            0 -1 1102 1.1825637557194568e-05</internalNodes>
          <leafValues>
            -9.7888149321079254e-02 1.3939593732357025e-01</leafValues></_>
        <_>
          <internalNodes>
            0 -1 1637 -1.9618882797658443e-03</internalNodes>
          <leafValues>
            -2.8303629159927368e-01 4.4078569859266281e-02</leafValues></_>
        <_>
          <internalNodes>
            0 -1 1311 -3.8817934691905975e-02</internalNodes>
          <leafValues>
            3.4706500172615051e-01 -3.5393822938203812e-02</leafValues></_>
        <_>
          <internalNodes>
            0 -1 1275 2.2991077974438667e-02</internalNodes>
          <leafValues>
            -5.6497745215892792e-02 2.0993658900260925e-01</leafValues></_>
        <_>
          <internalNodes>
            0 -1 1366 8.3532114513218403e-04</internalNodes>
          <leafValues>
            4.1293688118457794e-02 -2.9655754566192627e-01</leafValues></_>
        <_>
          <internalNodes>
            0 -1 1215 -3.1796760595170781e-05</internalNodes>
          <leafValues>
            1.4691717922687531e-01 -9.3300685286521912e-02</leafValues></_>
        <_>
          <internalNodes>
            0 -1 925 2.9607006581500173e-05</internalNodes>
          <leafValues>
            -8.8414646685123444e-02 1.3425450026988983e-01</leafValues></_>
        <_>
          <internalNodes>
            0 -1 1284 -7.9669713973999023e-02</internalNodes>
          <leafValues>
            -3.8373491168022156e-01 3.2321173697710037e-02</leafValues></_>
        <_>
          <internalNodes>
            0 -1 486 -1.0549062862992287e-03</internalNodes>
          <leafValues>
            -2.6924800872802734e-01 4.1800472885370255e-02</leafValues></_>
        <_>
          <internalNodes>
            0 -1 1372 -2.5223664124496281e-05</internalNodes>
          <leafValues>
            1.2684251368045807e-01 -8.9913241565227509e-02</leafValues></_>
        <_>
          <internalNodes>
            0 -1 1372 2.5474084395682439e-05</internalNodes>
          <leafValues>
            -8.9387461543083191e-02 1.3928681612014771e-01</leafValues></_>
        <_>
          <internalNodes>
            0 -1 946 6.2254201620817184e-03</internalNodes>
          <leafValues>
            -2.5766566395759583e-02 4.5574042201042175e-01</leafValues></_>
        <_>
          <internalNodes>
            0 -1 800 5.5825188755989075e-03</internalNodes>
          <leafValues>
            5.4407261312007904e-02 -2.4384525418281555e-01</leafValues></_>
        <_>
          <internalNodes>
            0 -1 379 -5.6462641805410385e-04</internalNodes>
          <leafValues>
            -2.4824866652488708e-01 4.3466843664646149e-02</leafValues></_>
        <_>
          <internalNodes>
            0 -1 175 7.4666817672550678e-03</internalNodes>
          <leafValues>
            -2.3433368653059006e-02 5.6244254112243652e-01</leafValues></_>
        <_>
          <internalNodes>
            0 -1 974 3.3404976129531860e-02</internalNodes>
          <leafValues>
            1.6272367909550667e-02 -7.8663951158523560e-01</leafValues></_>
        <_>
          <internalNodes>
            0 -1 1486 -1.0391286341473460e-03</internalNodes>
          <leafValues>
            -2.1852612495422363e-01 4.9598198384046555e-02</leafValues></_>
        <_>
          <internalNodes>
            0 -1 243 6.9468403235077858e-03</internalNodes>
          <leafValues>
            -1.7372621223330498e-02 6.5206468105316162e-01</leafValues></_>
        <_>
          <internalNodes>
            0 -1 638 -3.5174518823623657e-01</internalNodes>
          <leafValues>
            -7.4437481164932251e-01 1.6073752194643021e-02</leafValues></_>
        <_>
          <internalNodes>
            0 -1 1221 -2.2113978862762451e-02</internalNodes>
          <leafValues>
            1.1359345912933350e-01 -1.0571457445621490e-01</leafValues></_>
        <_>
          <internalNodes>
            0 -1 1363 -1.4124615117907524e-03</internalNodes>
          <leafValues>
            -3.0311807990074158e-01 3.6975156515836716e-02</leafValues></_>
        <_>
          <internalNodes>
            0 -1 1597 3.1336399260908365e-03</internalNodes>
          <leafValues>
            -5.9039141982793808e-02 1.9677326083183289e-01</leafValues></_>
        <_>
          <internalNodes>
            0 -1 524 1.3032075017690659e-02</internalNodes>
          <leafValues>
            -1.2910066172480583e-02 8.4077310562133789e-01</leafValues></_>
        <_>
          <internalNodes>
            0 -1 1213 -4.6570476843044162e-04</internalNodes>
          <leafValues>
            1.2795563042163849e-01 -7.6802916824817657e-02</leafValues></_>
        <_>
          <internalNodes>
            0 -1 542 -9.0384911745786667e-03</internalNodes>
          <leafValues>
            7.4865466356277466e-01 -1.4452168717980385e-02</leafValues></_>
        <_>
          <internalNodes>
            0 -1 860 -2.1643990185111761e-03</internalNodes>
          <leafValues>
            -3.0980166792869568e-01 3.4941617399454117e-02</leafValues></_>
        <_>
          <internalNodes>
            0 -1 851 3.2476395368576050e-02</internalNodes>
          <leafValues>
            1.4620120637118816e-02 -5.9554475545883179e-01</leafValues></_>
        <_>
          <internalNodes>
            0 -1 607 2.0014275796711445e-03</internalNodes>
          <leafValues>
            -3.3971033990383148e-02 3.7166473269462585e-01</leafValues></_>
        <_>
          <internalNodes>
            0 -1 1584 -1.1617569252848625e-03</internalNodes>
          <leafValues>
            -4.2833548784255981e-01 2.8040627017617226e-02</leafValues></_>
        <_>
          <internalNodes>
            0 -1 251 6.5306484699249268e-02</internalNodes>
          <leafValues>
            2.9603052884340286e-02 -3.3985608816146851e-01</leafValues></_>
        <_>
          <internalNodes>
            0 -1 496 1.5475291758775711e-02</internalNodes>
          <leafValues>
            4.6985123306512833e-02 -2.3645982146263123e-01</leafValues></_>
        <_>
          <internalNodes>
            0 -1 405 1.4896336942911148e-03</internalNodes>
          <leafValues>
            -7.2040237486362457e-02 1.6199614107608795e-01</leafValues></_>
        <_>
          <internalNodes>
            0 -1 1 -2.8694480657577515e-02</internalNodes>
          <leafValues>
            -2.6439860463142395e-01 4.5913081616163254e-02</leafValues></_>
        <_>
          <internalNodes>
            0 -1 116 -2.3272180987987667e-04</internalNodes>
          <leafValues>
            1.1221206188201904e-01 -1.3265343010425568e-01</leafValues></_>
        <_>
          <internalNodes>
            0 -1 120 -2.5320041179656982e-01</internalNodes>
          <leafValues>
            4.6441817283630371e-01 -2.2331450134515762e-02</leafValues></_>
        <_>
          <internalNodes>
            0 -1 1505 -2.5588771677576005e-05</internalNodes>
          <leafValues>
            1.2764872610569000e-01 -8.4796249866485596e-02</leafValues></_>
        <_>
          <internalNodes>
            0 -1 1618 -1.0598564520478249e-02</internalNodes>
          <leafValues>
            -4.5885726809501648e-01 2.3112349212169647e-02</leafValues></_>
        <_>
          <internalNodes>
            0 -1 1196 -1.2969247996807098e-01</internalNodes>
          <leafValues>
            -8.8100379705429077e-01 9.3033574521541595e-03</leafValues></_>
        <_>
          <internalNodes>
            0 -1 121 -4.7041410207748413e-01</internalNodes>
          <leafValues>
            -5.0080275535583496e-01 1.6818422824144363e-02</leafValues></_>
        <_>
          <internalNodes>
            0 -1 340 2.2809214890003204e-02</internalNodes>
          <leafValues>
            2.8282864019274712e-02 -3.2647860050201416e-01</leafValues></_>
        <_>
          <internalNodes>
            0 -1 509 -1.3534216210246086e-02</internalNodes>
          <leafValues>
            -2.9032778739929199e-01 3.5280622541904449e-02</leafValues></_>
        <_>
          <internalNodes>
            0 -1 266 3.6711404100060463e-03</internalNodes>
          <leafValues>
            -5.4690461605787277e-02 2.0136956870555878e-01</leafValues></_>
        <_>
          <internalNodes>
            0 -1 1474 2.3527860175818205e-03</internalNodes>
          <leafValues>
            6.5423756837844849e-02 -1.7404299974441528e-01</leafValues></_>
        <_>
          <internalNodes>
            0 -1 1305 7.9734586179256439e-03</internalNodes>
          <leafValues>
            -5.4058514535427094e-02 2.2483995556831360e-01</leafValues></_>
        <_>
          <internalNodes>
            0 -1 510 -1.4072230551391840e-03</internalNodes>
          <leafValues>
            1.6621632874011993e-01 -6.6364154219627380e-02</leafValues></_>
        <_>
          <internalNodes>
            0 -1 703 -1.2556632980704308e-02</internalNodes>
          <leafValues>
            1.4953303337097168e-01 -7.7389851212501526e-02</leafValues></_>
        <_>
          <internalNodes>
            0 -1 1170 9.8150630947202444e-04</internalNodes>
          <leafValues>
            5.1805268973112106e-02 -2.1789196133613586e-01</leafValues></_>
        <_>
          <internalNodes>
            0 -1 970 -2.2617049980908632e-03</internalNodes>
          <leafValues>
            1.6102728247642517e-01 -7.9756200313568115e-02</leafValues></_>
        <_>
          <internalNodes>
            0 -1 834 2.9132474446669221e-04</internalNodes>
          <leafValues>
            5.3233157843351364e-02 -2.1356131136417389e-01</leafValues></_>
        <_>
          <internalNodes>
            0 -1 1022 9.0842656791210175e-03</internalNodes>
          <leafValues>
            -6.9915026426315308e-02 1.7155025899410248e-01</leafValues></_>
        <_>
          <internalNodes>
            0 -1 875 -2.2068303078413010e-02</internalNodes>
          <leafValues>
            -8.0531448125839233e-01 1.3568728230893612e-02</leafValues></_>
        <_>
          <internalNodes>
            0 -1 194 2.7129504829645157e-02</internalNodes>
          <leafValues>
            2.7387738227844238e-02 -3.4436604380607605e-01</leafValues></_>
        <_>
          <internalNodes>
            0 -1 388 3.0704295262694359e-02</internalNodes>
          <leafValues>
            -6.6351115703582764e-02 1.6549736261367798e-01</leafValues></_>
        <_>
          <internalNodes>
            0 -1 1007 6.2802666798233986e-03</internalNodes>
          <leafValues>
            1.6207292675971985e-02 -6.3185781240463257e-01</leafValues></_>
        <_>
          <internalNodes>
            0 -1 1548 1.6020745970308781e-03</internalNodes>
          <leafValues>
            -1.9608115777373314e-02 6.2420028448104858e-01</leafValues></_>
        <_>
          <internalNodes>
            0 -1 172 2.8092903085052967e-04</internalNodes>
          <leafValues>
            5.7300817221403122e-02 -1.9290712475776672e-01</leafValues></_>
        <_>
          <internalNodes>
            0 -1 277 -8.6094364523887634e-03</internalNodes>
          <leafValues>
            1.6017256677150726e-01 -6.4327254891395569e-02</leafValues></_>
        <_>
          <internalNodes>
            0 -1 136 5.8702863752841949e-02</internalNodes>
          <leafValues>
            -2.6692630723118782e-02 3.8982129096984863e-01</leafValues></_>
        <_>
          <internalNodes>
            0 -1 701 -5.8786971494555473e-03</internalNodes>
          <leafValues>
            -3.6361795663833618e-01 3.0000250786542892e-02</leafValues></_>
        <_>
          <internalNodes>
            0 -1 787 -1.6144781839102507e-03</internalNodes>
          <leafValues>
            1.2306562066078186e-01 -1.0428550094366074e-01</leafValues></_>
        <_>
          <internalNodes>
            0 -1 1623 -6.3031783793121576e-04</internalNodes>
          <leafValues>
            -1.9351224601268768e-01 5.5521767586469650e-02</leafValues></_>
        <_>
          <internalNodes>
            0 -1 989 -3.9409743621945381e-03</internalNodes>
          <leafValues>
            2.6822993159294128e-01 -4.1384879499673843e-02</leafValues></_>
        <_>
          <internalNodes>
            0 -1 181 2.3135220544645563e-05</internalNodes>
          <leafValues>
            -8.9962176978588104e-02 1.2012705951929092e-01</leafValues></_>
        <_>
          <internalNodes>
            0 -1 147 1.6239122487604618e-03</internalNodes>
          <leafValues>
            4.2221099138259888e-02 -2.4363766610622406e-01</leafValues></_>
        <_>
          <internalNodes>
            0 -1 153 -4.6085307258181274e-04</internalNodes>
          <leafValues>
            -1.8520082533359528e-01 7.2475060820579529e-02</leafValues></_>
        <_>
          <internalNodes>
            0 -1 166 -7.1894726715981960e-03</internalNodes>
          <leafValues>
            1.5870915353298187e-01 -6.9495178759098053e-02</leafValues></_>
        <_>
          <internalNodes>
            0 -1 334 -2.9669234208995476e-05</internalNodes>
          <leafValues>
            1.1592864245176315e-01 -8.8442012667655945e-02</leafValues></_>
        <_>
          <internalNodes>
            0 -1 528 1.6064761206507683e-02</internalNodes>
          <leafValues>
            -6.0337141156196594e-02 1.7250737547874451e-01</leafValues></_>
        <_>
          <internalNodes>
            0 -1 723 1.3832958415150642e-02</internalNodes>
          <leafValues>
            -8.4625504910945892e-02 1.2071067839860916e-01</leafValues></_>
        <_>
          <internalNodes>
            0 -1 892 -1.1256627738475800e-02</internalNodes>
          <leafValues>
            1.6722470521926880e-01 -6.8148151040077209e-02</leafValues></_>
        <_>
          <internalNodes>
            0 -1 1279 -5.3170439787209034e-04</internalNodes>
          <leafValues>
            -2.4160608649253845e-01 4.8356197774410248e-02</leafValues></_>
        <_>
          <internalNodes>
            0 -1 1052 -1.2969226190762129e-05</internalNodes>
          <leafValues>
            1.2275272607803345e-01 -8.5550270974636078e-02</leafValues></_>
        <_>
          <internalNodes>
            0 -1 1041 -3.2243849709630013e-03</internalNodes>
          <leafValues>
            -3.9849418401718140e-01 2.8832122683525085e-02</leafValues></_>
        <_>
          <internalNodes>
            0 -1 1143 3.9844315324444324e-05</internalNodes>
          <leafValues>
            -8.7392084300518036e-02 1.1903026700019836e-01</leafValues></_>
        <_>
          <internalNodes>
            0 -1 1282 2.0533250644803047e-02</internalNodes>
          <leafValues>
            -1.9941519945859909e-02 5.4728955030441284e-01</leafValues></_>
        <_>
          <internalNodes>
            0 -1 737 -5.0316751003265381e-02</internalNodes>
          <leafValues>
            -5.7206201553344727e-01 2.1696450188755989e-02</leafValues></_>
        <_>
          <internalNodes>
            0 -1 1320 8.5999612929299474e-04</internalNodes>
          <leafValues>
            3.9969637989997864e-02 -2.5005149841308594e-01</leafValues></_></weakClassifiers></_>
    <!-- stage 6 -->
    <_>
      <maxWeakCount>100</maxWeakCount>
      <stageThreshold>-1.2667131423950195e+00</stageThreshold>
      <weakClassifiers>
        <_>
          <internalNodes>
            0 -1 72 2.0784715190529823e-02</internalNodes>
          <leafValues>
            -4.4188597798347473e-01 9.3708168715238571e-03</leafValues></_>
        <_>
          <internalNodes>
            0 -1 1361 -2.9193425551056862e-02</internalNodes>
          <leafValues>
            1.6473294794559479e-01 -1.5893748402595520e-01</leafValues></_>
        <_>
          <internalNodes>
