<?xml version="1.0"?>
<opencv_storage>
<cascade>
  <stageType>BOOST</stageType>
  <featureType>HAAR</featureType>
  <height>24</height>
  <width>24</width>
  <stageParams>
    <boostType>GAB</boostType>
    <minHitRate>9.9500000476837158e-01</minHitRate>
    <maxFalseAlarm>5.0000000000000000e-01</maxFalseAlarm>
    <weightTrimRate>9.4999998807907104e-01</weightTrimRate>
    <maxDepth>1</maxDepth>
    <maxWeakCount>100</maxWeakCount></stageParams>
  <featureParams>
    <maxCatCount>0</maxCatCount>
    <featSize>1</featSize>
    <mode>BASIC</mode></featureParams>
  <stageNum>15</stageNum>
  <stages>
    <!-- stage 0 -->
    <_>
      <maxWeakCount>100</maxWeakCount>
      <stageThreshold>-6.9144308567047119e-01</stageThreshold>
      <weakClassifiers>
        <_>
          <internalNodes>
            0 -1 22 -7.3988521099090576e-01</internalNodes>
          <leafValues>
            -3.7321937084197998e-01 6.2574470043182373e-01</leafValues></_>
        <_>
          <internalNodes>
            0 -1 543 5.2752718329429626e-03</internalNodes>
          <leafValues>
            -3.6427620798349380e-02 5.1697295904159546e-01</leafValues></_>
        <_>
          <internalNodes>
            0 -1 637 2.1738898940384388e-03</internalNodes>
          <leafValues>
            -1.0444243997335434e-01 3.6653167009353638e-01</leafValues></_>
        <_>
          <internalNodes>
            0 -1 463 -1.1085434816777706e-03</internalNodes>
          <leafValues>
            3.0928459763526917e-01 -2.1295578777790070e-01</leafValues></_>
        <_>
          <internalNodes>
            0 -1 465 1.1112795909866691e-03</internalNodes>
          <leafValues>
            -1.5263652801513672e-01 2.4069967865943909e-01</leafValues></_>
        <_>
          <internalNodes>
            0 -1 817 -2.8973259031772614e-04</internalNodes>
          <leafValues>
            3.7606188654899597e-01 -6.3554421067237854e-02</leafValues></_>
        <_>
          <internalNodes>
            0 -1 817 1.0525559446250554e-05</internalNodes>
          <leafValues>
            -1.7524203658103943e-01 2.3638410866260529e-01</leafValues></_>
        <_>
          <internalNodes>
            0 -1 817 -1.1285775144642685e-05</internalNodes>
          <leafValues>
            1.9253426790237427e-01 -1.3996936380863190e-01</leafValues></_>
        <_>
          <internalNodes>
            0 -1 818 2.8059933334589005e-02</internalNodes>
          <leafValues>
            -5.5900953710079193e-02 3.6713731288909912e-01</leafValues></_>
        <_>
          <internalNodes>
            0 -1 780 -1.8965117633342743e-02</internalNodes>
          <leafValues>
            3.2071897387504578e-01 -1.0981891304254532e-01</leafValues></_>
        <_>
          <internalNodes>
            0 -1 681 1.9852634519338608e-02</internalNodes>
          <leafValues>
            -6.8836659193038940e-02 2.9403832554817200e-01</leafValues></_>
        <_>
          <internalNodes>
            0 -1 434 -1.0403886437416077e-02</internalNodes>
          <leafValues>
            2.6308131217956543e-01 -8.3491951227188110e-02</leafValues></_>
        <_>
          <internalNodes>
            0 -1 1164 -8.7992548942565918e-03</internalNodes>
          <leafValues>
            2.9043495655059814e-01 -7.1184903383255005e-02</leafValues></_>
        <_>
          <internalNodes>
            0 -1 819 -1.1558949016034603e-02</internalNodes>
          <leafValues>
            2.0565171539783478e-01 -1.0677324980497360e-01</leafValues></_>
        <_>
          <internalNodes>
            0 -1 27 -6.3644409179687500e-02</internalNodes>
          <leafValues>
            1.7099703848361969e-01 -1.3468277454376221e-01</leafValues></_>
        <_>
          <internalNodes>
            0 -1 976 -3.2183658331632614e-02</internalNodes>
          <leafValues>
            3.0125403404235840e-01 -6.3704259693622589e-02</leafValues></_>
        <_>
          <internalNodes>
            0 -1 243 -5.0623267889022827e-02</internalNodes>
          <leafValues>
            1.9966252148151398e-01 -1.0582116246223450e-01</leafValues></_>
        <_>
          <internalNodes>
            0 -1 885 3.9422730915248394e-03</internalNodes>
          <leafValues>
            -7.1209937334060669e-02 2.7727663516998291e-01</leafValues></_>
        <_>
          <internalNodes>
            0 -1 614 -1.2465205043554306e-02</internalNodes>
          <leafValues>
            2.0731320977210999e-01 -8.9927285909652710e-02</leafValues></_>
        <_>
          <internalNodes>
            0 -1 360 -2.7038225904107094e-02</internalNodes>
          <leafValues>
            1.7751583456993103e-01 -8.8537491858005524e-02</leafValues></_>
        <_>
          <internalNodes>
            0 -1 928 -1.1166344847879373e-05</internalNodes>
          <leafValues>
            1.6172860562801361e-01 -9.6743553876876831e-02</leafValues></_>
        <_>
          <internalNodes>
            0 -1 928 1.0555500011832919e-05</internalNodes>
          <leafValues>
            -1.0926187038421631e-01 1.5050147473812103e-01</leafValues></_>
        <_>
          <internalNodes>
            0 -1 840 1.6256110393442214e-04</internalNodes>
          <leafValues>
            8.9319057762622833e-02 -1.6672769188880920e-01</leafValues></_>
        <_>
          <internalNodes>
            0 -1 1279 1.1581280887185130e-05</internalNodes>
          <leafValues>
            -9.1576434671878815e-02 1.5781742334365845e-01</leafValues></_>
        <_>
          <internalNodes>
            0 -1 1279 -1.1592946975724772e-05</internalNodes>
          <leafValues>
            1.6532342135906219e-01 -1.1421248316764832e-01</leafValues></_>
        <_>
          <internalNodes>
            0 -1 890 1.6599430819042027e-04</internalNodes>
          <leafValues>
            9.1907173395156860e-02 -1.6699041426181793e-01</leafValues></_>
        <_>
          <internalNodes>
            0 -1 891 1.4270758256316185e-02</internalNodes>
          <leafValues>
            -4.8023607581853867e-02 3.0909505486488342e-01</leafValues></_>
        <_>
          <internalNodes>
            0 -1 763 -3.2528965675737709e-05</internalNodes>
          <leafValues>
            1.2739081680774689e-01 -1.1849386990070343e-01</leafValues></_>
        <_>
          <internalNodes>
            0 -1 460 -2.5335479527711868e-02</internalNodes>
          <leafValues>
            1.9691747426986694e-01 -6.5330520272254944e-02</leafValues></_>
        <_>
          <internalNodes>
            0 -1 491 7.0425584912300110e-02</internalNodes>
          <leafValues>
            -5.3261227905750275e-02 2.4456319212913513e-01</leafValues></_>
        <_>
          <internalNodes>
            0 -1 275 4.4396668672561646e-03</internalNodes>
          <leafValues>
            -5.5627677589654922e-02 2.2979803383350372e-01</leafValues></_>
        <_>
          <internalNodes>
            0 -1 1315 -6.5184134291484952e-04</internalNodes>
          <leafValues>
            -1.5836468338966370e-01 7.6086521148681641e-02</leafValues></_>
        <_>
          <internalNodes>
            0 -1 44 -1.0905104875564575e-01</internalNodes>
          <leafValues>
            1.8162637948989868e-01 -7.6074957847595215e-02</leafValues></_>
        <_>
          <internalNodes>
            0 -1 487 4.8695690929889679e-02</internalNodes>
          <leafValues>
            -6.6428229212760925e-02 1.8591149151325226e-01</leafValues></_>
        <_>
          <internalNodes>
            0 -1 35 -2.1773074695374817e-04</internalNodes>
          <leafValues>
            -1.6238845884799957e-01 7.6066918671131134e-02</leafValues></_>
        <_>
          <internalNodes>
            0 -1 1084 -1.0460708836035337e-05</internalNodes>
          <leafValues>
            1.4200547337532043e-01 -8.7357513606548309e-02</leafValues></_>
        <_>
          <internalNodes>
            0 -1 915 1.2854009401053190e-04</internalNodes>
          <leafValues>
            8.3801329135894775e-02 -1.4115098118782043e-01</leafValues></_>
        <_>
          <internalNodes>
            0 -1 419 -3.5626338794827461e-03</internalNodes>
          <leafValues>
            3.2862159609794617e-01 -3.7609428167343140e-02</leafValues></_>
        <_>
          <internalNodes>
            0 -1 706 -3.4237662330269814e-03</internalNodes>
          <leafValues>
            1.8097943067550659e-01 -6.3162863254547119e-02</leafValues></_>
        <_>
          <internalNodes>
            0 -1 871 2.3995726369321346e-03</internalNodes>
          <leafValues>
            4.2893793433904648e-02 -2.5858765840530396e-01</leafValues></_>
        <_>
          <internalNodes>
            0 -1 95 3.0789628624916077e-02</internalNodes>
          <leafValues>
            -5.2970983088016510e-02 2.2525501251220703e-01</leafValues></_>
        <_>
          <internalNodes>
            0 -1 816 5.5983965285122395e-04</internalNodes>
          <leafValues>
            5.0723902881145477e-02 -2.5066781044006348e-01</leafValues></_>
        <_>
          <internalNodes>
            0 -1 277 1.2526782229542732e-02</internalNodes>
          <leafValues>
            -5.4064150899648666e-02 2.2874259948730469e-01</leafValues></_>
        <_>
          <internalNodes>
            0 -1 481 1.1995761269645300e-05</internalNodes>
          <leafValues>
            -9.6770331263542175e-02 1.2882894277572632e-01</leafValues></_>
        <_>
          <internalNodes>
            0 -1 544 4.9680867232382298e-04</internalNodes>
          <leafValues>
            5.7695385068655014e-02 -2.4416466057300568e-01</leafValues></_>
        <_>
          <internalNodes>
            0 -1 330 4.4569103047251701e-03</internalNodes>
          <leafValues>
            -5.4615508764982224e-02 2.2949028015136719e-01</leafValues></_>
        <_>
          <internalNodes>
            0 -1 961 7.4141966179013252e-03</internalNodes>
          <leafValues>
            -4.4155027717351913e-02 2.6893407106399536e-01</leafValues></_>
        <_>
          <internalNodes>
            0 -1 1252 1.6467116074636579e-04</internalNodes>
          <leafValues>
            7.7653206884860992e-02 -1.5338765084743500e-01</leafValues></_>
        <_>
          <internalNodes>
            0 -1 812 -7.3284409940242767e-02</internalNodes>
          <leafValues>
            1.9774468243122101e-01 -5.6405246257781982e-02</leafValues></_>
        <_>
          <internalNodes>
            0 -1 168 3.6861684173345566e-02</internalNodes>
          <leafValues>
            1.9200118258595467e-02 -6.3238590955734253e-01</leafValues></_>
        <_>
          <internalNodes>
            0 -1 226 -2.2983537055552006e-03</internalNodes>
          <leafValues>
            1.6435948014259338e-01 -7.5100861489772797e-02</leafValues></_>
        <_>
          <internalNodes>
            0 -1 338 -4.8040246963500977e-01</internalNodes>
          <leafValues>
            6.1238425970077515e-01 -1.8595138564705849e-02</leafValues></_>
        <_>
          <internalNodes>
            0 -1 532 1.0658285646059085e-05</internalNodes>
          <leafValues>
            -8.5861042141914368e-02 1.3977749645709991e-01</leafValues></_>
        <_>
          <internalNodes>
            0 -1 532 -1.0525559446250554e-05</internalNodes>
          <leafValues>
            1.5376463532447815e-01 -1.0448945313692093e-01</leafValues></_>
        <_>
          <internalNodes>
            0 -1 834 1.6357106505893171e-04</internalNodes>
          <leafValues>
            7.8205935657024384e-02 -1.4565940201282501e-01</leafValues></_>
        <_>
          <internalNodes>
            0 -1 1216 1.9128778949379921e-02</internalNodes>
          <leafValues>
            -4.0934208780527115e-02 2.7612367272377014e-01</leafValues></_>
        <_>
          <internalNodes>
            0 -1 1186 -1.0000171139836311e-02</internalNodes>
          <leafValues>
            2.0181559026241302e-01 -5.9660539031028748e-02</leafValues></_>
        <_>
          <internalNodes>
            0 -1 357 -1.2000419701507781e-05</internalNodes>
          <leafValues>
            1.2109979987144470e-01 -9.2965841293334961e-02</leafValues></_>
        <_>
          <internalNodes>
            0 -1 739 1.4167713001370430e-02</internalNodes>
          <leafValues>
            3.0830014497041702e-02 -3.5978579521179199e-01</leafValues></_>
        <_>
          <internalNodes>
            0 -1 735 1.3346427585929632e-03</internalNodes>
          <leafValues>
            -4.0701132267713547e-02 2.6246032118797302e-01</leafValues></_>
        <_>
          <internalNodes>
            0 -1 1296 -2.1127116633579135e-04</internalNodes>
          <leafValues>
            -1.7940130829811096e-01 6.3658773899078369e-02</leafValues></_>
        <_>
          <internalNodes>
            0 -1 1089 -2.0607989281415939e-03</internalNodes>
          <leafValues>
            2.0538425445556641e-01 -5.0076447427272797e-02</leafValues></_>
        <_>
          <internalNodes>
            0 -1 424 1.5425574965775013e-02</internalNodes>
          <leafValues>
            2.8281426057219505e-02 -4.0543615818023682e-01</leafValues></_>
        <_>
          <internalNodes>
            0 -1 736 -2.8612280730158091e-03</internalNodes>
          <leafValues>
            2.3775756359100342e-01 -4.6318020671606064e-02</leafValues></_>
        <_>
          <internalNodes>
            0 -1 583 2.7449397020973265e-04</internalNodes>
          <leafValues>
            7.7437028288841248e-02 -1.4566160738468170e-01</leafValues></_>
        <_>
          <internalNodes>
            0 -1 671 2.5083045475184917e-03</internalNodes>
          <leafValues>
            -6.0778163373470306e-02 1.8732970952987671e-01</leafValues></_>
        <_>
          <internalNodes>
            0 -1 202 -1.1553158052265644e-02</internalNodes>
          <leafValues>
            5.3896421194076538e-01 -2.0169295370578766e-02</leafValues></_>
        <_>
          <internalNodes>
            0 -1 518 1.7755813314579427e-04</internalNodes>
          <leafValues>
            7.6381251215934753e-02 -1.4471217989921570e-01</leafValues></_>
        <_>
          <internalNodes>
            0 -1 39 -5.4744951426982880e-02</internalNodes>
          <leafValues>
            2.0146192610263824e-01 -5.2620660513639450e-02</leafValues></_>
        <_>
          <internalNodes>
            0 -1 1049 4.3966111843474209e-04</internalNodes>
          <leafValues>
            8.3478048443794250e-02 -1.3166068494319916e-01</leafValues></_>
        <_>
          <internalNodes>
            0 -1 1165 1.1242046639381442e-05</internalNodes>
          <leafValues>
            -8.2623861730098724e-02 1.3666830956935883e-01</leafValues></_>
        <_>
          <internalNodes>
            0 -1 1165 -1.1529061339388136e-05</internalNodes>
          <leafValues>
            1.2939406931400299e-01 -9.3745812773704529e-02</leafValues></_>
        <_>
          <internalNodes>
            0 -1 1064 -1.8453123630024493e-04</internalNodes>
          <leafValues>
            -1.4723351597785950e-01 7.4592299759387970e-02</leafValues></_>
        <_>
          <internalNodes>
            0 -1 857 -1.0658285646059085e-05</internalNodes>
          <leafValues>
            1.2893839180469513e-01 -8.4749728441238403e-02</leafValues></_>
        <_>
          <internalNodes>
            0 -1 1127 6.5614283084869385e-03</internalNodes>
          <leafValues>
            -1.1878945864737034e-02 8.6284607648849487e-01</leafValues></_>
        <_>
          <internalNodes>
            0 -1 931 1.1002065986394882e-01</internalNodes>
          <leafValues>
            2.0630680024623871e-02 -5.9860593080520630e-01</leafValues></_>
        <_>
          <internalNodes>
            0 -1 1320 -5.7208549696952105e-04</internalNodes>
          <leafValues>
            -1.9995157420635223e-01 4.6652588993310928e-02</leafValues></_>
        <_>
          <internalNodes>
            0 -1 1282 -1.0658285646059085e-05</internalNodes>
          <leafValues>
            1.0858801007270813e-01 -9.6492342650890350e-02</leafValues></_>
        <_>
          <internalNodes>
            0 -1 836 -3.5619072150439024e-04</internalNodes>
          <leafValues>
            2.2324606776237488e-01 -4.3121315538883209e-02</leafValues></_>
        <_>
          <internalNodes>
            0 -1 1087 3.9619120070710778e-04</internalNodes>
          <leafValues>
            8.8666923344135284e-02 -1.1065173149108887e-01</leafValues></_>
        <_>
          <internalNodes>
            0 -1 997 1.3792305253446102e-03</internalNodes>
          <leafValues>
            -4.7182805836200714e-02 2.1390150487422943e-01</leafValues></_>
        <_>
          <internalNodes>
            0 -1 1066 -1.3026455417275429e-04</internalNodes>
          <leafValues>
            -9.9648848176002502e-02 9.6545688807964325e-02</leafValues></_>
        <_>
          <internalNodes>
            0 -1 1062 2.2912828717380762e-04</internalNodes>
          <leafValues>
            7.9071514308452606e-02 -1.2198789417743683e-01</leafValues></_>
        <_>
          <internalNodes>
            0 -1 933 7.6276548206806183e-02</internalNodes>
          <leafValues>
            -4.4887416064739227e-02 2.2770687937736511e-01</leafValues></_>
        <_>
          <internalNodes>
            0 -1 425 1.3705924153327942e-01</internalNodes>
          <leafValues>
            -4.7364596277475357e-02 2.2967512905597687e-01</leafValues></_>
        <_>
          <internalNodes>
            0 -1 790 5.2977562882006168e-04</internalNodes>
          <leafValues>
            5.7313621044158936e-02 -2.2897681593894958e-01</leafValues></_>
        <_>
          <internalNodes>
            0 -1 75 5.1353899762034416e-03</internalNodes>
          <leafValues>
            -4.6770464628934860e-02 2.3063646256923676e-01</leafValues></_>
        <_>
          <internalNodes>
            0 -1 1174 -7.2487024590373039e-04</internalNodes>
          <leafValues>
            1.8855078518390656e-01 -4.7670613974332809e-02</leafValues></_>
        <_>
          <internalNodes>
            0 -1 1035 1.1386644473532215e-04</internalNodes>
          <leafValues>
            7.8816995024681091e-02 -1.2370584160089493e-01</leafValues></_>
        <_>
          <internalNodes>
            0 -1 396 -4.3744310736656189e-02</internalNodes>
          <leafValues>
            1.5735732018947601e-01 -6.5128982067108154e-02</leafValues></_>
        <_>
          <internalNodes>
            0 -1 875 -1.0639839274517726e-05</internalNodes>
          <leafValues>
            1.2274357676506042e-01 -7.8357733786106110e-02</leafValues></_>
        <_>
          <internalNodes>
            0 -1 963 1.8019536219071597e-04</internalNodes>
          <leafValues>
            7.2760976850986481e-02 -1.4377397298812866e-01</leafValues></_>
        <_>
          <internalNodes>
            0 -1 872 1.5338960802182555e-03</internalNodes>
          <leafValues>
            -3.3642780035734177e-02 2.7888649702072144e-01</leafValues></_>
        <_>
          <internalNodes>
            0 -1 1059 -4.4486001133918762e-02</internalNodes>
          <leafValues>
            4.4243332743644714e-01 -2.0346852019429207e-02</leafValues></_>
        <_>
          <internalNodes>
            0 -1 535 2.5632889010012150e-03</internalNodes>
          <leafValues>
            -4.8556666821241379e-02 1.8986077606678009e-01</leafValues></_>
        <_>
          <internalNodes>
            0 -1 1239 3.0758546199649572e-04</internalNodes>
          <leafValues>
            5.7991385459899902e-02 -1.7392660677433014e-01</leafValues></_>
        <_>
          <internalNodes>
            0 -1 1152 -1.2002064067928586e-05</internalNodes>
          <leafValues>
            1.2252696603536606e-01 -7.9023763537406921e-02</leafValues></_>
        <_>
          <internalNodes>
            0 -1 519 -1.1169717181473970e-03</internalNodes>
          <leafValues>
            -1.8758739531040192e-01 4.9987483769655228e-02</leafValues></_>
        <_>
          <internalNodes>
            0 -1 498 1.2396972626447678e-02</internalNodes>
          <leafValues>
            -5.3252935409545898e-02 1.9177481532096863e-01</leafValues></_>
        <_>
          <internalNodes>
            0 -1 1219 -1.3394476263783872e-04</internalNodes>
          <leafValues>
            -1.2808071076869965e-01 7.1708120405673981e-02</leafValues></_></weakClassifiers></_>
    <!-- stage 1 -->
    <_>
      <maxWeakCount>100</maxWeakCount>
      <stageThreshold>-6.6985315084457397e-01</stageThreshold>
      <weakClassifiers>
        <_>
          <internalNodes>
            0 -1 33 4.7922712564468384e-01</internalNodes>
          <leafValues>
            6.1076515913009644e-01 -1.3043478131294250e-01</leafValues></_>
        <_>
          <internalNodes>
            0 -1 290 -1.9778201822191477e-03</internalNodes>
          <leafValues>
            2.8599464893341064e-01 -2.9263488948345184e-02</leafValues></_>
        <_>
          <internalNodes>
            0 -1 135 -5.8858212083578110e-02</internalNodes>
          <leafValues>
            2.0993219316005707e-01 -1.1312843859195709e-01</leafValues></_>
        <_>
          <internalNodes>
            0 -1 1076 -2.6851779693970457e-05</internalNodes>
          <leafValues>
            1.7854921519756317e-01 -1.0949257016181946e-01</leafValues></_>
        <_>
          <internalNodes>
            0 -1 1076 2.8426227800082415e-05</internalNodes>
          <leafValues>
            -1.9140458106994629e-01 1.9402518868446350e-01</leafValues></_>
        <_>
          <internalNodes>
            0 -1 1076 -2.6851779693970457e-05</internalNodes>
          <leafValues>
            1.9096557796001434e-01 -1.2687328457832336e-01</leafValues></_>
        <_>
          <internalNodes>
            0 -1 470 -1.0525559446250554e-05</internalNodes>
          <leafValues>
            1.7107573151588440e-01 -9.4964556396007538e-02</leafValues></_>
        <_>
          <internalNodes>
            0 -1 470 2.5442783226026222e-05</internalNodes>
          <leafValues>
            -1.4693821966648102e-01 1.7173990607261658e-01</leafValues></_>
        <_>
          <internalNodes>
            0 -1 509 2.4153355509042740e-02</internalNodes>
          <leafValues>
            -6.2603399157524109e-02 2.3313017189502716e-01</leafValues></_>
        <_>
          <internalNodes>
            0 -1 189 1.7716361908242106e-03</internalNodes>
          <leafValues>
            -1.0060562193393707e-01 1.6058103740215302e-01</leafValues></_>
        <_>
          <internalNodes>
            0 -1 934 -6.1738975346088409e-02</internalNodes>
          <leafValues>
            2.1754750609397888e-01 -7.5232595205307007e-02</leafValues></_>
        <_>
          <internalNodes>
            0 -1 926 2.5536041706800461e-02</internalNodes>
          <leafValues>
            -8.5646823048591614e-02 1.9978168606758118e-01</leafValues></_>
        <_>
          <internalNodes>
            0 -1 1071 2.8617028874577954e-05</internalNodes>
          <leafValues>
            -1.0566981136798859e-01 1.2629708647727966e-01</leafValues></_>
        <_>
          <internalNodes>
            0 -1 470 -1.0525559446250554e-05</internalNodes>
          <leafValues>
            1.4258581399917603e-01 -8.9727409183979034e-02</leafValues></_>
        <_>
          <internalNodes>
            0 -1 1161 -1.0658285646059085e-05</internalNodes>
          <leafValues>
            1.4479427039623260e-01 -8.8517002761363983e-02</leafValues></_>
        <_>
          <internalNodes>
            0 -1 1161 1.1244114830333274e-05</internalNodes>
          <leafValues>
            -1.2680588662624359e-01 1.7803893983364105e-01</leafValues></_>
        <_>
          <internalNodes>
            0 -1 719 -8.2437276840209961e-02</internalNodes>
          <leafValues>
            1.9949859380722046e-01 -6.2234818935394287e-02</leafValues></_>
        <_>
          <internalNodes>
            0 -1 122 5.4218150675296783e-02</internalNodes>
          <leafValues>
            -5.7103902101516724e-02 2.5771525502204895e-01</leafValues></_>
        <_>
          <internalNodes>
            0 -1 11 -6.4207538962364197e-02</internalNodes>
          <leafValues>
            2.1428258717060089e-01 -8.3163529634475708e-02</leafValues></_>
        <_>
          <internalNodes>
            0 -1 285 -5.5884406901896000e-04</internalNodes>
          <leafValues>
            1.5485930442810059e-01 -8.5258752107620239e-02</leafValues></_>
        <_>
          <internalNodes>
            0 -1 570 -3.2762408256530762e-02</internalNodes>
          <leafValues>
            2.1963144838809967e-01 -5.9248894453048706e-02</leafValues></_>
        <_>
          <internalNodes>
            0 -1 554 -1.0839058086276054e-02</internalNodes>
          <leafValues>
            1.4844416081905365e-01 -9.0932048857212067e-02</leafValues></_>
        <_>
          <internalNodes>
            0 -1 219 2.4708966520847753e-05</internalNodes>
          <leafValues>
            -8.6552537977695465e-02 1.1749449372291565e-01</leafValues></_>
        <_>
          <internalNodes>
            0 -1 546 2.0437111379578710e-04</internalNodes>
          <leafValues>
            6.8411238491535187e-02 -1.5918946266174316e-01</leafValues></_>
        <_>
          <internalNodes>
            0 -1 455 8.6917082080617547e-04</internalNodes>
          <leafValues>
            4.8714298754930496e-02 -2.4984920024871826e-01</leafValues></_>
        <_>
          <internalNodes>
            0 -1 661 1.0460708836035337e-05</internalNodes>
          <leafValues>
            -8.5967741906642914e-02 1.3170570135116577e-01</leafValues></_>
        <_>
          <internalNodes>
            0 -1 661 -2.9620670829899609e-05</internalNodes>
          <leafValues>
            1.3680456578731537e-01 -1.0188387334346771e-01</leafValues></_>
        <_>
          <internalNodes>
            0 -1 984 -1.1750921607017517e-02</internalNodes>
          <leafValues>
            1.6833254694938660e-01 -5.8889292180538177e-02</leafValues></_>
        <_>
          <internalNodes>
            0 -1 799 -4.5275851152837276e-04</internalNodes>
          <leafValues>
            -1.8237015604972839e-01 5.4904617369174957e-02</leafValues></_>
        <_>
          <internalNodes>
            0 -1 1168 -2.2684320807456970e-02</internalNodes>
          <leafValues>
            1.6752070188522339e-01 -5.7314716279506683e-02</leafValues></_>
        <_>
          <internalNodes>
            0 -1 939 2.2536602616310120e-01</internalNodes>
          <leafValues>
            2.4613980203866959e-02 -4.3864250183105469e-01</leafValues></_>
        <_>
          <internalNodes>
            0 -1 660 -4.9376569688320160e-02</internalNodes>
          <leafValues>
            1.3886396586894989e-01 -6.9280937314033508e-02</leafValues></_>
        <_>
          <internalNodes>
            0 -1 356 -9.6470187418162823e-04</internalNodes>
          <leafValues>
            1.1475348472595215e-01 -8.1100985407829285e-02</leafValues></_>
        <_>
          <internalNodes>
            0 -1 63 -2.9834199696779251e-02</internalNodes>
          <leafValues>
            1.4421951770782471e-01 -6.6757753491401672e-02</leafValues></_>
        <_>
          <internalNodes>
            0 -1 1161 -2.2045647710910998e-05</internalNodes>
          <leafValues>
            1.1625956743955612e-01 -7.3550969362258911e-02</leafValues></_>
        <_>
          <internalNodes>
            0 -1 1146 2.0852212037425488e-04</internalNodes>
          <leafValues>
            6.5214648842811584e-02 -1.3047705590724945e-01</leafValues></_>
        <_>
          <internalNodes>
            0 -1 1074 -2.7404174208641052e-02</internalNodes>
          <leafValues>
            2.2962069511413574e-01 -3.8899917155504227e-02</leafValues></_>
        <_>
          <internalNodes>
            0 -1 53 -1.0916275531053543e-01</internalNodes>
          <leafValues>
            1.7553801834583282e-01 -5.1018599420785904e-02</leafValues></_>
        <_>
          <internalNodes>
            0 -1 859 -1.9335607066750526e-04</internalNodes>
          <leafValues>
            -1.2722881138324738e-01 6.8301074206829071e-02</leafValues></_>
        <_>
          <internalNodes>
            0 -1 423 -4.2067542672157288e-03</internalNodes>
          <leafValues>
            1.4147429168224335e-01 -5.7105030864477158e-02</leafValues></_>
        <_>
          <internalNodes>
            0 -1 137 4.3430894613265991e-02</internalNodes>
          <leafValues>
            2.4437738582491875e-02 -3.7685897946357727e-01</leafValues></_>
        <_>
          <internalNodes>
            0 -1 274 -2.4997118860483170e-02</internalNodes>
          <leafValues>
            1.2749813497066498e-01 -7.5750082731246948e-02</leafValues></_>
        <_>
          <internalNodes>
            0 -1 342 -1.1871269345283508e-01</internalNodes>
          <leafValues>
            1.7216669023036957e-01 -5.1776338368654251e-02</leafValues></_>
        <_>
          <internalNodes>
            0 -1 363 3.4806602634489536e-03</internalNodes>
          <leafValues>
            -6.0757596045732498e-02 1.4946100115776062e-01</leafValues></_>
        <_>
          <internalNodes>
            0 -1 820 -1.8040224909782410e-02</internalNodes>
          <leafValues>
            1.3300994038581848e-01 -6.4920425415039063e-02</leafValues></_>
        <_>
          <internalNodes>
            0 -1 613 7.7838890254497528e-02</internalNodes>
          <leafValues>
            -3.2088644802570343e-02 2.6035729050636292e-01</leafValues></_>
        <_>
          <internalNodes>
            0 -1 254 1.1381994001567364e-02</internalNodes>
          <leafValues>
            -6.8389430642127991e-02 1.2554648518562317e-01</leafValues></_>
        <_>
          <internalNodes>
            0 -1 450 6.1835732776671648e-04</internalNodes>
          <leafValues>
            4.4680424034595490e-02 -2.1722118556499481e-01</leafValues></_>
        <_>
          <internalNodes>
            0 -1 154 7.3493808507919312e-02</internalNodes>
          <leafValues>
            -5.7669084519147873e-02 1.8285842239856720e-01</leafValues></_>
        <_>
          <internalNodes>
            0 -1 838 1.1518128303578123e-05</internalNodes>
          <leafValues>
            -7.6929293572902679e-02 1.1548252403736115e-01</leafValues></_>
        <_>
          <internalNodes>
            0 -1 129 -3.4665171056985855e-02</internalNodes>
          <leafValues>
            2.3508726060390472e-01 -3.4688778221607208e-02</leafValues></_>
        <_>
          <internalNodes>
            0 -1 1173 -1.0681351341190748e-05</internalNodes>
          <leafValues>
            1.0737902671098709e-01 -7.2974070906639099e-02</leafValues></_>
        <_>
          <internalNodes>
            0 -1 1173 2.1967292923363857e-05</internalNodes>
          <leafValues>
            -8.2602970302104950e-02 1.1923794448375702e-01</leafValues></_>
        <_>
          <internalNodes>
            0 -1 1160 2.0347762620076537e-04</internalNodes>
          <leafValues>
            6.4249522984027863e-02 -1.2998238205909729e-01</leafValues></_>
        <_>
          <internalNodes>
            0 -1 932 -2.7927239425480366e-03</internalNodes>
          <leafValues>
            4.2501026391983032e-01 -1.9544035196304321e-02</leafValues></_>
        <_>
          <internalNodes>
            0 -1 473 -1.1672310210997239e-04</internalNodes>
          <leafValues>
            -1.1521259695291519e-01 6.7526176571846008e-02</leafValues></_>
        <_>
          <internalNodes>
            0 -1 473 4.5784655958414078e-04</internalNodes>
          <leafValues>
            5.3140368312597275e-02 -1.6175861656665802e-01</leafValues></_>
        <_>
          <internalNodes>
            0 -1 1002 -2.6772191631607711e-05</internalNodes>
          <leafValues>
            1.1038119345903397e-01 -7.2288744151592255e-02</leafValues></_>
        <_>
          <internalNodes>
            0 -1 1002 1.0681208550522570e-05</internalNodes>
          <leafValues>
            -8.0245919525623322e-02 1.1193233728408813e-01</leafValues></_>
        <_>
          <internalNodes>
            0 -1 841 -1.6346585471183062e-03</internalNodes>
          <leafValues>
            2.7144858241081238e-01 -2.6647267863154411e-02</leafValues></_>
        <_>
          <internalNodes>
            0 -1 1308 -3.5546059370972216e-04</internalNodes>
          <leafValues>
            -1.5020677447319031e-01 5.3422924131155014e-02</leafValues></_>
        <_>
          <internalNodes>
            0 -1 1010 -6.5384297631680965e-03</internalNodes>
          <leafValues>
            2.2291548550128937e-01 -3.5682827234268188e-02</leafValues></_>
        <_>
          <internalNodes>
            0 -1 774 2.6622964069247246e-02</internalNodes>
          <leafValues>
            -5.7730711996555328e-02 1.3584972918033600e-01</leafValues></_>
        <_>
          <internalNodes>
            0 -1 478 4.1670449078083038e-02</internalNodes>
          <leafValues>
            -4.7076016664505005e-02 1.8261876702308655e-01</leafValues></_>
        <_>
          <internalNodes>
            0 -1 749 1.4878872025292367e-04</internalNodes>
          <leafValues>
            6.9327458739280701e-02 -1.2779112160205841e-01</leafValues></_>
        <_>
          <internalNodes>
            0 -1 884 -2.6250304654240608e-04</internalNodes>
          <leafValues>
            -1.1242910474538803e-01 6.9861307740211487e-02</leafValues></_>
        <_>
          <internalNodes>
            0 -1 886 4.5761687215417624e-04</internalNodes>
          <leafValues>
            6.1690907925367355e-02 -1.4284153282642365e-01</leafValues></_>
        <_>
          <internalNodes>
            0 -1 697 -1.0555500011832919e-05</internalNodes>
          <leafValues>
            1.1254532635211945e-01 -7.4199959635734558e-02</leafValues></_>
        <_>
          <internalNodes>
            0 -1 603 -1.5916150808334351e-01</internalNodes>
          <leafValues>
            -4.4028931856155396e-01 1.7781738191843033e-02</leafValues></_>
        <_>
          <internalNodes>
            0 -1 446 1.6985167749226093e-03</internalNodes>
          <leafValues>
            -6.1320193111896515e-02 1.3469883799552917e-01</leafValues></_>
        <_>
          <internalNodes>
            0 -1 701 -6.3263624906539917e-04</internalNodes>
          <leafValues>
            1.4820642769336700e-01 -7.8125394880771637e-02</leafValues></_>
        <_>
          <internalNodes>
            0 -1 1169 2.5787539780139923e-02</internalNodes>
          <leafValues>
            2.4661362171173096e-02 -3.2707753777503967e-01</leafValues></_>
        <_>
          <internalNodes>
            0 -1 1275 -7.8929290175437927e-03</internalNodes>
          <leafValues>
            3.8934019207954407e-01 -2.1585067734122276e-02</leafValues></_>
        <_>
          <internalNodes>
            0 -1 20 1.3123190402984619e-01</internalNodes>
          <leafValues>
            1.9258860498666763e-02 -4.3194109201431274e-01</leafValues></_>
        <_>
          <internalNodes>
            0 -1 291 8.7390223052352667e-04</internalNodes>
          <leafValues>
            4.2798370122909546e-02 -1.8279320001602173e-01</leafValues></_>
        <_>
          <internalNodes>
            0 -1 1272 -2.5308212265372276e-02</internalNodes>
          <leafValues>
            -5.2490663528442383e-01 1.3812707737088203e-02</leafValues></_>
        <_>
          <internalNodes>
            0 -1 1208 -1.0732385817391332e-05</internalNodes>
          <leafValues>
            1.0538412630558014e-01 -7.5556293129920959e-02</leafValues></_>
        <_>
          <internalNodes>
            0 -1 1208 2.2186854039318860e-05</internalNodes>
          <leafValues>
            -8.1044495105743408e-02 1.2307159602642059e-01</leafValues></_>
        <_>
          <internalNodes>
            0 -1 1284 2.1731968445237726e-04</internalNodes>
          <leafValues>
            5.6778948754072189e-02 -1.3701513409614563e-01</leafValues></_>
        <_>
          <internalNodes>
            0 -1 479 -3.8280752487480640e-03</internalNodes>
          <leafValues>
            1.4280305802822113e-01 -5.5410262197256088e-02</leafValues></_>
        <_>
          <internalNodes>
            0 -1 1246 2.6778612664202228e-05</internalNodes>
          <leafValues>
            -6.8821191787719727e-02 1.0724146664142609e-01</leafValues></_>
        <_>
          <internalNodes>
            0 -1 477 -2.9034522594884038e-04</internalNodes>
          <leafValues>
            -1.1106980592012405e-01 6.7992024123668671e-02</leafValues></_>
        <_>
          <internalNodes>
            0 -1 31 2.3434752225875854e-01</internalNodes>
          <leafValues>
            2.0893054082989693e-02 -3.7845158576965332e-01</leafValues></_>
        <_>
          <internalNodes>
            0 -1 1113 2.3999974655453116e-04</internalNodes>
          <leafValues>
            5.8519501239061356e-02 -1.3065072894096375e-01</leafValues></_>
        <_>
          <internalNodes>
            0 -1 1111 -1.7673207912594080e-04</internalNodes>
          <leafValues>
            -1.0926107317209244e-01 7.6519809663295746e-02</leafValues></_>
        <_>
          <internalNodes>
            0 -1 1143 -1.3403948396444321e-03</internalNodes>
          <leafValues>
            4.3103137612342834e-01 -1.8454529345035553e-02</leafValues></_>
        <_>
          <internalNodes>
            0 -1 1109 2.1930859657004476e-04</internalNodes>
          <leafValues>
            6.9557055830955505e-02 -1.1464399844408035e-01</leafValues></_>
        <_>
          <internalNodes>
            0 -1 999 -1.0426514563732781e-05</internalNodes>
          <leafValues>
            1.0504031181335449e-01 -7.0015609264373779e-02</leafValues></_>
        <_>
          <internalNodes>
            0 -1 608 2.3182372096925974e-03</internalNodes>
          <leafValues>
            -1.7804227769374847e-02 4.2729476094245911e-01</leafValues></_>
        <_>
          <internalNodes>
            0 -1 604 1.6714312369003892e-04</internalNodes>
          <leafValues>
            8.0319605767726898e-02 -1.2229388207197189e-01</leafValues></_>
        <_>
          <internalNodes>
            0 -1 353 -1.5197163820266724e-01</internalNodes>
          <leafValues>
            -7.6751840114593506e-01 1.0104897432029247e-02</leafValues></_>
        <_>
          <internalNodes>
            0 -1 1112 -3.6254697479307652e-03</internalNodes>
          <leafValues>
            4.5331454277038574e-01 -1.7190705984830856e-02</leafValues></_>
        <_>
          <internalNodes>
            0 -1 929 5.2593193948268890e-02</internalNodes>
          <leafValues>
            -3.0522694811224937e-02 2.2780486941337585e-01</leafValues></_>
        <_>
          <internalNodes>
            0 -1 1183 -4.4365116627886891e-04</internalNodes>
          <leafValues>
            -1.6216978430747986e-01 4.7653049230575562e-02</leafValues></_>
        <_>
          <internalNodes>
            0 -1 382 4.7427685931324959e-03</internalNodes>
          <leafValues>
            -3.4041609615087509e-02 2.1201603114604950e-01</leafValues></_>
        <_>
          <internalNodes>
            0 -1 1101 8.7594182696193457e-04</internalNodes>
          <leafValues>
            4.7735705971717834e-02 -1.7030514776706696e-01</leafValues></_>
        <_>
          <internalNodes>
            0 -1 197 2.6392855943413451e-05</internalNodes>
          <leafValues>
            -6.8890668451786041e-02 1.0845970362424850e-01</leafValues></_>
        <_>
          <internalNodes>
            0 -1 179 -1.0211730841547251e-03</internalNodes>
          <leafValues>
            -2.3823632299900055e-01 3.2490320503711700e-02</leafValues></_>
        <_>
          <internalNodes>
            0 -1 513 3.0240719206631184e-03</internalNodes>
          <leafValues>
            -5.6075014173984528e-02 1.3535712659358978e-01</leafValues></_>
        <_>
          <internalNodes>
            0 -1 1150 -4.2659766040742397e-03</internalNodes>
          <leafValues>
            -2.8715869784355164e-01 2.9891734942793846e-02</leafValues></_></weakClassifiers></_>
    <!-- stage 2 -->
    <_>
      <maxWeakCount>100</maxWeakCount>
      <stageThreshold>-5.2726876735687256e-01</stageThreshold>
      <weakClassifiers>
        <_>
          <internalNodes>
            0 -1 452 4.0027787908911705e-03</internalNodes>
          <leafValues>
            5.1557201147079468e-01 7.3721283674240112e-01</leafValues></_>
        <_>
          <internalNodes>
            0 -1 649 -4.8067984171211720e-03</internalNodes>
          <leafValues>
            3.0101135373115540e-01 2.5271628051996231e-02</leafValues></_>
        <_>
          <internalNodes>
            0 -1 472 3.9445338770747185e-03</internalNodes>
          <leafValues>
            -1.4683270454406738e-01 2.0196369290351868e-01</leafValues></_>
        <_>
          <internalNodes>
            0 -1 561 -2.1465043537318707e-03</internalNodes>
          <leafValues>
            2.3816980421543121e-01 -5.9022676199674606e-02</leafValues></_>
        <_>
          <internalNodes>
            0 -1 768 -4.7161071561276913e-03</internalNodes>
          <leafValues>
            -2.8137049078941345e-01 3.3821854740381241e-02</leafValues></_>
        <_>
          <internalNodes>
            0 -1 361 -6.8660199642181396e-02</internalNodes>
          <leafValues>
            2.5617176294326782e-01 -3.2669391483068466e-02</leafValues></_>
        <_>
          <internalNodes>
            0 -1 403 3.9593324065208435e-02</internalNodes>
          <leafValues>
            -7.2704225778579712e-02 1.9690497219562531e-01</leafValues></_>
        <_>
          <internalNodes>
            0 -1 556 -3.1310003250837326e-02</internalNodes>
          <leafValues>
            2.9843404889106750e-01 -4.6721614897251129e-02</leafValues></_>
        <_>
          <internalNodes>
            0 -1 485 1.0733132250607014e-02</internalNodes>
          <leafValues>
            -5.4021593183279037e-02 1.9235871732234955e-01</leafValues></_>
        <_>
          <internalNodes>
            0 -1 849 2.4582806508988142e-03</internalNodes>
          <leafValues>
            -2.5668529793620110e-02 4.4818967580795288e-01</leafValues></_>
        <_>
          <internalNodes>
            0 -1 514 -2.2220551036298275e-03</internalNodes>
          <leafValues>
            1.2001884728670120e-01 -8.0030322074890137e-02</leafValues></_>
        <_>
          <internalNodes>
            0 -1 350 4.5533934608101845e-03</internalNodes>
          <leafValues>
            -5.4208587855100632e-02 1.7418810725212097e-01</leafValues></_>
        <_>
          <internalNodes>
            0 -1 421 -1.7806054092943668e-03</internalNodes>
          <leafValues>
            1.5767055749893188e-01 -8.8617041707038879e-02</leafValues></_>
        <_>
          <internalNodes>
            0 -1 545 -9.6793414559215307e-04</internalNodes>
          <leafValues>
            -2.2005797922611237e-01 4.2868617922067642e-02</leafValues></_>
        <_>
          <internalNodes>
            0 -1 545 3.2804312650114298e-04</internalNodes>
          <leafValues>
            6.3116662204265594e-02 -1.7812976241111755e-01</leafValues></_>
        <_>
          <internalNodes>
            0 -1 726 -1.2303095310926437e-02</internalNodes>
          <leafValues>
            1.2980963289737701e-01 -7.1671113371849060e-02</leafValues></_>
        <_>
          <internalNodes>
            0 -1 938 -6.2081500887870789e-02</internalNodes>
          <leafValues>
            1.7407149076461792e-01 -5.9290576726198196e-02</leafValues></_>
        <_>
          <internalNodes>
            0 -1 1166 -1.2935807928442955e-02</internalNodes>
          <leafValues>
            1.5397922694683075e-01 -6.7572563886642456e-02</leafValues></_>
        <_>
          <internalNodes>
            0 -1 916 -7.6746707782149315e-04</internalNodes>
          <leafValues>
            1.2621064484119415e-01 -6.3601024448871613e-02</leafValues></_>
        <_>
          <internalNodes>
            0 -1 708 2.9363827779889107e-03</internalNodes>
          <leafValues>
            -5.5852927267551422e-02 1.5407060086727142e-01</leafValues></_>
        <_>
          <internalNodes>
            0 -1 920 -1.4119666593614966e-04</internalNodes>
          <leafValues>
            -1.2213046103715897e-01 7.2547808289527893e-02</leafValues></_>
        <_>
          <internalNodes>
            0 -1 919 9.5675879856571555e-04</internalNodes>
          <leafValues>
            4.9992617219686508e-02 -1.6492912173271179e-01</leafValues></_>
        <_>
          <internalNodes>
            0 -1 1058 -2.5049475952982903e-03</internalNodes>
          <leafValues>
            1.0318871587514877e-01 -7.7450916171073914e-02</leafValues></_>
        <_>
          <internalNodes>
            0 -1 93 -5.0529934465885162e-02</internalNodes>
          <leafValues>
            1.5386381745338440e-01 -5.5791910737752914e-02</leafValues></_>
        <_>
          <internalNodes>
            0 -1 344 2.5692045688629150e-02</internalNodes>
          <leafValues>
            -5.4696444422006607e-02 2.2408691048622131e-01</leafValues></_>
        <_>
          <internalNodes>
            0 -1 504 -2.8678542003035545e-02</internalNodes>
          <leafValues>
            1.6261942684650421e-01 -8.1373907625675201e-02</leafValues></_>
        <_>
          <internalNodes>
            0 -1 656 -2.6683473959565163e-02</internalNodes>
          <leafValues>
            1.1582790315151215e-01 -7.1509867906570435e-02</leafValues></_>
        <_>
          <internalNodes>
            0 -1 986 2.7825508266687393e-02</internalNodes>
          <leafValues>
            -5.1454763859510422e-02 1.7741623520851135e-01</leafValues></_>
        <_>
          <internalNodes>
            0 -1 1253 4.0142118814401329e-04</internalNodes>
          <leafValues>
            5.0916735082864761e-02 -1.6747562587261200e-01</leafValues></_>
        <_>
          <internalNodes>
            0 -1 743 -1.9608894363045692e-02</internalNodes>
          <leafValues>
            4.9243053793907166e-01 -1.7096672207117081e-02</leafValues></_>
        <_>
          <internalNodes>
            0 -1 1276 -7.4446049984544516e-04</internalNodes>
          <leafValues>
            1.0144332051277161e-01 -8.1839911639690399e-02</leafValues></_>
        <_>
          <internalNodes>
            0 -1 78 4.0058896411210299e-04</internalNodes>
          <leafValues>
            5.2695684134960175e-02 -1.6379159688949585e-01</leafValues></_>
        <_>
          <internalNodes>
            0 -1 70 -3.5161196137778461e-04</internalNodes>
          <leafValues>
            -1.4597909152507782e-01 6.8388395011425018e-02</leafValues></_>
        <_>
          <internalNodes>
            0 -1 51 -3.8111247122287750e-02</internalNodes>
          <leafValues>
            1.3082671165466309e-01 -6.7479580640792847e-02</leafValues></_>
        <_>
          <internalNodes>
            0 -1 190 -2.6759509928524494e-03</internalNodes>
          <leafValues>
            1.2863858044147491e-01 -6.6900424659252167e-02</leafValues></_>
        <_>
          <internalNodes>
            0 -1 781 -7.9536736011505127e-03</internalNodes>
          <leafValues>
            2.3797416687011719e-01 -3.3817898482084274e-02</leafValues></_>
        <_>
          <internalNodes>
            0 -1 1138 -1.0503935813903809e-01</internalNodes>
          <leafValues>
            -6.6320949792861938e-01 1.2798408046364784e-02</leafValues></_>
        <_>
          <internalNodes>
            0 -1 912 1.8627995450515300e-04</internalNodes>
          <leafValues>
            7.3728881776332855e-02 -1.0819841921329498e-01</leafValues></_>
        <_>
          <internalNodes>
            0 -1 882 1.0555500011832919e-05</internalNodes>
          <leafValues>
            -7.3653653264045715e-02 1.0766040533781052e-01</leafValues></_>
        <_>
          <internalNodes>
            0 -1 936 -1.1454705600044690e-05</internalNodes>
          <leafValues>
            1.0623648017644882e-01 -7.5487524271011353e-02</leafValues></_>
        <_>
          <internalNodes>
            0 -1 213 2.7063267771154642e-04</internalNodes>
          <leafValues>
            -7.8987024724483490e-02 9.9226906895637512e-02</leafValues></_>
        <_>
          <internalNodes>
            0 -1 670 -3.9503310108557343e-04</internalNodes>
          <leafValues>
            -1.2345778197050095e-01 6.5161317586898804e-02</leafValues></_>
        <_>
          <internalNodes>
            0 -1 1225 -1.0426514563732781e-05</internalNodes>
          <leafValues>
            1.0253763943910599e-01 -7.4508771300315857e-02</leafValues></_>
        <_>
          <internalNodes>
            0 -1 832 -2.8405392542481422e-02</internalNodes>
          <leafValues>
            1.1118201166391373e-01 -6.2080435454845428e-02</leafValues></_>
        <_>
          <internalNodes>
            0 -1 1159 4.3117656605318189e-04</internalNodes>
          <leafValues>
            4.8989381641149521e-02 -1.7309936881065369e-01</leafValues></_>
        <_>
          <internalNodes>
            0 -1 1207 8.0459512537345290e-04</internalNodes>
          <leafValues>
            -3.8740240037441254e-02 2.0159156620502472e-01</leafValues></_>
        <_>
          <internalNodes>
            0 -1 1314 9.7014773637056351e-03</internalNodes>
          <leafValues>
            2.6464594528079033e-02 -2.8120043873786926e-01</leafValues></_>
        <_>
          <internalNodes>
            0 -1 294 1.9364495528861880e-04</internalNodes>
          <leafValues>
            5.5634714663028717e-02 -1.2696681916713715e-01</leafValues></_>
        <_>
          <internalNodes>
            0 -1 1006 -2.4967692297650501e-05</internalNodes>
          <leafValues>
            8.9577570557594299e-02 -8.1639327108860016e-02</leafValues></_>
        <_>
          <internalNodes>
            0 -1 447 1.7036270583048463e-03</internalNodes>
          <leafValues>
            -5.8105815201997757e-02 1.2300981581211090e-01</leafValues></_>
        <_>
          <internalNodes>
            0 -1 335 4.7263763844966888e-03</internalNodes>
          <leafValues>
            -1.6348639503121376e-02 4.0902712941169739e-01</leafValues></_>
        <_>
          <internalNodes>
            0 -1 617 1.0587117139948532e-04</internalNodes>
          <leafValues>
            7.0844188332557678e-02 -1.0145387053489685e-01</leafValues></_>
        <_>
          <internalNodes>
            0 -1 1056 -6.7003574222326279e-03</internalNodes>
          <leafValues>
            2.3881143331527710e-01 -2.9231941327452660e-02</leafValues></_>
        <_>
          <internalNodes>
            0 -1 1214 4.9421127885580063e-02</internalNodes>
          <leafValues>
            8.5110496729612350e-03 -8.2494211196899414e-01</leafValues></_>
        <_>
          <internalNodes>
            0 -1 1278 -5.2035675616934896e-04</internalNodes>
          <leafValues>
            -1.6211657226085663e-01 4.0198568254709244e-02</leafValues></_>
        <_>
          <internalNodes>
            0 -1 987 -1.8433813005685806e-02</internalNodes>
          <leafValues>
            1.2269295752048492e-01 -5.7614941149950027e-02</leafValues></_>
        <_>
          <internalNodes>
            0 -1 1304 -1.0006355587393045e-03</internalNodes>
          <leafValues>
            -1.6510203480720520e-01 4.2898572981357574e-02</leafValues></_>
        <_>
          <internalNodes>
            0 -1 809 1.0681351341190748e-05</internalNodes>
          <leafValues>
            -7.1814946830272675e-02 9.9610470235347748e-02</leafValues></_>
        <_>
          <internalNodes>
            0 -1 946 -2.8851332899648696e-05</internalNodes>
          <leafValues>
            9.3344323337078094e-02 -7.7196262776851654e-02</leafValues></_>
        <_>
          <internalNodes>
            0 -1 1194 -4.0034507401287556e-03</internalNodes>
          <leafValues>
            2.9785248637199402e-01 -2.3474067449569702e-02</leafValues></_>
        <_>
          <internalNodes>
            0 -1 1116 -4.9662545323371887e-02</internalNodes>
          <leafValues>
            -4.5916825532913208e-01 1.5551052987575531e-02</leafValues></_>
        <_>
          <internalNodes>
            0 -1 700 3.0119133953121491e-05</internalNodes>
          <leafValues>
            -7.2687871754169464e-02 9.6989504992961884e-02</leafValues></_>
        <_>
          <internalNodes>
            0 -1 700 -1.0975165423587896e-05</internalNodes>
          <leafValues>
            9.6175588667392731e-02 -6.9592766463756561e-02</leafValues></_>
        <_>
          <internalNodes>
            0 -1 126 4.3361971620470285e-04</internalNodes>
          <leafValues>
            4.5504283159971237e-02 -1.5023075044155121e-01</leafValues></_>
        <_>
          <internalNodes>
            0 -1 517 7.0888046175241470e-03</internalNodes>
          <leafValues>
            -3.7915322929620743e-02 1.8540662527084351e-01</leafValues></_>
        <_>
          <internalNodes>
            0 -1 314 -6.5276786684989929e-02</internalNodes>
          <leafValues>
            1.1989309638738632e-01 -5.5931001901626587e-02</leafValues></_>
        <_>
          <internalNodes>
            0 -1 734 -7.7033024281263351e-03</internalNodes>
          <leafValues>
            -2.0358739793300629e-01 3.9690244942903519e-02</leafValues></_>
        <_>
          <internalNodes>
            0 -1 210 7.7482230961322784e-02</internalNodes>
          <leafValues>
            -3.9744358509778976e-02 1.8847361207008362e-01</leafValues></_>
        <_>
          <internalNodes>
            0 -1 856 -4.9071218818426132e-03</internalNodes>
          <leafValues>
            1.4265497028827667e-01 -5.3388338536024094e-02</leafValues></_>
        <_>
          <internalNodes>
            0 -1 1025 -2.5214202702045441e-02</internalNodes>
          <leafValues>
            1.9471643865108490e-01 -3.8711026310920715e-02</leafValues></_>
        <_>
          <internalNodes>
            0 -1 1102 -1.8961011664941907e-04</internalNodes>
          <leafValues>
            -1.1987363547086716e-01 6.4070373773574829e-02</leafValues></_>
        <_>
          <internalNodes>
            0 -1 1159 -2.9495992930606008e-04</internalNodes>
          <leafValues>
            -1.4060762524604797e-01 5.3072772920131683e-02</leafValues></_>
        <_>
          <internalNodes>
            0 -1 299 1.1648891493678093e-02</internalNodes>
          <leafValues>
            -2.5694658979773521e-02 3.0177059769630432e-01</leafValues></_>
        <_>
          <internalNodes>
            0 -1 1117 -1.1812942102551460e-03</internalNodes>
          <leafValues>
            3.4713777899742126e-01 -1.9357295706868172e-02</leafValues></_>
        <_>
          <internalNodes>
            0 -1 1251 -1.1995761269645300e-05</internalNodes>
          <leafValues>
            8.9381299912929535e-02 -7.4708633124828339e-02</leafValues></_>
        <_>
          <internalNodes>
            0 -1 712 2.4408113677054644e-04</internalNodes>
          <leafValues>
            6.3374049961566925e-02 -1.1028652638196945e-01</leafValues></_>
        <_>
          <internalNodes>
            0 -1 1029 1.3127359747886658e-01</internalNodes>
          <leafValues>
            8.8351042941212654e-03 -7.8802508115768433e-01</leafValues></_>
        <_>
          <internalNodes>
            0 -1 747 -2.8816452249884605e-02</internalNodes>
          <leafValues>
            1.2677036225795746e-01 -5.4824355989694595e-02</leafValues></_>
        <_>
          <internalNodes>
            0 -1 575 1.4901290647685528e-02</internalNodes>
          <leafValues>
            -5.9930842369794846e-02 1.2788213789463043e-01</leafValues></_>
        <_>
          <internalNodes>
            0 -1 709 -1.3236099039204419e-04</internalNodes>
          <leafValues>
            -1.1100448668003082e-01 6.3672617077827454e-02</leafValues></_>
        <_>
          <internalNodes>
            0 -1 14 5.5492250248789787e-03</internalNodes>
          <leafValues>
            -3.8963917642831802e-02 1.9975523650646210e-01</leafValues></_>
        <_>
          <internalNodes>
            0 -1 843 2.2482961416244507e-02</internalNodes>
          <leafValues>
            -5.6842956691980362e-02 1.3082365691661835e-01</leafValues></_>
        <_>
          <internalNodes>
            0 -1 746 4.1804891079664230e-03</internalNodes>
          <leafValues>
            3.9594873785972595e-02 -1.9259357452392578e-01</leafValues></_>
        <_>
          <internalNodes>
            0 -1 991 -2.6676785637391731e-05</internalNodes>
          <leafValues>
            9.5744989812374115e-02 -7.1122527122497559e-02</leafValues></_>
        <_>
          <internalNodes>
            0 -1 1083 1.1752331629395485e-03</internalNodes>
          <leafValues>
            4.8283036798238754e-02 -1.6968549787998199e-01</leafValues></_>
        <_>
          <internalNodes>
            0 -1 91 3.6841484252363443e-03</internalNodes>
          <leafValues>
            -2.4993229657411575e-02 2.7118209004402161e-01</leafValues></_>
        <_>
          <internalNodes>
            0 -1 298 2.4409763514995575e-02</internalNodes>
          <leafValues>
            1.3995632529258728e-02 -5.5264383554458618e-01</leafValues></_>
        <_>
          <internalNodes>
            0 -1 971 -1.9762220326811075e-03</internalNodes>
          <leafValues>
            3.0946764349937439e-01 -2.1314591169357300e-02</leafValues></_>
        <_>
          <internalNodes>
            0 -1 1149 -4.0597305633127689e-04</internalNodes>
          <leafValues>
            -1.4616712927818298e-01 4.2812190949916840e-02</leafValues></_>
        <_>
          <internalNodes>
            0 -1 1280 -2.3595010134158656e-05</internalNodes>
          <leafValues>
            9.9033161997795105e-02 -6.6754825413227081e-02</leafValues></_>
        <_>
          <internalNodes>
            0 -1 1280 1.0658285646059085e-05</internalNodes>
          <leafValues>
            -7.6489537954330444e-02 1.0509839653968811e-01</leafValues></_>
        <_>
          <internalNodes>
            0 -1 546 -5.0756917335093021e-04</internalNodes>
          <leafValues>
            -1.4943316578865051e-01 4.2352665215730667e-02</leafValues></_>
        <_>
          <internalNodes>
            0 -1 47 2.8467645868659019e-02</internalNodes>
          <leafValues>
            -1.4684105291962624e-02 4.6825501322746277e-01</leafValues></_>
        <_>
          <internalNodes>
            0 -1 302 -1.6491182148456573e-02</internalNodes>
          <leafValues>
            -2.9654055833816528e-01 2.3904556408524513e-02</leafValues></_>
        <_>
          <internalNodes>
            0 -1 203 1.0919896885752678e-03</internalNodes>
          <leafValues>
            -6.8056166172027588e-02 1.0467192530632019e-01</leafValues></_>
        <_>
          <internalNodes>
            0 -1 24 -2.2565235849469900e-03</internalNodes>
          <leafValues>
            1.3538506627082825e-01 -6.4055912196636200e-02</leafValues></_>
        <_>
          <internalNodes>
            0 -1 973 1.0209284955635667e-03</internalNodes>
          <leafValues>
            5.0249166786670685e-02 -1.4533945918083191e-01</leafValues></_>
        <_>
          <internalNodes>
            0 -1 45 -3.1483404338359833e-02</internalNodes>
          <leafValues>
            7.7519595623016357e-01 -7.2188004851341248e-03</leafValues></_>
        <_>
          <internalNodes>
            0 -1 1201 -3.2565476431045681e-05</internalNodes>
          <leafValues>
            8.7691240012645721e-02 -6.7357160151004791e-02</leafValues></_>
        <_>
          <internalNodes>
            0 -1 365 -1.6612336039543152e-01</internalNodes>
          <leafValues>
            -5.0835299491882324e-01 1.2010836973786354e-02</leafValues></_></weakClassifiers></_>
    <!-- stage 3 -->
    <_>
      <maxWeakCount>100</maxWeakCount>
      <stageThreshold>-5.3008669614791870e-01</stageThreshold>
      <weakClassifiers>
        <_>
          <internalNodes>
            0 -1 293 2.7952012605965137e-03</internalNodes>
          <leafValues>
            5.1389646530151367e-01 6.8817710876464844e-01</leafValues></_>
        <_>
          <internalNodes>
            0 -1 466 -3.1004481017589569e-02</internalNodes>
          <leafValues>
            2.9468667507171631e-01 1.8230231478810310e-02</leafValues></_>
        <_>
          <internalNodes>
            0 -1 658 -7.8877091407775879e-02</internalNodes>
          <leafValues>
            2.0100134611129761e-01 -7.2100579738616943e-02</leafValues></_>
        <_>
          <internalNodes>
            0 -1 29 -9.9761104211211205e-03</internalNodes>
          <leafValues>
            2.4974988400936127e-01 -7.6715171337127686e-02</leafValues></_>
        <_>
          <internalNodes>
            0 -1 557 6.7310333251953125e-03</internalNodes>
          <leafValues>
            -8.0534793436527252e-02 2.3701554536819458e-01</leafValues></_>
        <_>
          <internalNodes>
            0 -1 38 -5.3149860352277756e-02</internalNodes>
          <leafValues>
            2.2804528474807739e-01 -5.0084151327610016e-02</leafValues></_>
        <_>
          <internalNodes>
            0 -1 545 1.1044838465750217e-03</internalNodes>
          <leafValues>
            4.2918998748064041e-02 -2.8243204951286316e-01</leafValues></_>
        <_>
          <internalNodes>
            0 -1 540 -1.0549994185566902e-03</internalNodes>
          <leafValues>
            -2.0453797280788422e-01 6.1276450753211975e-02</leafValues></_>
        <_>
          <internalNodes>
            0 -1 716 9.8642371594905853e-02</internalNodes>
          <leafValues>
            -4.8853769898414612e-02 2.2470374405384064e-01</leafValues></_>
        <_>
          <internalNodes>
            0 -1 1005 -1.1879652447532862e-05</internalNodes>
          <leafValues>
            1.1185479164123535e-01 -8.2673408091068268e-02</leafValues></_>
        <_>
          <internalNodes>
            0 -1 448 3.2086211722344160e-03</internalNodes>
          <leafValues>
            -7.9414807260036469e-02 1.9793298840522766e-01</leafValues></_>
        <_>
          <internalNodes>
            0 -1 619 -3.0053917726036161e-05</internalNodes>
          <leafValues>
            1.1563906073570251e-01 -9.7698293626308441e-02</leafValues></_>
        <_>
          <internalNodes>
            0 -1 1311 -7.2843150701373816e-04</internalNodes>
          <leafValues>
            -1.6673590242862701e-01 5.6164063513278961e-02</leafValues></_>
        <_>
          <internalNodes>
            0 -1 1312 4.7165347496047616e-04</internalNodes>
          <leafValues>
            4.9462195485830307e-02 -1.9045208394527435e-01</leafValues></_>
        <_>
          <internalNodes>
            0 -1 526 -1.1529061339388136e-05</internalNodes>
          <leafValues>
            1.1095950007438660e-01 -7.6005063951015472e-02</leafValues></_>
        <_>
          <internalNodes>
            0 -1 526 1.0555500011832919e-05</internalNodes>
          <leafValues>
            -1.0261615365743637e-01 1.3024301826953888e-01</leafValues></_>
        <_>
          <internalNodes>
            0 -1 531 4.6429835492745042e-04</internalNodes>
          <leafValues>
            6.6500134766101837e-02 -1.3018839061260223e-01</leafValues></_>
        <_>
          <internalNodes>
            0 -1 771 1.2827741447836161e-03</internalNodes>
          <leafValues>
            -6.4091496169567108e-02 1.1806027591228485e-01</leafValues></_>
        <_>
          <internalNodes>
            0 -1 665 -5.1155621185898781e-03</internalNodes>
          <leafValues>
            1.2337858229875565e-01 -7.0178821682929993e-02</leafValues></_>
        <_>
          <internalNodes>
            0 -1 772 5.6320544332265854e-02</internalNodes>
          <leafValues>
            -4.9820464104413986e-02 1.6489653289318085e-01</leafValues></_>
        <_>
          <internalNodes>
            0 -1 830 -3.0439009889960289e-02</internalNodes>
          <leafValues>
            2.0583382248878479e-01 -5.3108047693967819e-02</leafValues></_>
        <_>
          <internalNodes>
            0 -1 218 -1.1863160878419876e-02</internalNodes>
          <leafValues>
            2.5391092896461487e-01 -3.1682308763265610e-02</leafValues></_>
        <_>
          <internalNodes>
            0 -1 455 3.5490264417603612e-04</internalNodes>
          <leafValues>
            5.8789055794477463e-02 -1.4893664419651031e-01</leafValues></_>
        <_>
          <internalNodes>
            0 -1 919 1.7966865561902523e-03</internalNodes>
          <leafValues>
            4.0265083312988281e-02 -1.9178542494773865e-01</leafValues></_>
        <_>
          <internalNodes>
            0 -1 431 -5.7904604822397232e-02</internalNodes>
          <leafValues>
            1.4207804203033447e-01 -5.5051438510417938e-02</leafValues></_>
        <_>
          <internalNodes>
            0 -1 327 2.3650117218494415e-03</internalNodes>
          <leafValues>
            -6.2075264751911163e-02 1.2340077012777328e-01</leafValues></_>
        <_>
          <internalNodes>
            0 -1 368 -1.0229201987385750e-02</internalNodes>
          <leafValues>
            1.3073498010635376e-01 -5.8159671723842621e-02</leafValues></_>
        <_>
          <internalNodes>
            0 -1 193 3.7471650284714997e-04</internalNodes>
          <leafValues>
            4.7807313501834869e-02 -1.5151534974575043e-01</leafValues></_>
        <_>
          <internalNodes>
            0 -1 868 -2.6411965489387512e-02</internalNodes>
          <leafValues>
            1.2703922390937805e-01 -5.5482298135757446e-02</leafValues></_>
        <_>
          <internalNodes>
            0 -1 1176 -8.3785154856741428e-05</internalNodes>
          <leafValues>
            9.4229325652122498e-02 -7.9715460538864136e-02</leafValues></_>
        <_>
          <internalNodes>
            0 -1 825 -1.0793667286634445e-02</internalNodes>
          <leafValues>
            1.0530815273523331e-01 -6.5097756683826447e-02</leafValues></_>
        <_>
          <internalNodes>
            0 -1 334 1.0565486550331116e-01</internalNodes>
          <leafValues>
            -1.5340141020715237e-02 4.3647563457489014e-01</leafValues></_>
        <_>
          <internalNodes>
            0 -1 550 -2.4796966463327408e-02</internalNodes>
          <leafValues>
            1.8385483324527740e-01 -4.0998503565788269e-02</leafValues></_>
        <_>
          <internalNodes>
            0 -1 506 4.0687719592824578e-04</internalNodes>
          <leafValues>
            6.3225351274013519e-02 -1.1708823591470718e-01</leafValues></_>
        <_>
          <internalNodes>
            0 -1 526 -1.1529061339388136e-05</internalNodes>
          <leafValues>
            9.8418556153774261e-02 -6.8817362189292908e-02</leafValues></_>
        <_>
          <internalNodes>
            0 -1 840 -2.1635286975651979e-04</internalNodes>
          <leafValues>
            -1.1779100447893143e-01 6.0017917305231094e-02</leafValues></_>
        <_>
          <internalNodes>
            0 -1 840 1.5428516780957580e-04</internalNodes>
          <leafValues>
            6.1109121888875961e-02 -1.1342637985944748e-01</leafValues></_>
        <_>
          <internalNodes>
            0 -1 490 1.1398704373277724e-05</internalNodes>
          <leafValues>
            -7.0484712719917297e-02 9.6452295780181885e-02</leafValues></_>
        <_>
          <internalNodes>
            0 -1 490 -1.0525559446250554e-05</internalNodes>
          <leafValues>
            1.3415922224521637e-01 -9.8149478435516357e-02</leafValues></_>
        <_>
          <internalNodes>
            0 -1 490 1.1398704373277724e-05</internalNodes>
          <leafValues>
            -7.3155894875526428e-02 1.0073766112327576e-01</leafValues></_>
        <_>
          <internalNodes>
            0 -1 160 4.1429011616855860e-04</internalNodes>
          <leafValues>
            4.2827904224395752e-02 -1.5047410130500793e-01</leafValues></_>
        <_>
          <internalNodes>
            0 -1 852 -2.7537746354937553e-03</internalNodes>
          <leafValues>
            4.2707788944244385e-01 -1.7184427008032799e-02</leafValues></_>
        <_>
          <internalNodes>
            0 -1 793 -4.0528770536184311e-02</internalNodes>
          <leafValues>
            1.4528240263462067e-01 -4.4172842055559158e-02</leafValues></_>
        <_>
          <internalNodes>
            0 -1 405 -2.0674159750342369e-02</internalNodes>
          <leafValues>
            1.7202462255954742e-01 -3.6847628653049469e-02</leafValues></_>
        <_>
          <internalNodes>
            0 -1 336 -2.9914281331002712e-03</internalNodes>
          <leafValues>
            9.3850053846836090e-02 -7.5309522449970245e-02</leafValues></_>
        <_>
          <internalNodes>
            0 -1 584 3.0327998683787882e-04</internalNodes>
          <leafValues>
            5.2108716219663620e-02 -1.2718619406223297e-01</leafValues></_>
        <_>
          <internalNodes>
            0 -1 1221 3.0183892231434584e-03</internalNodes>
          <leafValues>
            -1.4090925455093384e-02 4.5941051840782166e-01</leafValues></_>
        <_>
          <internalNodes>
            0 -1 914 -2.8926540166139603e-02</internalNodes>
          <leafValues>
            1.8574480712413788e-01 -3.3394891768693924e-02</leafValues></_>
        <_>
          <internalNodes>
            0 -1 737 -2.0462214946746826e-02</internalNodes>
          <leafValues>
            1.1607667803764343e-01 -6.5895110368728638e-02</leafValues></_>
        <_>
          <internalNodes>
            0 -1 106 -5.4012774489820004e-03</internalNodes>
          <leafValues>
            1.1129944771528244e-01 -6.0650691390037537e-02</leafValues></_>
        <_>
          <internalNodes>
            0 -1 1144 2.7820857940241694e-04</internalNodes>
          <leafValues>
            6.8775862455368042e-02 -9.7996711730957031e-02</leafValues></_>
        <_>
          <internalNodes>
            0 -1 1163 -6.8696532398462296e-03</internalNodes>
          <leafValues>
            1.1608867347240448e-01 -5.6979861110448837e-02</leafValues></_>
        <_>
          <internalNodes>
            0 -1 172 1.0616250801831484e-03</internalNodes>
          <leafValues>
            3.7701785564422607e-02 -1.6698037087917328e-01</leafValues></_>
        <_>
          <internalNodes>
            0 -1 92 -3.3616207540035248e-02</internalNodes>
          <leafValues>
            1.5346494317054749e-01 -4.3857127428054810e-02</leafValues></_>
        <_>
          <internalNodes>
            0 -1 181 -6.5917469328269362e-04</internalNodes>
          <leafValues>
            -1.2622644007205963e-01 5.0146505236625671e-02</leafValues></_>
        <_>
          <internalNodes>
            0 -1 464 -4.6103773638606071e-03</internalNodes>
          <leafValues>
            1.0289710015058517e-01 -6.5499611198902130e-02</leafValues></_>
        <_>
          <internalNodes>
            0 -1 529 1.1554854609130416e-05</internalNodes>
          <leafValues>
            -6.9725506007671356e-02 9.4985663890838623e-02</leafValues></_>
        <_>
          <internalNodes>
            0 -1 529 -1.0460708836035337e-05</internalNodes>
          <leafValues>
            9.3786619603633881e-02 -6.8168610334396362e-02</leafValues></_>
        <_>
          <internalNodes>
            0 -1 1069 2.1295748651027679e-02</internalNodes>
          <leafValues>
            -5.0417471677064896e-02 1.2331070005893707e-01</leafValues></_>
        <_>
          <internalNodes>
            0 -1 862 -3.7794094532728195e-04</internalNodes>
          <leafValues>
            -1.0760010033845901e-01 6.2761329114437103e-02</leafValues></_>
        <_>
          <internalNodes>
            0 -1 74 -3.3176001161336899e-03</internalNodes>
          <leafValues>
            9.7730316221714020e-02 -6.6778078675270081e-02</leafValues></_>
        <_>
          <internalNodes>
            0 -1 120 -1.9778911024332047e-02</internalNodes>
          <leafValues>
            3.5929888486862183e-01 -1.8084043636918068e-02</leafValues></_>
        <_>
          <internalNodes>
            0 -1 1167 -1.9460491836071014e-02</internalNodes>
          <leafValues>
            1.3083419203758240e-01 -4.7670442610979080e-02</leafValues></_>
        <_>
          <internalNodes>
            0 -1 1044 6.4439437119290233e-04</internalNodes>
          <leafValues>
            3.9980057626962662e-02 -1.5508592128753662e-01</leafValues></_>
        <_>
          <internalNodes>
            0 -1 169 1.7085439758375287e-03</internalNodes>
          <leafValues>
            3.6897830665111542e-02 -1.5937836468219757e-01</leafValues></_>
        <_>
          <internalNodes>
            0 -1 1 -1.8789891153573990e-02</internalNodes>
          <leafValues>
            7.8400039672851563e-01 -7.2062546387314796e-03</leafValues></_>
        <_>
          <internalNodes>
            0 -1 1110 3.6297328770160675e-02</internalNodes>
          <leafValues>
            1.9357172772288322e-02 -3.3979967236518860e-01</leafValues></_>
        <_>
          <internalNodes>
            0 -1 982 -1.1300708138151094e-05</internalNodes>
          <leafValues>
            9.0738423168659210e-02 -6.8182036280632019e-02</leafValues></_>
        <_>
          <internalNodes>
            0 -1 982 2.8551141440402716e-05</internalNodes>
          <leafValues>
            -7.4911542236804962e-02 9.7309745848178864e-02</leafValues></_>
        <_>
          <internalNodes>
            0 -1 1220 -7.3602492921054363e-04</internalNodes>
          <leafValues>
            -1.6857682168483734e-01 3.7110064178705215e-02</leafValues></_>
        <_>
          <internalNodes>
            0 -1 864 -5.0885258242487907e-03</internalNodes>
          <leafValues>
            1.8642182648181915e-01 -3.6889217793941498e-02</leafValues></_>
        <_>
          <internalNodes>
            0 -1 1125 1.1479202657938004e-03</internalNodes>
          <leafValues>
            -2.1204970777034760e-02 2.8183656930923462e-01</leafValues></_>
        <_>
          <internalNodes>
            0 -1 1317 -8.6492544505745173e-04</internalNodes>
          <leafValues>
            -2.0073966681957245e-01 3.1063439324498177e-02</leafValues></_>
        <_>
          <internalNodes>
            0 -1 510 -1.3029574416577816e-02</internalNodes>
          <leafValues>
            1.1935213208198547e-01 -4.8089276999235153e-02</leafValues></_>
        <_>
          <internalNodes>
            0 -1 829 1.8006680905818939e-01</internalNodes>
          <leafValues>
            1.3895445503294468e-02 -4.8497727513313293e-01</leafValues></_>
        <_>
          <internalNodes>
            0 -1 1158 -7.1722147986292839e-03</internalNodes>
          <leafValues>
            -1.9092306494712830e-01 3.0528493225574493e-02</leafValues></_>
        <_>
          <internalNodes>
            0 -1 1223 1.7582712695002556e-02</internalNodes>
          <leafValues>
            -4.0491621941328049e-02 1.6274325549602509e-01</leafValues></_>
        <_>
          <internalNodes>
            0 -1 1218 3.9124442264437675e-04</internalNodes>
          <leafValues>
            5.0368513911962509e-02 -1.3565543293952942e-01</leafValues></_>
        <_>
          <internalNodes>
            0 -1 1173 -1.3507895637303591e-03</internalNodes>
          <leafValues>
            3.6326286196708679e-01 -1.8319161608815193e-02</leafValues></_>
        <_>
          <internalNodes>
            0 -1 1153 -1.6901039634831250e-04</internalNodes>
          <leafValues>
            -1.0200034826993942e-01 6.0553587973117828e-02</leafValues></_>
        <_>
          <internalNodes>
            0 -1 935 -2.0858579874038696e-01</internalNodes>
          <leafValues>
            -6.2775719165802002e-01 9.3843508511781693e-03</leafValues></_>
        <_>
          <internalNodes>
            0 -1 455 -6.8938347976654768e-04</internalNodes>
          <leafValues>
            -1.5543021261692047e-01 3.7257552146911621e-02</leafValues></_>
        <_>
          <internalNodes>
            0 -1 373 5.7160053402185440e-03</internalNodes>
          <leafValues>
            -4.4188857078552246e-02 1.3208805024623871e-01</leafValues></_>
        <_>
          <internalNodes>
            0 -1 265 -5.0186889711767435e-04</internalNodes>
          <leafValues>
            8.7790615856647491e-02 -7.2093814611434937e-02</leafValues></_>
        <_>
          <internalNodes>
            0 -1 163 -2.6493879035115242e-02</internalNodes>
          <leafValues>
            -3.9609894156455994e-01 1.6476104035973549e-02</leafValues></_>
        <_>
          <internalNodes>
            0 -1 282 3.2470901496708393e-03</internalNodes>
          <leafValues>
            -4.8694137483835220e-02 1.2352819740772247e-01</leafValues></_>
        <_>
          <internalNodes>
            0 -1 174 -1.8096574349328876e-03</internalNodes>
          <leafValues>
            1.0979405790567398e-01 -6.4974181354045868e-02</leafValues></_>
        <_>
          <internalNodes>
            0 -1 870 2.5155130424536765e-04</internalNodes>
          <leafValues>
            6.1542134732007980e-02 -9.7474686801433563e-02</leafValues></_>
        <_>
          <internalNodes>
            0 -1 69 1.9976611656602472e-04</internalNodes>
          <leafValues>
            5.4021000862121582e-02 -1.0686655342578888e-01</leafValues></_>
        <_>
          <internalNodes>
            0 -1 230 -2.5670295144664124e-05</internalNodes>
          <leafValues>
            1.0204412788152695e-01 -6.8830497562885284e-02</leafValues></_>
        <_>
          <internalNodes>
            0 -1 230 1.0732385817391332e-05</internalNodes>
          <leafValues>
            -6.5029226243495941e-02 8.8075049221515656e-02</leafValues></_>
        <_>
          <internalNodes>
            0 -1 79 2.9601394198834896e-03</internalNodes>
          <leafValues>
            2.7016453444957733e-02 -2.1614095568656921e-01</leafValues></_>
        <_>
          <internalNodes>
            0 -1 639 -2.3279184103012085e-01</internalNodes>
          <leafValues>
            -6.7602074146270752e-01 8.5956016555428505e-03</leafValues></_>
        <_>
          <internalNodes>
            0 -1 565 -1.7704900354146957e-02</internalNodes>
          <leafValues>
            7.1293717622756958e-01 -1.0138998739421368e-02</leafValues></_>
        <_>
          <internalNodes>
            0 -1 1245 -2.7429210022091866e-03</internalNodes>
          <leafValues>
            4.1857817769050598e-01 -1.1853093281388283e-02</leafValues></_>
        <_>
          <internalNodes>
            0 -1 1141 2.1774358174297959e-05</internalNodes>
          <leafValues>
            -6.4507059752941132e-02 8.4403149783611298e-02</leafValues></_>
        <_>
          <internalNodes>
            0 -1 970 -1.7763834446668625e-02</internalNodes>
          <leafValues>
            -4.9073043465614319e-01 1.1384148150682449e-02</leafValues></_>
        <_>
          <internalNodes>
            0 -1 450 -5.3253187797963619e-04</internalNodes>
          <leafValues>
            -1.3905175030231476e-01 3.7714362144470215e-02</leafValues></_>
        <_>
          <internalNodes>
            0 -1 855 -1.1488146148622036e-02</internalNodes>
          <leafValues>
            1.9616977870464325e-01 -2.8608268126845360e-02</leafValues></_>
        <_>
          <internalNodes>
            0 -1 1135 1.7636349657550454e-03</internalNodes>
          <leafValues>
            4.4957473874092102e-02 -1.3151033222675323e-01</leafValues></_></weakClassifiers></_>
    <!-- stage 4 -->
    <_>
      <maxWeakCount>100</maxWeakCount>
      <stageThreshold>-6.2347215414047241e-01</stageThreshold>
      <weakClassifiers>
        <_>
          <internalNodes>
            0 -1 290 -6.0924356803297997e-03</internalNodes>
          <leafValues>
            7.5628226995468140e-01 5.1913523674011230e-01</leafValues></_>
        <_>
          <internalNodes>
            0 -1 237 6.1304480768740177e-03</internalNodes>
          <leafValues>
            2.3232145234942436e-02 3.9860510826110840e-01</leafValues></_>
        <_>
          <internalNodes>
            0 -1 87 -3.1063228379935026e-03</internalNodes>
          <leafValues>
            2.2713127732276917e-01 -1.4381060004234314e-01</leafValues></_>
        <_>
          <internalNodes>
            0 -1 705 3.7219389341771603e-03</internalNodes>
          <leafValues>
            -7.2570480406284332e-02 2.2924663126468658e-01</leafValues></_>
        <_>
          <internalNodes>
            0 -1 704 -3.2482603564858437e-03</internalNodes>
          <leafValues>
            2.3461063206195831e-01 -8.8347755372524261e-02</leafValues></_>
        <_>
          <internalNodes>
            0 -1 73 -2.0436578989028931e-01</internalNodes>
          <leafValues>
            1.9252862036228180e-01 -6.8471796810626984e-02</leafValues></_>
        <_>
          <internalNodes>
            0 -1 418 -1.2725260853767395e-01</internalNodes>
          <leafValues>
            3.1005281209945679e-01 -6.8395234644412994e-02</leafValues></_>
        <_>
          <internalNodes>
            0 -1 648 2.8221567627042532e-03</internalNodes>
          <leafValues>
            -7.3162198066711426e-02 1.9583392143249512e-01</leafValues></_>
        <_>
          <internalNodes>
            0 -1 767 -3.0127610079944134e-03</internalNodes>
          <leafValues>
            2.5119760632514954e-01 -9.0060487389564514e-02</leafValues></_>
        <_>
          <internalNodes>
            0 -1 585 2.3428173153661191e-04</internalNodes>
          <leafValues>
            7.5798414647579193e-02 -1.3414277136325836e-01</leafValues></_>
        <_>
          <internalNodes>
            0 -1 730 -1.2685381807386875e-02</internalNodes>
          <leafValues>
            3.3655768632888794e-01 -2.8225585818290710e-02</leafValues></_>
        <_>
          <internalNodes>
            0 -1 615 -3.1152387964539230e-04</internalNodes>
          <leafValues>
            -1.5594318509101868e-01 6.2787652015686035e-02</leafValues></_>
        <_>
          <internalNodes>
            0 -1 750 -7.2012264281511307e-03</internalNodes>
          <leafValues>
            1.2353244423866272e-01 -6.9541983306407928e-02</leafValues></_>
        <_>
          <internalNodes>
            0 -1 1292 3.7147704279050231e-04</internalNodes>
          <leafValues>
            5.1127158105373383e-02 -1.6837663948535919e-01</leafValues></_>
        <_>
          <internalNodes>
            0 -1 731 2.7127869427204132e-02</internalNodes>
          <leafValues>
            -5.2585307508707047e-02 1.5602613985538483e-01</leafValues></_>
        <_>
          <internalNodes>
            0 -1 811 8.4099642932415009e-02</internalNodes>
          <leafValues>
            -5.3676519542932510e-02 1.7551580071449280e-01</leafValues></_>
        <_>
          <internalNodes>
            0 -1 571 -1.3760012388229370e-01</internalNodes>
          <leafValues>
            1.9027020037174225e-01 -5.3394868969917297e-02</leafValues></_>
        <_>
          <internalNodes>
            0 -1 77 -1.4300142228603363e-01</internalNodes>
          <leafValues>
            2.2066786885261536e-01 -4.4126208871603012e-02</leafValues></_>
        <_>
          <internalNodes>
            0 -1 921 -1.2478220742195845e-03</internalNodes>
          <leafValues>
            -2.9184660315513611e-01 3.1725667417049408e-02</leafValues></_>
        <_>
          <internalNodes>
            0 -1 131 2.9131858609616756e-03</internalNodes>
          <leafValues>
            -6.4882092177867889e-02 1.4346674084663391e-01</leafValues></_>
        <_>
          <internalNodes>
            0 -1 921 4.0147194522432983e-04</internalNodes>
          <leafValues>
            5.1238715648651123e-02 -1.7687286436557770e-01</leafValues></_>
        <_>
          <internalNodes>
            0 -1 651 1.0426514563732781e-05</internalNodes>
          <leafValues>
            -7.8139290213584900e-02 1.1366409808397293e-01</leafValues></_>
        <_>
          <internalNodes>
            0 -1 651 -2.8349204512778670e-05</internalNodes>
          <leafValues>
            1.1828837543725967e-01 -9.0937264263629913e-02</leafValues></_>
        <_>
          <internalNodes>
            0 -1 833 -1.0816079338837881e-05</internalNodes>
          <leafValues>
            1.1416000872850418e-01 -7.4327483773231506e-02</leafValues></_>
        <_>
          <internalNodes>
            0 -1 833 2.3142361897043884e-05</internalNodes>
          <leafValues>
            -9.0144224464893341e-02 1.0872247070074081e-01</leafValues></_>
        <_>
          <internalNodes>
            0 -1 923 1.9306370813865215e-04</internalNodes>
          <leafValues>
            6.9075144827365875e-02 -1.2808768451213837e-01</leafValues></_>
        <_>
          <internalNodes>
            0 -1 1028 2.1000148262828588e-04</internalNodes>
          <leafValues>
            6.6089220345020294e-02 -1.2718099355697632e-01</leafValues></_>
        <_>
          <internalNodes>
            0 -1 1022 2.2774300305172801e-05</internalNodes>
          <leafValues>
            -8.6477890610694885e-02 1.2105889618396759e-01</leafValues></_>
        <_>
          <internalNodes>
            0 -1 1022 -2.8642745746765286e-05</internalNodes>
          <leafValues>
            1.1483386904001236e-01 -8.5936665534973145e-02</leafValues></_>
        <_>
          <internalNodes>
            0 -1 12 -6.7515514791011810e-02</internalNodes>
          <leafValues>
            1.3817910850048065e-01 -6.0626171529293060e-02</leafValues></_>
        <_>
          <internalNodes>
            0 -1 97 7.4556499719619751e-02</internalNodes>
          <leafValues>
            -5.7557795196771622e-02 1.7982345819473267e-01</leafValues></_>
        <_>
          <internalNodes>
            0 -1 385 5.5447807535529137e-03</internalNodes>
          <leafValues>
            -4.2339161038398743e-02 2.1911162137985229e-01</leafValues></_>
        <_>
          <internalNodes>
            0 -1 32 -7.8876046463847160e-03</internalNodes>
          <leafValues>
            1.9319178164005280e-01 -4.5741911977529526e-02</leafValues></_>
        <_>
          <internalNodes>
            0 -1 171 2.9600458219647408e-04</internalNodes>
          <leafValues>
            5.4049629718065262e-02 -1.6007724404335022e-01</leafValues></_>
        <_>
          <internalNodes>
            0 -1 1008 1.2782102450728416e-02</internalNodes>
          <leafValues>
            -1.5390745364129543e-02 5.3072929382324219e-01</leafValues></_>
        <_>
          <internalNodes>
            0 -1 1073 -2.1691210567951202e-02</internalNodes>
          <leafValues>
            1.5750969946384430e-01 -4.7829285264015198e-02</leafValues></_>
        <_>
          <internalNodes>
            0 -1 922 -4.9527216469869018e-04</internalNodes>
          <leafValues>
            -1.7524582147598267e-01 4.6590432524681091e-02</leafValues></_>
        <_>
          <internalNodes>
            0 -1 955 3.0310005968203768e-05</internalNodes>
          <leafValues>
            -7.4197553098201752e-02 1.0120817273855209e-01</leafValues></_>
        <_>
          <internalNodes>
            0 -1 176 -2.9719213489443064e-04</internalNodes>
          <leafValues>
            -1.4396758377552032e-01 5.1368102431297302e-02</leafValues></_>
        <_>
          <internalNodes>
            0 -1 60 -2.9338866472244263e-02</internalNodes>
          <leafValues>
            1.3526216149330139e-01 -5.5159606039524078e-02</leafValues></_>
        <_>
          <internalNodes>
            0 -1 406 -2.4752179160714149e-02</internalNodes>
          <leafValues>
            1.3877464830875397e-01 -5.9035271406173706e-02</leafValues></_>
        <_>
          <internalNodes>
            0 -1 897 -4.9810577183961868e-03</internalNodes>
          <leafValues>
            4.5252227783203125e-01 -1.7453933134675026e-02</leafValues></_>
        <_>
          <internalNodes>
            0 -1 404 -1.6748497262597084e-02</internalNodes>
          <leafValues>
            -4.9692749977111816e-01 1.6017103567719460e-02</leafValues></_>
        <_>
          <internalNodes>
            0 -1 1027 1.5569391846656799e-01</internalNodes>
          <leafValues>
            -2.7953626587986946e-02 2.7896124124526978e-01</leafValues></_>
        <_>
          <internalNodes>
            0 -1 131 -4.1293147951364517e-03</internalNodes>
          <leafValues>
            1.3258215785026550e-01 -5.1778819411993027e-02</leafValues></_>
        <_>
          <internalNodes>
            0 -1 1293 2.2154732141643763e-04</internalNodes>
          <leafValues>
            5.2825652062892914e-02 -1.3260835409164429e-01</leafValues></_>
        <_>
          <internalNodes>
            0 -1 827 -1.0639839274517726e-05</internalNodes>
          <leafValues>
            9.5381528139114380e-02 -7.3144666850566864e-02</leafValues></_>
        <_>
          <internalNodes>
            0 -1 410 2.6754418286145665e-05</internalNodes>
          <leafValues>
            -6.8858891725540161e-02 9.6100643277168274e-02</leafValues></_>
        <_>
          <internalNodes>
            0 -1 917 1.5551378950476646e-02</internalNodes>
          <leafValues>
            -1.1975192464888096e-02 5.7474058866500854e-01</leafValues></_>
        <_>
          <internalNodes>
            0 -1 908 -3.9614079287275672e-04</internalNodes>
          <leafValues>
            -1.0872742533683777e-01 6.2350910156965256e-02</leafValues></_>
        <_>
          <internalNodes>
            0 -1 972 2.2104695744928904e-05</internalNodes>
          <leafValues>
            -6.9249555468559265e-02 9.7954906523227692e-02</leafValues></_>
        <_>
          <internalNodes>
            0 -1 1149 2.0827661501243711e-04</internalNodes>
          <leafValues>
            5.4077800363302231e-02 -1.2381158769130707e-01</leafValues></_>
        <_>
          <internalNodes>
            0 -1 1178 2.4974055122584105e-05</internalNodes>
          <leafValues>
            -6.9074578583240509e-02 9.6216067671775818e-02</leafValues></_>
        <_>
          <internalNodes>
            0 -1 548 1.5872783958911896e-02</internalNodes>
          <leafValues>
            1.6472175717353821e-02 -4.0020716190338135e-01</leafValues></_>
        <_>
          <internalNodes>
            0 -1 505 1.3937720796093345e-03</internalNodes>
          <leafValues>
            -1.9248530268669128e-02 3.7498450279235840e-01</leafValues></_>
        <_>
          <internalNodes>
            0 -1 415 2.1699536591768265e-04</internalNodes>
          <leafValues>
            6.4336553215980530e-02 -1.0373999923467636e-01</leafValues></_>
        <_>
          <internalNodes>
            0 -1 646 -4.5910187065601349e-02</internalNodes>
          <leafValues>
            1.2090245634317398e-01 -5.5058564990758896e-02</leafValues></_>
        <_>
          <internalNodes>
            0 -1 232 2.9905498027801514e-01</internalNodes>
          <leafValues>
            -3.9914481341838837e-02 1.8890702724456787e-01</leafValues></_>
        <_>
          <internalNodes>
            0 -1 116 1.3669925928115845e-01</internalNodes>
          <leafValues>
            2.4976132437586784e-02 -3.1277433037757874e-01</leafValues></_>
        <_>
          <internalNodes>
            0 -1 503 2.6050953238154761e-05</internalNodes>
          <leafValues>
            -6.8938538432121277e-02 9.6483968198299408e-02</leafValues></_>
        <_>
          <internalNodes>
            0 -1 516 1.2084968388080597e-02</internalNodes>
          <leafValues>
            -2.3972660303115845e-02 2.6659950613975525e-01</leafValues></_>
        <_>
          <internalNodes>
            0 -1 944 7.0141583681106567e-02</internalNodes>
          <leafValues>
            -2.6203105226159096e-02 2.4961251020431519e-01</leafValues></_>
        <_>
          <internalNodes>
            0 -1 1130 2.6037718635052443e-04</internalNodes>
          <leafValues>
            5.6873276829719543e-02 -1.2268858402967453e-01</leafValues></_>
        <_>
          <internalNodes>
            0 -1 1131 2.3271678015589714e-02</internalNodes>
          <leafValues>
            1.6933586448431015e-02 -3.6058837175369263e-01</leafValues></_>
        <_>
          <internalNodes>
            0 -1 112 1.8187917768955231e-02</internalNodes>
          <leafValues>
            1.8020495772361755e-02 -3.3725440502166748e-01</leafValues></_>
        <_>
          <internalNodes>
            0 -1 343 -4.1790516115725040e-03</internalNodes>
          <leafValues>
            1.0259351879358292e-01 -6.6318079829216003e-02</leafValues></_>
        <_>
          <internalNodes>
            0 -1 1165 1.3006238732486963e-03</internalNodes>
          <leafValues>
            -1.8693890422582626e-02 3.3757033944129944e-01</leafValues></_>
        <_>
          <internalNodes>
            0 -1 1184 -2.0286422222852707e-03</internalNodes>
          <leafValues>
            3.6225315928459167e-01 -1.6119454056024551e-02</leafValues></_>
        <_>
          <internalNodes>
            0 -1 1302 -3.6768818972632289e-04</internalNodes>
          <leafValues>
            -1.3588789105415344e-01 4.4504407793283463e-02</leafValues></_>
        <_>
          <internalNodes>
            0 -1 1283 -4.9405335448682308e-04</internalNodes>
          <leafValues>
            1.1004243791103363e-01 -5.7357653975486755e-02</leafValues></_>
        <_>
          <internalNodes>
            0 -1 1086 -1.3035323936492205e-03</internalNodes>
          <leafValues>
            3.5921794176101685e-01 -1.7546357586979866e-02</leafValues></_>
        <_>
          <internalNodes>
            0 -1 551 -5.5022060871124268e-02</internalNodes>
          <leafValues>
            1.6462969779968262e-01 -3.5989008843898773e-02</leafValues></_>
        <_>
          <internalNodes>
            0 -1 62 2.8090022504329681e-02</internalNodes>
          <leafValues>
            -4.2435403913259506e-02 1.6297897696495056e-01</leafValues></_>
        <_>
          <internalNodes>
            0 -1 208 6.6662289202213287e-02</internalNodes>
          <leafValues>
            -2.8394775465130806e-02 2.2083120048046112e-01</leafValues></_>
        <_>
          <internalNodes>
            0 -1 612 4.6501873293891549e-04</internalNodes>
          <leafValues>
            5.7053253054618835e-02 -1.1892973631620407e-01</leafValues></_>
        <_>
          <internalNodes>
            0 -1 687 -2.4895089154597372e-05</internalNodes>
          <leafValues>
            9.4558268785476685e-02 -6.9777987897396088e-02</leafValues></_>
        <_>
          <internalNodes>
            0 -1 1085 -1.0460708836035337e-05</internalNodes>
          <leafValues>
            9.3538671731948853e-02 -6.8752631545066833e-02</leafValues></_>
        <_>
          <internalNodes>
            0 -1 1212 2.4485652102157474e-04</internalNodes>
          <leafValues>
            5.2358217537403107e-02 -1.2470036745071411e-01</leafValues></_>
        <_>
          <internalNodes>
            0 -1 1162 1.9450828433036804e-02</internalNodes>
          <leafValues>
            -3.7975922226905823e-02 1.7825332283973694e-01</leafValues></_>
        <_>
          <internalNodes>
            0 -1 1129 1.0912594152614474e-03</internalNodes>
          <leafValues>
            5.4450649768114090e-02 -1.2732362747192383e-01</leafValues></_>
        <_>
          <internalNodes>
            0 -1 1215 1.7225920455530286e-03</internalNodes>
          <leafValues>
            -3.0274016782641411e-02 2.1575909852981567e-01</leafValues></_>
        <_>
          <internalNodes>
            0 -1 1217 -1.0184097336605191e-03</internalNodes>
          <leafValues>
            -2.2285775840282440e-01 3.1181370839476585e-02</leafValues></_>
        <_>
          <internalNodes>
            0 -1 268 4.2659873142838478e-03</internalNodes>
          <leafValues>
            -4.6440679579973221e-02 1.3862997293472290e-01</leafValues></_>
        <_>
          <internalNodes>
            0 -1 257 -1.6704345121979713e-02</internalNodes>
          <leafValues>
            -4.2002090811729431e-01 1.5255559235811234e-02</leafValues></_>
        <_>
          <internalNodes>
            0 -1 937 -6.8039879202842712e-02</internalNodes>
          <leafValues>
            -6.7704987525939941e-01 8.1631289795041084e-03</leafValues></_>
        <_>
          <internalNodes>
            0 -1 234 1.0466946288943291e-02</internalNodes>
          <leafValues>
            3.1241361051797867e-02 -1.8608067929744720e-01</leafValues></_>
        <_>
          <internalNodes>
            0 -1 502 -2.1834577637491748e-05</internalNodes>
          <leafValues>
            9.3890741467475891e-02 -7.0670388638973236e-02</leafValues></_>
        <_>
          <internalNodes>
            0 -1 593 1.1649245396256447e-02</internalNodes>
          <leafValues>
            3.0801329761743546e-02 -1.9499693810939789e-01</leafValues></_>
        <_>
          <internalNodes>
            0 -1 124 -3.7604887038469315e-03</internalNodes>
          <leafValues>
            1.4222824573516846e-01 -4.6815443783998489e-02</leafValues></_>
        <_>
          <internalNodes>
            0 -1 320 1.0474064946174622e-01</internalNodes>
          <leafValues>
            1.1692757718265057e-02 -5.5930483341217041e-01</leafValues></_>
        <_>
          <internalNodes>
            0 -1 924 8.2916754763573408e-04</internalNodes>
          <leafValues>
            4.8461463302373886e-02 -1.2369469553232193e-01</leafValues></_>
        <_>
          <internalNodes>
            0 -1 331 -1.6961073270067573e-03</internalNodes>
          <leafValues>
            1.0658875107765198e-01 -5.7693637907505035e-02</leafValues></_>
        <_>
          <internalNodes>
            0 -1 229 2.8917388990521431e-03</internalNodes>
          <leafValues>
            -5.8333814144134521e-02 1.2701863050460815e-01</leafValues></_>
        <_>
          <internalNodes>
            0 -1 1243 1.2852847576141357e-02</internalNodes>
          <leafValues>
            2.5945890694856644e-02 -2.5686967372894287e-01</leafValues></_>
        <_>
          <internalNodes>
            0 -1 896 1.7868758004624397e-04</internalNodes>
          <leafValues>
            5.9017684310674667e-02 -1.0503696650266647e-01</leafValues></_>
        <_>
          <internalNodes>
            0 -1 880 -1.1925369035452604e-03</internalNodes>
          <leafValues>
            3.4609195590019226e-01 -1.7612649127840996e-02</leafValues></_>
        <_>
          <internalNodes>
            0 -1 422 -1.0364572517573833e-02</internalNodes>
          <leafValues>
            6.1966168880462646e-01 -8.6362129077315331e-03</leafValues></_>
        <_>
          <internalNodes>
            0 -1 627 1.5098432777449489e-04</internalNodes>
          <leafValues>
            5.7017117738723755e-02 -1.0420740395784378e-01</leafValues></_>
        <_>
          <internalNodes>
